<?xml version="1.0"?>
<opencv_storage>
<opencv_ml_svm>
  <format>3</format>
  <svmType>C_SVC</svmType>
  <kernel>
    <type>LINEAR</type></kernel>
  <C>1.</C>
  <term_criteria><epsilon>1.1920928955078125e-07</epsilon>
    <iterations>1000</iterations></term_criteria>
  <var_count>3780</var_count>
  <class_count>2</class_count>
  <class_labels type_id="opencv-matrix">
    <rows>2</rows>
    <cols>1</cols>
    <dt>i</dt>
    <data>
      0 1</data></class_labels>
  <sv_total>1</sv_total>
  <support_vectors>
    <_>
      5.29538700e-03 1.67855565e-02 -6.92799082e-03 -8.32653511e-03
      -2.92390902e-02 -1.78081766e-02 -6.63115410e-03 -2.54878541e-03
      -6.54811971e-03 2.58325282e-02 1.03398981e-02 1.49293812e-02
      -1.87031887e-02 -1.64255705e-02 -1.22362860e-02 7.76068866e-03
      6.36006752e-03 -7.62623735e-04 3.47062410e-03 5.05348109e-03
      5.15942695e-03 -7.14130001e-03 -2.75401529e-02 4.42985352e-03
      2.05134507e-03 -7.24950980e-04 -9.29601304e-03 1.61645450e-02
      1.30530335e-02 1.38249798e-02 -2.22811922e-02 -3.47435288e-02
      6.39172923e-03 2.56219096e-02 1.43355681e-02 1.45408663e-03
      1.85076166e-02 1.39998598e-02 4.14006459e-03 -2.47447230e-02
      -2.43347865e-02 -1.47362892e-02 1.84809845e-02 2.82987719e-04
      1.17595149e-02 3.91703472e-03 2.50094719e-02 -8.12087860e-03
      -2.39179190e-02 -4.28273119e-02 -7.90365785e-03 1.92947909e-02
      9.04193800e-03 2.40359660e-02 1.40616326e-02 1.72445774e-02
      7.43820472e-03 -3.04107629e-02 -3.68738733e-02 -8.54244083e-03
      2.51834020e-02 4.12161415e-03 6.98011508e-03 6.79620635e-03
      1.83725692e-02 2.49172398e-03 -3.03127319e-02 -2.97246221e-02
      -2.37502716e-02 1.99165959e-02 3.76214017e-03 5.79441898e-03
      6.35265838e-03 1.13726305e-02 7.82917626e-03 -8.93163774e-03
      -2.20090337e-02 1.27055282e-02 1.64596774e-02 1.11768041e-02
      1.10431967e-04 1.42711988e-02 2.90792715e-03 1.86568070e-02
      1.17703825e-02 -2.76021473e-02 -1.09564289e-02 -1.62633546e-02
      -5.79799758e-03 -1.73867829e-02 -6.81697275e-04 1.21390885e-02
      -1.42661901e-03 -2.17998195e-02 -1.18264938e-02 4.87325509e-04
      1.14527149e-02 1.89011842e-02 -4.11287742e-03 -6.70689810e-03
      -5.28262835e-03 -7.02370540e-04 1.03604635e-02 -1.98637135e-02
      -5.54935215e-03 -1.43296178e-02 -8.24815128e-03 -1.15492688e-02
      7.32193328e-03 2.92816828e-03 1.63702946e-02 -1.38102155e-02
      -3.08824033e-02 -4.41748276e-03 4.45814477e-03 -9.52474587e-03
      -1.87494550e-02 1.15579739e-02 9.87497717e-03 9.24152322e-03
      -1.29749877e-02 -1.52491853e-02 2.41850931e-02 3.13193500e-02
      -2.10559182e-03 -1.09474920e-02 -5.25237015e-03 -2.68003764e-03
      9.03556030e-03 -1.38146663e-02 -2.66849790e-02 -1.43847167e-02
      -1.46908844e-02 -9.78462771e-03 -1.06398677e-02 -6.61756704e-03
      1.08393794e-02 1.96609087e-02 -7.55428243e-03 -2.62559298e-03
      2.99459919e-02 1.12248892e-02 -2.95874011e-03 -1.31773679e-02
      -2.54380442e-02 1.50602276e-03 4.52116178e-03 -4.33471426e-03
      1.04866165e-03 1.79823004e-02 2.60585565e-02 -1.61848438e-03
      -3.16710696e-02 -3.18036005e-02 -7.53989350e-03 8.30916595e-03
      -3.68233328e-03 2.15135645e-02 1.49100386e-02 4.69506765e-03
      -6.39048638e-03 -3.54072638e-02 -2.35942714e-02 7.85856415e-03
      -3.40736005e-03 -3.95637983e-03 1.72157194e-02 5.30098304e-02
      1.35023613e-02 -1.03487717e-02 -3.38167176e-02 -2.24200133e-02
      -4.95150965e-03 -1.50808366e-02 -1.05314488e-02 1.04109040e-02
      3.07004843e-02 2.05944851e-03 -8.38127080e-03 -3.79726253e-02
      5.41177439e-03 -2.51388946e-03 4.26476169e-03 2.87920050e-03
      3.15320282e-03 2.81591248e-03 1.07970182e-03 -9.17745288e-03
      -6.06469996e-03 3.20143159e-03 -2.95817689e-03 -1.53389887e-03
      7.51020527e-03 -2.14130301e-02 -3.96907004e-03 1.64963808e-02
      3.20259407e-02 2.53388453e-02 -1.75797264e-03 -1.49681903e-02
      -9.02620330e-03 3.46285291e-03 -1.26180602e-02 7.30548985e-03
      -1.32535975e-02 -6.44082204e-04 -1.26188726e-03 -7.66999600e-03
      -2.64416821e-03 6.43989630e-03 1.62247811e-02 -1.60040297e-02
      -6.70488109e-04 4.34884289e-03 8.21385626e-03 5.23454603e-03
      1.11210335e-03 3.03641218e-03 -1.02526750e-02 -1.30810542e-02
      -2.13426407e-02 -1.03118001e-02 1.81275718e-02 2.44821031e-02
      1.44128576e-02 2.26633754e-02 -9.96516179e-03 -2.78131515e-02
      -4.33080178e-03 -2.61880830e-02 -2.70814952e-02 -2.04726774e-03
      -6.39366405e-03 1.94960143e-02 -1.24951592e-02 -4.21489822e-03
      3.15040350e-03 -1.71001488e-03 -1.98311247e-02 1.41470204e-03
      2.51947101e-02 5.82154794e-03 3.81370168e-03 -7.03726709e-03
      -1.28827896e-02 -1.46851540e-02 -8.11290403e-04 -2.11944748e-02
      -2.74537923e-03 2.38856804e-02 7.28795771e-03 -3.42861982e-04
      1.41971949e-02 -4.26029880e-03 -2.70085596e-02 -5.50388405e-03
      -2.05073096e-02 -1.34465173e-02 1.56148905e-02 2.86546070e-03
      2.04149913e-02 -2.85209599e-03 -7.95262028e-03 -4.06939536e-02
      -1.51531026e-02 -1.55638922e-02 -1.27594238e-02 2.42158435e-02
      4.09086943e-02 2.38406956e-02 -9.87016410e-03 -1.26775987e-02
      -1.18556106e-02 2.01917347e-02 -1.01226000e-02 4.39534942e-03
      1.79374944e-02 1.62159335e-02 1.70246861e-03 -7.13944528e-03
      -2.67854594e-02 -8.15744232e-03 3.63612035e-03 3.26281134e-03
      1.53715629e-03 2.54394859e-02 3.70190069e-02 2.13092696e-02
      2.85347942e-02 3.13841010e-04 -3.31114382e-02 -6.58394536e-03
      -1.43362088e-02 -1.64608937e-02 -2.45033973e-03 2.13468540e-02
      4.67449762e-02 3.36146802e-02 -3.30596301e-03 -2.12732702e-02
      -2.88218558e-02 -2.85202730e-02 -1.78835560e-02 -1.06400764e-02
      1.64577179e-02 4.06785943e-02 1.42897684e-02 -1.89503320e-02
      -2.59594321e-02 -9.92308278e-03 -5.13796788e-03 -8.33516102e-03
      1.69423111e-02 2.52305027e-02 3.40991169e-02 2.36809384e-02
      -1.01662353e-02 -3.32402289e-02 -2.24237833e-02 -1.34899532e-02
      -1.49310725e-02 -1.02323517e-02 4.40670084e-03 3.08952834e-02
      2.48956122e-02 -1.91396624e-02 -2.07774639e-02 -2.37079430e-02
      -2.25415733e-02 -8.14553723e-03 -1.71152782e-03 2.22194437e-02
      2.86582056e-02 2.25248728e-02 -1.65169276e-02 -2.01341007e-02
      -9.80747212e-03 1.43218925e-03 1.46091608e-02 3.03077535e-03
      3.37304883e-02 2.99200211e-02 -4.90745716e-03 -7.59654818e-03
      -6.37575239e-03 -1.88248623e-02 -1.94942988e-02 -1.56054366e-02
      -1.42883947e-02 1.02205260e-03 1.77235866e-04 -5.72644640e-03
      -1.49570312e-02 -3.51039576e-03 -9.32470150e-03 -8.55394825e-03
      6.43652119e-03 -2.59891106e-03 2.55494434e-02 1.74749326e-02
      2.21549422e-02 -1.85978245e-02 -2.86432058e-02 -6.13807561e-03
      -1.09580671e-02 -3.74750397e-03 -1.04265930e-02 3.08177415e-02
      3.71842124e-02 1.36761740e-02 -8.80363770e-03 -4.25643511e-02
      -2.43869051e-02 -3.28689851e-02 -3.36855091e-02 -2.57972395e-03
      1.68192685e-02 2.52970289e-02 1.12103838e-02 -2.41981037e-02
      -3.03334706e-02 -1.62546691e-02 -2.90941418e-04 -1.58955937e-03
      -8.29514465e-04 2.82103550e-02 3.25174443e-02 1.75628047e-02
      4.15846612e-03 -2.78532319e-02 -2.12545823e-02 -9.50299948e-03
      -2.55985409e-02 5.61708445e-03 1.81598123e-02 2.25972086e-02
      2.29632631e-02 2.41715852e-02 -1.99565664e-02 -1.84898768e-02
      -1.49811795e-02 -2.27105282e-02 1.80667564e-02 3.24704126e-02
      2.82460880e-02 -1.87144871e-03 -7.80226476e-03 -2.20264979e-02
      -3.60972472e-02 -3.44616622e-02 -1.23882871e-02 -4.86416277e-03
      8.76776103e-05 -8.64961930e-03 1.29466746e-02 2.76565105e-02
      4.22153767e-04 4.26240033e-04 1.80566050e-02 -6.80479966e-03
      2.22882945e-02 2.94794925e-02 8.48947652e-03 -2.19766926e-02
      -1.82767324e-02 -2.20870581e-02 -1.63908750e-02 5.92696015e-03
      1.27946371e-02 1.35423969e-02 2.04085875e-02 -2.13164575e-02
      -2.58181300e-02 -1.69110633e-02 -1.65386070e-02 -3.33520733e-02
      -2.24117618e-02 1.81276035e-02 1.95906498e-02 2.86227055e-02
      -1.42503958e-02 -2.07610037e-02 -1.91437099e-02 -1.50855421e-03
      -1.78458150e-02 1.09266173e-02 2.47505028e-02 3.40786800e-02
      1.42990164e-02 -1.22370133e-02 -4.52557318e-02 -3.01840603e-02
      -2.79426556e-02 -1.04017081e-02 1.69297047e-02 3.23314667e-02
      3.35035510e-02 3.52260880e-02 -1.07093211e-02 -3.61497067e-02
      -1.46361096e-02 1.16753401e-02 -7.61888316e-03 8.42869561e-03
      2.45924070e-02 -4.51404951e-04 -4.69553890e-03 -1.96343306e-02
      2.93624178e-02 -1.77509896e-02 -7.35172816e-03 6.44474709e-03
      1.83885191e-02 2.63750297e-03 1.67197436e-02 -2.90376483e-03
      2.58255587e-03 2.10442357e-02 -1.02264173e-02 -1.32117898e-03
      2.40957569e-02 2.62100319e-03 -2.99057756e-02 -6.93593593e-03
      -1.38391787e-02 4.49806778e-03 -1.62529014e-02 -9.07098688e-03
      1.65327024e-02 2.28404277e-03 3.50881089e-03 -6.62322156e-04
      -6.13337802e-03 -3.85662471e-03 -2.12801043e-02 -2.91241165e-02
      -1.42200086e-02 -2.41727685e-03 8.30206182e-03 -5.25432918e-03
      -2.90841870e-02 -1.51980473e-02 -2.14253869e-02 -2.23864745e-02
      -1.48589024e-02 -4.98410780e-03 -3.73092969e-03 1.18076717e-02
      -1.15230903e-02 -3.03820223e-02 4.75400127e-03 6.80037960e-03
      9.99246910e-03 -2.19090134e-02 -1.09596346e-02 2.40802983e-04
      -1.69405993e-02 1.44421346e-02 -1.49591418e-03 3.49946953e-02
      2.85079014e-02 8.48028343e-03 -3.87299582e-02 -2.01352891e-02
      -1.16250990e-03 1.09396633e-02 -5.39864833e-03 -2.14029904e-02
      -3.94525006e-03 -7.69200828e-03 -1.95513628e-02 -3.10311448e-02
      -2.39349939e-02 -1.45097449e-02 -2.62902938e-02 2.26135626e-02
      2.13342346e-03 9.53381788e-03 1.45366155e-02 -4.56380285e-03
      -2.31935666e-03 8.04223400e-03 3.86560056e-03 -8.17150809e-03
      -2.63433438e-02 -6.43905625e-03 6.54940493e-03 -5.27147297e-03
      -2.43876185e-02 1.68769844e-02 9.04374011e-03 -2.20587221e-03
      -9.49678849e-03 -3.21902744e-02 -1.79136533e-03 3.05003058e-02
      2.22882908e-02 -5.30192303e-03 -7.62211811e-03 2.18019783e-02
      -1.54941867e-03 -2.65039969e-03 -2.20143795e-02 -7.22629158e-03
      1.56199299e-02 8.18202831e-03 -1.58500653e-02 4.58752876e-03
      1.59738436e-02 -1.01723922e-02 9.18328296e-04 -2.17502043e-02
      -2.05763103e-03 3.23375873e-02 3.06528211e-02 1.24361217e-02
      1.30741028e-02 2.91516609e-03 -9.86307394e-03 -1.82086043e-02
      -2.64499132e-02 -1.12457294e-02 2.68963464e-02 2.32589953e-02
      1.78383628e-03 -5.02848299e-04 1.27023794e-02 -1.70333334e-03
      -1.53749241e-02 -1.83060057e-02 -1.17481025e-02 1.73190273e-02
      9.67090204e-03 -2.24610069e-03 5.45290578e-03 6.03166735e-03
      -1.19946040e-02 1.53443485e-04 -5.24962228e-03 -1.09403450e-02
      1.89869218e-02 3.37518454e-02 8.22320394e-03 -5.28057246e-03
      7.55805848e-03 -6.99704746e-03 7.05698738e-03 -1.46254813e-02
      -1.87005624e-02 8.71673319e-03 1.01814037e-02 -1.23790111e-02
      -9.35233384e-03 1.07036149e-02 6.09151367e-03 -1.18697677e-02
      -6.01482112e-03 -9.39046871e-03 3.87651846e-03 1.81707591e-02
      -1.53292455e-02 -1.67352315e-02 2.37863883e-03 1.28655853e-02
      -9.67471162e-04 -1.03713870e-02 -1.07513126e-02 -3.41561344e-03
      5.78290410e-03 -1.65909007e-02 -2.27972064e-02 7.63438735e-03
      9.93952341e-03 1.83217637e-02 -1.98439951e-03 -9.40379687e-03
      2.02060435e-02 2.68032011e-02 -2.53709815e-02 -1.66161023e-02
      4.23447113e-04 1.88757330e-02 4.24627168e-03 -6.16407115e-03
      -1.46256331e-02 1.13998996e-02 2.64179497e-03 -3.02249361e-02
      -6.74081035e-03 7.34491413e-03 2.13496946e-02 -1.00409985e-02
      -1.36918891e-02 -1.56913623e-02 -1.75294317e-02 -1.06452312e-02
      -6.27402589e-03 -3.73572251e-03 2.20421236e-02 2.94680465e-02
      8.30839202e-03 1.40501028e-02 1.25275385e-02 -3.91409360e-03
      -1.62424669e-02 -2.22310554e-02 -1.11212488e-02 1.14265997e-02
      6.87527098e-03 -1.68707035e-02 -7.29038753e-03 -6.91457884e-03
      -9.64772329e-03 -1.18458010e-02 -9.56413150e-03 -1.12493224e-02
      -9.06609581e-04 5.60565805e-03 -9.05305240e-03 -4.36003366e-03
      1.52358820e-03 -7.03137601e-03 -6.95682410e-03 -1.24081885e-02
      -8.59110616e-03 8.92889407e-03 7.71990698e-03 7.71290297e-03
      1.97812486e-02 3.64236869e-02 1.40786339e-02 -1.63766444e-02
      -2.25862339e-02 -2.10617725e-02 -1.33806681e-02 -1.40380897e-02
      -1.17778154e-02 8.43845401e-03 3.71716619e-02 4.78644390e-03
      -5.72748575e-03 -1.51159260e-02 -2.06650551e-02 -1.20960334e-02
      -8.12614523e-03 3.37943854e-03 1.25776902e-02 1.17990617e-02
      4.15301882e-04 -9.71239060e-03 -6.51340187e-03 -2.66897380e-02
      -2.54904106e-02 -2.12386977e-02 6.45470107e-03 1.51615525e-02
      2.83515975e-02 -7.32769025e-03 -4.59842803e-03 -1.15057034e-02
      -9.88143403e-03 -2.20206883e-02 -6.01689424e-03 -7.19639938e-03
      -1.98488939e-03 8.49793106e-03 -1.09764347e-02 -3.95300938e-03
      -8.78539123e-03 -2.75055435e-03 -6.74305670e-03 1.48212342e-02
      6.07263343e-03 -3.49012949e-03 2.62405965e-02 5.27201127e-03
      -1.08055556e-02 1.27579998e-02 -1.13542527e-02 -1.86097194e-02
      -6.69745496e-03 3.09839076e-03 -4.76230774e-03 9.03901295e-04
      -1.07084904e-02 -1.38128258e-03 -2.22894680e-02 1.38622504e-02
      1.06840003e-02 1.39082847e-02 2.06067488e-02 1.09746717e-02
      2.23822277e-02 2.78828945e-03 5.81643824e-03 -8.56499467e-03
      -4.69980761e-03 -9.13523324e-03 7.60888588e-03 -4.32325713e-03
      -1.70751102e-02 1.20264888e-02 1.12076951e-02 -9.54003725e-03
      2.22061831e-03 -1.83356702e-02 -8.53294786e-03 -2.05972511e-03
      -1.32280095e-02 -6.00728858e-03 1.71299502e-02 3.40962335e-02
      1.06687343e-03 -1.96558014e-02 -4.99769067e-03 -3.81858481e-05
      4.92635509e-03 5.97505039e-03 1.88184541e-03 2.43255515e-02
      -2.12297961e-03 5.23243379e-03 -1.36493277e-02 -3.21969390e-02
      -4.39956551e-03 3.53143900e-03 -9.99835692e-03 3.77609138e-03
      2.48960629e-02 -1.00667570e-02 -4.46408335e-03 -8.78095254e-03
      -1.61211602e-02 -1.70009444e-03 1.23257497e-02 1.62295643e-02
      2.15819315e-03 1.26303770e-02 2.81819049e-02 1.16752982e-02
      -2.28168312e-02 -1.20833674e-02 -1.64303072e-02 1.64343007e-02
      1.81253217e-02 3.47988936e-03 -7.80184811e-04 1.75087079e-02
      1.11053968e-02 -1.04527194e-02 -2.95175351e-02 5.33147668e-03
      9.07076336e-03 6.81767939e-03 7.75153236e-03 1.07536968e-02
      -4.79146000e-03 1.17624761e-03 -2.29232432e-03 -2.63735428e-02
      -1.00758756e-02 2.12092861e-03 2.82090623e-03 -6.69441652e-03
      -3.85672785e-04 4.24975203e-03 -8.85266345e-03 -2.72100661e-02
      -3.10114148e-04 -1.40838549e-02 -6.56637270e-03 -4.95809969e-03
      -1.22269457e-02 -1.16242208e-02 1.10688787e-02 1.04849301e-02
      7.75876106e-04 8.63343850e-03 -2.24753842e-03 -9.65653826e-03
      -6.67120703e-03 -1.14133088e-02 -2.88374280e-03 -6.19516894e-03
      -2.35003745e-03 8.63118283e-03 -3.04644066e-03 5.04853250e-03
      -4.06562816e-03 -5.48974704e-03 -8.46958812e-03 -5.86099550e-03
      9.23796277e-03 -4.11467301e-03 -1.60676930e-02 1.92293469e-02
      1.77417211e-02 2.28456967e-02 1.00152818e-02 -2.04675714e-03
      2.73863394e-02 1.77233685e-02 1.84890889e-02 1.37421247e-02
      -3.52345849e-03 6.08993089e-03 2.02671010e-02 1.38961626e-02
      -4.31989646e-03 -4.46717581e-03 -1.81792341e-02 -1.14878602e-02
      -4.74480586e-03 -3.00283954e-02 1.11426949e-03 1.51030459e-02
      1.35871004e-02 6.95238309e-03 -8.01524986e-03 -1.51764704e-02
      -6.30796887e-03 4.32658335e-03 2.98793428e-04 2.09574047e-02
      3.43579687e-02 3.12181097e-02 6.72853598e-03 1.89867169e-02
      2.88212695e-03 2.02245433e-02 7.26462482e-03 -3.93195124e-03
      5.39286714e-03 9.80217243e-04 6.43912645e-05 8.04002676e-03
      -3.12732649e-03 -1.55582244e-03 -6.35114452e-03 2.51023332e-03
      -6.36624731e-03 2.61434214e-03 -6.05746638e-03 3.78286606e-03
      2.45833434e-02 -1.22948177e-03 2.48090108e-03 1.72924716e-02
      2.29700916e-02 -1.13989022e-02 6.52908860e-03 -7.35542038e-03
      -1.77662924e-03 1.45691838e-02 -3.54708801e-03 2.19298843e-02
      1.78909916e-02 1.33581236e-02 -4.50274069e-03 1.27125839e-02
      -9.78050940e-03 -1.43812681e-02 3.96853266e-03 -9.47006233e-03
      -1.74322759e-03 -1.06018120e-02 -7.43865268e-04 -2.69754641e-02
      -1.11894915e-02 -2.33834703e-02 -1.93672944e-02 4.39107092e-03
      9.61888395e-03 -8.96339305e-03 -7.29420176e-03 2.49496149e-03
      -5.00887074e-03 7.35158799e-03 -4.16809169e-04 1.48758125e-02
      1.18427537e-02 8.09018407e-03 2.90265027e-02 1.22140571e-02
      -2.18946859e-02 -3.98808792e-02 -3.30469683e-02 -2.10313592e-02
      2.74404860e-03 -4.08499874e-03 2.47787107e-02 3.15218046e-02
      2.05997918e-02 -2.59744730e-02 -1.93236452e-02 -3.03507666e-03
      -1.67432670e-02 -2.54883082e-04 -6.12274371e-03 1.67641155e-02
      1.69335157e-02 1.17571615e-02 -6.87283790e-03 -3.35288756e-02
      -2.34327763e-02 -1.86237600e-02 1.13865975e-02 -9.62323789e-03
      2.57907677e-02 2.64875703e-02 6.67328155e-03 -3.11716069e-02
      -3.54215577e-02 -3.13093066e-02 -2.94047911e-02 -1.69454771e-03
      6.50086533e-03 3.46566252e-02 3.41413319e-02 1.99655779e-02
      -4.67539392e-03 -1.88792106e-02 2.89343973e-03 1.36350291e-02
      -1.07711582e-02 -2.49562282e-02 -1.06078498e-02 -1.35357771e-02
      -2.17800941e-02 -2.08716188e-02 -3.28279100e-02 -1.79911759e-02
      1.88207382e-03 1.07972343e-02 5.26844291e-03 3.30713540e-02
      3.41822430e-02 1.03673767e-02 -2.47032885e-02 -1.26104830e-02
      1.28939152e-02 1.42967105e-02 -8.03303160e-03 -2.35904288e-02
      -1.68702770e-02 -4.93054790e-03 -1.56329293e-02 -9.98814218e-03
      -4.76975506e-03 1.79248601e-02 4.15012799e-02 1.34996194e-02
      -8.61191098e-03 -9.93907545e-03 -6.46914681e-03 -8.90744664e-03
      -2.21983641e-02 -1.70500055e-02 -1.89204304e-03 1.74990371e-02
      1.44014833e-02 -8.50127731e-03 -1.92305893e-02 -8.11256282e-03
      3.35255376e-04 -3.08439825e-02 4.30198526e-03 2.80045848e-02
      4.28349599e-02 5.39191160e-03 -5.28227957e-03 -1.57500468e-02
      -8.54144618e-03 -2.45705210e-02 -1.45088313e-02 7.12175330e-04
      -3.50475358e-03 2.25115698e-02 -1.69161824e-03 -8.19528359e-04
      -4.98529384e-03 -7.38280872e-03 -2.98759970e-03 -2.59337537e-02
      -1.19770458e-02 7.17656745e-04 1.30545916e-02 6.11525588e-03
      -1.12048117e-03 -1.42958118e-02 -4.89222724e-03 9.61143710e-03
      -2.23940033e-02 -8.83492827e-03 -1.48905837e-03 1.29403558e-03
      -1.61251873e-02 3.85840088e-02 -6.13776082e-03 4.22652625e-03
      8.26516561e-03 -1.36333676e-02 1.77580363e-03 -4.75549884e-03
      1.70650501e-02 -8.06076825e-03 -1.52105559e-03 -2.42327340e-03
      3.46947985e-04 -1.12075238e-02 -3.90448645e-02 1.83489022e-03
      1.48951393e-02 1.08660562e-02 -1.24008479e-02 3.41858044e-02
      1.08508570e-02 1.59364771e-02 -1.74177010e-02 -3.00693158e-02
      -1.46557810e-02 8.05063639e-03 9.46305692e-03 4.81249677e-04
      -9.20233503e-03 6.62291097e-03 1.03476485e-02 1.58658233e-02
      1.54591841e-03 1.59549788e-02 2.48545725e-02 1.75619998e-03
      7.66323879e-03 -7.69274868e-03 3.16775925e-02 2.68996656e-02
      2.99789719e-02 4.63190041e-02 -2.09622737e-02 -1.36396009e-02
      -3.59869409e-05 -1.16869984e-02 -1.24917915e-02 9.83555987e-03
      -8.86315666e-03 -1.02984272e-02 -4.69550816e-03 -1.78651363e-02
      -3.62844992e-04 -1.50703220e-03 -7.15370337e-03 -4.40674014e-02
      1.01833437e-02 5.66966878e-03 2.88631581e-03 6.34120218e-03
      1.37801711e-02 1.24650886e-02 7.23615801e-03 -3.19360406e-03
      -1.79463159e-02 7.36918766e-03 1.40590081e-02 2.31185351e-02
      2.38937307e-02 6.30238093e-03 9.93144885e-03 8.20971467e-03
      3.67286219e-03 -9.10799764e-03 -4.12495062e-03 5.40971430e-03
      5.43133821e-03 -3.02666728e-03 -1.23004476e-02 2.86286045e-03
      6.86805649e-03 -1.36983730e-02 -5.04754968e-02 -2.54008360e-03
      -8.08052719e-03 -6.81195827e-03 -1.75440218e-02 -6.99574640e-03
      2.27361657e-02 2.60969698e-02 1.75950136e-02 -1.30562801e-02
      -3.58010898e-03 -1.72606669e-02 -4.89346962e-03 -2.39793360e-02
      -2.24206876e-02 -4.30208258e-03 -9.51574091e-03 1.65681895e-02
      2.54263375e-02 7.49329105e-03 1.43800089e-02 1.29869347e-02
      -1.42046781e-02 -1.32205654e-02 -7.76103791e-03 -1.66762955e-02
      -1.43279526e-02 -1.82416418e-03 1.54437851e-02 9.39998031e-03
      6.78639533e-03 -1.61401592e-02 -1.47964638e-02 7.54430890e-03
      7.28771975e-03 1.55163705e-02 2.02302635e-02 1.66727899e-04
      -1.90930534e-02 5.69501193e-03 -1.40275583e-02 -1.38487434e-02
      -1.17950337e-02 -4.13816907e-02 -2.64480375e-02 1.63092483e-02
      4.84279962e-03 -1.65415276e-02 2.74564163e-03 -1.07213184e-02
      -5.57672651e-03 3.63947591e-04 -1.57051645e-02 -2.95149125e-02
      -3.34745576e-03 1.03265857e-02 -5.50758140e-03 -4.01801569e-03
      -2.92783207e-03 -1.93682164e-02 -1.47679634e-02 -1.52640175e-02
      1.08921118e-02 1.61481276e-02 2.93124523e-02 4.97544836e-03
      -1.51628966e-03 7.82582909e-04 -1.24693234e-02 -2.40792800e-02
      -3.14604528e-02 -4.45005819e-02 1.25989283e-03 3.48793305e-02
      -9.60277300e-03 -2.50418251e-03 -1.01121841e-02 -2.63842102e-02
      -3.17185186e-02 -2.74856053e-02 -1.16374353e-02 1.49643878e-02
      4.19447534e-02 5.48703922e-03 -8.86717997e-03 -1.75101368e-03
      -2.46736221e-02 -1.71287302e-02 -1.99826453e-02 1.35027999e-02
      1.49968537e-02 1.54806441e-02 5.28896507e-03 -4.10741428e-03
      -2.79654749e-04 -2.46121753e-02 -9.96542536e-03 -1.60658788e-02
      7.68177502e-04 2.68892795e-02 3.06146853e-02 7.83363543e-03
      -2.08127918e-03 -1.62773002e-02 -2.57933028e-02 -2.09094193e-02
      -2.83711385e-02 -7.23839097e-04 2.68909074e-02 2.94039566e-02
      -2.22419691e-03 -5.49628772e-03 -1.24237239e-02 -3.67491506e-02
      -4.54555172e-03 -1.30003607e-02 4.27169167e-03 4.65271175e-02
      3.28231230e-02 2.56680883e-03 -8.00063647e-03 -1.67342741e-02
      -2.12133043e-02 -9.98821203e-03 -1.81113165e-02 -1.32376458e-02
      -5.76922088e-04 5.70876105e-03 -2.92531680e-03 1.18982885e-03
      -1.58639662e-02 -1.29911546e-02 -5.41978329e-03 3.22519522e-03
      1.41889360e-02 7.65864551e-03 7.54582370e-03 6.52979943e-04
      1.98920667e-02 1.41548889e-03 -2.95786317e-02 -2.67216153e-02
      -1.82125997e-02 -5.87385334e-03 9.53538809e-03 9.57871135e-03
      -5.87612041e-04 1.86862005e-03 -6.28814567e-03 -8.53276160e-03
      -9.69226845e-03 -2.98761996e-03 1.10263866e-03 1.56311989e-02
      3.28615345e-02 1.90103129e-02 2.71762386e-02 -3.73448548e-03
      -1.72902495e-02 2.54691625e-03 -6.50467642e-04 1.91759523e-02
      9.68897622e-03 2.20593959e-02 -5.65087795e-03 1.65079478e-02
      -2.88424864e-02 -2.74969842e-02 1.54233882e-02 7.09008146e-03
      7.91295338e-03 2.79079122e-03 1.87482387e-02 -2.24827603e-02
      -5.61297173e-03 -3.32235023e-02 -1.39069697e-02 4.98055061e-03
      -1.74281735e-03 2.34841369e-02 2.25335527e-02 3.14802304e-02
      6.40971167e-03 1.85867250e-02 -1.72801502e-02 -8.52903724e-03
      1.66147016e-03 1.51357446e-02 1.26867769e-02 1.79288425e-02
      1.68765262e-02 -2.62223259e-02 -1.79014467e-02 -3.94932181e-02
      -1.65535510e-02 1.31581891e-02 1.71818547e-02 1.58040263e-02
      6.99199829e-03 6.42724510e-04 -1.92426350e-02 1.43705052e-03
      -7.32794497e-03 -1.36160739e-02 -1.64476205e-02 2.56321719e-03
      -3.25511838e-03 -2.09320500e-03 4.01588064e-03 -3.38493008e-03
      -1.89274375e-03 -1.17423441e-02 1.08364467e-02 9.62629542e-03
      2.72541624e-02 6.68458780e-03 4.45728004e-03 5.49058616e-03
      -5.29790949e-03 -1.26745347e-02 -1.76163223e-02 2.43197894e-03
      -4.00688674e-04 2.35742871e-02 7.28059234e-03 -2.84016808e-03
      1.68326814e-02 2.85874549e-02 7.37813953e-03 3.05114384e-03
      -2.30613886e-03 -9.07458644e-03 -8.13348964e-03 -1.97868701e-02
      -6.79322053e-03 -1.02722580e-02 -4.63956175e-03 -6.35658205e-03
      -1.89501867e-02 2.07821629e-03 1.86023396e-02 2.61733290e-02
      1.16366725e-02 5.42931352e-03 9.79825668e-03 1.20250611e-02
      2.36621425e-02 1.24070719e-02 -6.66187494e-04 1.40844801e-04
      5.12316125e-03 6.90355618e-03 -9.60274041e-03 2.81373947e-03
      3.46044917e-03 -1.22282635e-02 -1.27849681e-02 5.07137273e-03
      6.37767417e-03 1.85020790e-02 2.70532500e-02 -4.36063437e-03
      -6.27488689e-03 -1.08301053e-02 -2.89312750e-03 1.54774375e-02
      2.06069136e-03 1.31790163e-02 2.63537411e-02 9.87264328e-03
      1.49576357e-02 1.49631025e-02 8.29199608e-03 3.17490958e-02
      3.27244364e-02 2.12928886e-03 2.66979029e-03 2.13331706e-03
      -3.25085297e-02 -7.50466436e-03 -9.91335604e-04 -3.68398870e-03
      3.23291519e-03 3.31351324e-03 1.24244178e-02 7.25545920e-03
      1.81882363e-02 1.58715788e-02 1.48864652e-04 -3.26047116e-03
      -1.00421002e-02 1.01559879e-02 3.58572528e-02 -7.65032554e-03
      -2.50660698e-03 3.14966496e-03 -2.13029031e-02 -2.76235938e-02
      -1.36642149e-02 -3.08200647e-03 -1.34397717e-03 -1.06941704e-02
      2.43649706e-02 1.05767772e-02 -1.40071556e-03 -2.04819031e-02
      6.35879207e-03 1.01222452e-02 1.05564017e-02 1.43363429e-02
      1.42939445e-02 1.09229039e-03 -4.34003025e-03 -2.11700369e-02
      -1.92855541e-02 -5.24083711e-03 2.30903123e-02 -1.31040532e-02
      1.07807536e-02 1.18294386e-02 -9.33101575e-04 1.28782960e-03
      -6.31904136e-03 -6.76976191e-03 -6.93379203e-03 2.13233544e-03
      1.08562671e-02 3.80368880e-03 9.63461678e-03 -1.56980194e-02
      -1.39392819e-02 -3.23811546e-02 -1.46652199e-02 -1.17744692e-02
      4.80452878e-03 -1.00282356e-02 -4.73207620e-04 -3.17713991e-03
      7.21518369e-03 1.49053130e-02 -7.81928934e-03 -1.54664544e-02
      -2.17428003e-02 8.36750958e-03 -8.93336255e-03 6.24497049e-03
      -4.47607832e-03 -9.93713271e-03 1.61610693e-02 1.78550035e-02
      9.88023530e-05 -1.97946019e-02 1.65324397e-02 9.66674089e-03
      -7.22511811e-03 -2.78732143e-02 -6.51871599e-03 1.13487355e-02
      -1.69834569e-02 -2.61236653e-02 -2.83477064e-02 5.68085723e-03
      -1.19923223e-02 1.85430087e-02 -1.11931772e-03 -8.13460071e-03
      2.21700072e-02 1.28668305e-02 -4.66014817e-03 -3.12045701e-02
      5.16487705e-03 1.40668987e-03 1.12483799e-02 -2.71729473e-03
      -1.84828322e-02 1.15214381e-02 2.38551032e-02 8.88304040e-03
      3.59811261e-03 2.72904616e-02 2.77074967e-02 2.29499943e-04
      -1.68944802e-02 -2.44846102e-02 6.03001937e-03 -7.08969450e-03
      -1.28404954e-02 -3.61887063e-03 7.85986520e-03 1.62092187e-02
      -4.15518472e-04 5.38677815e-03 -1.44508621e-02 1.21752983e-02
      2.31068581e-02 4.20538057e-03 -9.63828154e-03 7.41192978e-03
      8.01558886e-03 -1.33127766e-03 -1.93948974e-03 -2.31838152e-02
      -8.23003054e-03 -1.86755657e-02 -2.27453168e-02 -9.54843592e-03
      7.44640734e-03 1.40888980e-02 1.71524170e-03 -1.19191771e-02
      -1.36071509e-02 6.41075056e-03 -5.18427463e-03 -2.95364973e-03
      9.21355095e-03 1.94612388e-02 2.38525290e-02 7.92606384e-04
      6.33649062e-04 -2.26575369e-03 -1.70032717e-02 -1.46088671e-04
      -2.34844745e-03 2.36929674e-03 1.50596676e-02 -2.91400147e-03
      -1.12742316e-02 -1.59649309e-02 -1.79279614e-02 -1.56474430e-02
      -2.42307130e-02 -1.80170145e-02 -1.40022160e-03 3.01875006e-02
      2.78036706e-02 2.75982898e-02 1.37044964e-02 2.80309655e-03
      -1.33093558e-02 -2.70811133e-02 -2.27568168e-02 -1.00922128e-02
      1.15365228e-02 4.29208810e-03 1.90580431e-02 2.72008888e-02
      3.41369514e-03 -1.08994227e-02 1.23803010e-02 -1.27058597e-02
      -7.34730437e-03 1.70553755e-02 3.79913393e-03 -1.93323251e-02
      -2.12858859e-02 -3.72691918e-03 9.00057424e-03 1.20639540e-02
      -3.64926714e-03 3.31922360e-02 1.59855448e-02 1.46021936e-02
      -1.55937644e-02 -1.73114184e-02 2.41660774e-02 1.93162193e-03
      -1.02509605e-02 -1.66805256e-02 -2.51068231e-02 5.41054411e-04
      8.15075357e-03 6.55778358e-03 2.70185005e-02 4.04512248e-04
      7.71063613e-03 1.39667513e-02 -3.30510014e-03 2.04823706e-02
      5.19493548e-03 -2.32053790e-02 -2.22308990e-02 -2.32001184e-03
      -8.80200230e-03 -9.79945157e-03 -1.22580596e-03 4.91287606e-03
      -6.98419928e-04 2.32868325e-02 5.49987052e-03 1.10339466e-02
      3.03654233e-04 2.30338750e-03 4.37434716e-03 7.49654742e-03
      3.15337325e-03 -3.29930335e-02 9.18087177e-03 4.50036488e-03
      -4.13472648e-04 -8.53276439e-03 -1.25807822e-02 -6.04977226e-03
      5.74994599e-03 1.37909353e-02 6.59203948e-03 2.55151149e-02
      1.43046910e-02 9.96704213e-03 -1.33668855e-02 -5.34646213e-03
      1.20119555e-02 9.88558121e-03 -6.88106148e-03 -5.72417397e-03
      1.93592235e-02 1.50879649e-02 -2.18040845e-03 -1.32181300e-02
      -1.28743723e-02 4.61318390e-03 -5.81700355e-03 -2.16793679e-02
      -5.37040383e-02 -7.51160644e-03 -5.64770168e-03 -8.93154927e-03
      -2.34536286e-02 -7.25812232e-03 3.15447478e-03 5.29288827e-03
      2.06806473e-02 -1.60612874e-02 -8.93009920e-03 2.34925261e-04
      1.70316529e-02 -3.24789435e-02 2.69514276e-03 1.26858102e-02
      -1.16059836e-02 -3.39788422e-02 -4.30729277e-02 -2.37695780e-02
      1.01427892e-02 1.40531799e-02 -7.20315729e-04 -5.41015714e-03
      4.81931074e-03 -1.98994447e-02 8.65450501e-03 -3.77637567e-03
      -1.87179502e-02 2.12566592e-02 1.93830747e-02 2.58001336e-03
      -8.45112314e-04 -2.51791673e-03 -3.64830974e-03 9.68780369e-03
      -7.01206364e-03 -1.53087843e-02 2.81808292e-03 1.27498042e-02
      -1.49960238e-02 -1.86723974e-02 -1.66193508e-02 -2.85932999e-02
      -3.08110416e-02 -3.86871537e-03 -1.96648240e-02 -1.36733679e-02
      -3.26090740e-05 -1.01136342e-02 -1.44763095e-02 -1.49815073e-02
      -2.17915773e-02 1.13169458e-02 1.87801328e-02 -2.49395752e-03
      1.51780453e-02 6.22394448e-03 -6.64980896e-03 -3.51490043e-02
      -2.49529593e-02 -2.11523604e-02 -1.47657404e-02 9.95592494e-03
      -9.65611194e-04 1.68298166e-02 -4.94797807e-03 -1.91219412e-02
      -1.09327259e-02 -2.30157785e-02 -2.41446327e-02 -2.52078176e-02
      -1.58893615e-02 1.73867662e-02 -5.56300208e-03 1.10471193e-02
      4.60478477e-03 4.04518191e-03 -1.17947990e-02 -1.98672451e-02
      -2.51024496e-02 -5.78871509e-03 3.09045836e-02 -1.07072061e-02
      -4.82499687e-04 1.74639076e-02 -9.20881983e-03 -1.79645959e-02
      -8.02003592e-03 5.89267537e-03 -4.95564891e-03 8.11263733e-03
      8.93799402e-03 -1.41648557e-02 -1.46762775e-02 7.41637731e-03
      1.15163820e-02 1.12344569e-03 1.86869025e-03 3.69959947e-04
      8.84060934e-03 -1.55632515e-02 -2.44250186e-02 2.73521873e-04
      -1.53982900e-02 -3.33958305e-03 -1.63634215e-02 -2.12638676e-02
      1.07690385e-02 2.22827699e-02 -2.08729152e-02 -1.75557490e-02
      -1.66059025e-02 -3.74730825e-02 -6.86889049e-03 -5.04037086e-03
      1.34570301e-02 4.79216985e-02 2.70959120e-02 4.37025120e-03
      -9.28457081e-03 -2.58784611e-02 5.46061434e-03 1.48557136e-02
      -1.20301545e-03 -8.75281263e-03 -1.33294403e-03 9.93442070e-03
      -8.49050656e-03 -1.62728690e-02 -1.91256814e-02 -3.17877606e-02
      -5.46718249e-03 -1.14584817e-02 2.00238004e-02 3.15335430e-02
      3.86895649e-02 1.06027806e-02 -8.31398927e-03 -4.02821749e-02
      -3.11532672e-02 -2.53617801e-02 -1.86273623e-02 3.99463391e-03
      1.07099852e-02 6.63387636e-03 4.83613461e-03 -1.38906890e-03
      -8.15114938e-03 -3.66250472e-03 -7.70736346e-03 -1.08072283e-02
      -7.15987850e-03 1.49621237e-02 1.78924315e-02 2.17745751e-02
      1.28243361e-02 -1.29982848e-02 -3.75528038e-02 -1.56613048e-02
      -2.63827536e-02 2.58557033e-02 1.78761426e-02 2.40917914e-02
      -1.67169294e-03 -2.14821883e-02 -4.91584428e-02 1.61519721e-02
      4.05004732e-02 6.80103060e-03 1.41793573e-02 9.21458937e-03
      1.06437718e-02 -2.53926869e-03 -5.35850041e-03 -2.31027361e-02
      7.78945209e-03 -1.54842203e-03 2.97870417e-03 5.63842850e-03
      1.36041055e-02 3.71129275e-03 7.46536069e-03 6.46286644e-03
      -5.88202989e-03 -2.91144952e-05 -1.66974384e-02 4.64915344e-03
      1.68135576e-03 1.33251706e-02 -4.28087125e-03 -2.13688295e-02
      -1.30311456e-02 -8.05911981e-03 2.13270783e-02 3.21783721e-02
      2.85157543e-02 1.14995660e-02 -8.10895581e-03 -1.23122018e-02
      -1.36541668e-03 3.62822181e-03 -1.46158217e-02 2.98351661e-04
      1.46028390e-02 1.68155152e-02 8.13898072e-03 -1.11439023e-02
      -1.96259702e-03 8.46615806e-03 -8.49943236e-03 -2.74454406e-03
      -7.38334144e-04 -1.01410374e-02 3.89367738e-03 -1.01321731e-02
      5.53328823e-03 -3.30704125e-03 -4.38937452e-03 -1.32308379e-02
      -5.87524846e-03 1.50326081e-02 2.23068092e-02 1.72475297e-02
      8.57037865e-03 6.55480986e-03 1.12743117e-02 1.75153241e-02
      -9.73237399e-03 -5.84949506e-03 -7.55337300e-03 -6.58703269e-03
      -3.67955235e-03 2.59549735e-04 9.04312357e-03 5.60213486e-03
      9.21912678e-03 -5.99748548e-03 2.58172932e-03 1.12951994e-02
      1.69646665e-02 1.76264923e-02 2.89863758e-02 1.38659626e-02
      7.77771929e-03 -1.05859498e-02 -1.40200024e-02 -1.40729407e-02
      4.28007031e-03 1.32200141e-02 2.59075407e-03 1.30411694e-02
      -8.39006249e-03 8.87044799e-03 3.13854456e-04 -1.39306914e-02
      -3.38088418e-03 1.09935021e-02 8.40071961e-03 3.28029692e-03
      2.81211976e-02 -1.25404829e-02 1.86144054e-04 -5.83234383e-03
      -5.70402015e-04 1.01761501e-02 8.27982277e-03 -1.78837159e-03
      -7.30479276e-03 1.11921513e-02 4.22320096e-03 1.60040464e-02
      4.60312469e-03 -1.10003231e-02 -1.45372450e-02 -1.75994914e-02
      -1.43837219e-03 -1.20377783e-02 1.48402909e-02 1.24828964e-02
      7.82313477e-03 -1.49447273e-03 1.56135149e-02 -1.58995111e-02
      2.11701263e-02 4.87449393e-03 -8.31445958e-03 1.82594769e-02
      -2.14487361e-03 4.76284046e-03 2.71935249e-03 1.41254468e-02
      2.91241203e-02 1.93427922e-03 7.83632696e-03 -1.80538464e-02
      -8.84518772e-03 -1.23112816e-02 -4.19172272e-03 -1.40936684e-03
      1.80704508e-03 1.91747327e-03 -1.36069544e-02 8.32702126e-03
      -1.69945173e-02 1.59608349e-02 2.05710772e-02 1.28042018e-02
      1.59209389e-02 2.24749502e-02 -1.12110516e-02 5.32539270e-04
      5.26769087e-03 -2.66492870e-02 -2.13173553e-02 -2.47208681e-03
      2.33299285e-03 3.95704992e-03 -1.10892011e-02 -1.36727393e-02
      1.51377246e-02 1.93184465e-02 -4.67626471e-03 1.69724543e-02
      7.28146965e-03 3.18720308e-03 6.86981250e-03 3.20908637e-03
      9.36045777e-03 -2.83615547e-03 -8.67423695e-03 -1.48875052e-02
      1.62728393e-04 -4.99665877e-03 2.17010407e-03 1.06926961e-02
      -3.82191176e-03 -5.81172667e-03 2.15530582e-02 1.64952278e-02
      -1.38928164e-02 8.36085528e-03 1.00655034e-02 1.97603228e-03
      4.55012871e-03 -3.00883991e-03 6.92417007e-03 -7.18329521e-03
      -9.79037769e-03 -1.99707244e-02 1.65799186e-02 -3.13703646e-03
      -7.58010941e-03 3.11882026e-03 -1.62160359e-02 -8.77534971e-03
      -5.91616984e-03 -1.65865640e-03 -6.20554015e-03 -8.04993138e-03
      -1.56258959e-02 -4.61128046e-04 -9.80165601e-03 1.53025575e-02
      -6.82775630e-03 -2.04462633e-02 -4.20484459e-03 3.63768637e-02
      1.92891639e-02 -1.37598356e-02 1.95483547e-02 2.17465847e-03
      2.53622830e-02 -4.88784350e-03 -8.20855331e-03 5.47603564e-03
      8.46101961e-04 4.25971905e-03 -1.64388921e-02 -8.79832171e-03
      -7.26235891e-03 1.48235774e-03 -1.41097959e-02 -3.26791219e-02
      1.38253730e-03 4.86861914e-02 1.74992550e-02 -1.69368498e-02
      1.52873518e-02 -9.12794750e-03 1.07429633e-02 -1.97103024e-02
      -3.28069218e-02 -1.51679236e-02 2.97262929e-02 1.51624130e-02
      4.67706984e-03 3.57832126e-02 2.04148907e-02 1.80873778e-02
      -1.11767873e-02 -1.72989275e-02 -2.62273233e-02 -1.91240516e-02
      -2.24859100e-02 5.15640900e-03 1.61191896e-02 -1.07715733e-03
      1.06206641e-03 -5.48314396e-03 -3.76002155e-02 -2.08737422e-02
      2.42146961e-02 2.43985206e-02 3.90669378e-03 2.94785779e-02
      2.53840573e-02 2.20514983e-02 -8.48268531e-03 -1.38657019e-02
      -2.10370999e-02 -1.80982612e-02 7.32476218e-03 1.56772099e-02
      2.18786541e-02 -4.88400739e-03 -6.72824588e-03 -8.95169470e-03
      -3.72766843e-03 -1.70366168e-02 -2.07406208e-02 -2.10493542e-02
      -6.65308535e-03 1.15148462e-02 -3.66029283e-03 -5.66570461e-03
      1.35931680e-02 1.85969938e-02 2.20264420e-02 -1.91140156e-02
      -1.66703705e-02 -1.76223796e-02 -9.21021122e-03 -5.99090163e-06
      9.10469145e-03 2.70890202e-02 -2.13655969e-03 -1.45814838e-02
      -1.86564997e-02 4.17586416e-03 1.07046915e-02 2.04647966e-02
      -1.29695917e-02 -1.61985680e-02 1.78398925e-03 1.29000964e-02
      1.74734965e-02 -1.32281857e-05 1.17647112e-03 -9.32501443e-03
      -3.64293717e-03 1.21182473e-02 9.60835442e-03 8.64410400e-03
      1.36764199e-02 1.01730451e-02 -1.62070487e-02 -8.86353571e-03
      -2.31500249e-02 -1.21233715e-02 1.63062364e-02 1.13190385e-02
      1.75317211e-04 -2.54629478e-02 -5.07896813e-03 -2.61948560e-04
      -1.79457366e-02 1.33943241e-02 -1.03673497e-02 -9.93711175e-04
      -1.09403515e-02 -1.57481115e-02 1.01528382e-02 1.03665208e-02
      -1.32486608e-03 1.10102203e-02 1.12261232e-02 6.58514490e-03
      2.42469739e-02 5.66012319e-03 -1.72578730e-02 -2.67447494e-02
      1.41073053e-03 1.00165084e-02 1.13071268e-03 1.91176217e-02
      1.11414893e-02 1.58333424e-02 5.14064310e-03 -1.12625835e-02
      -3.12710702e-02 -1.13595054e-02 -2.96044699e-03 4.37077892e-04
      -6.90412708e-04 1.98794696e-02 1.04841096e-02 -9.38356016e-03
      -3.75095196e-02 -1.77198984e-02 2.65084975e-03 -8.36424157e-03
      1.82236475e-03 -2.35223491e-02 1.83670653e-03 3.00294645e-02
      -2.38037808e-03 -2.84635592e-02 -1.06985979e-02 -1.74197485e-05
      -1.02524292e-02 -3.60186590e-04 -9.46514774e-03 1.92325730e-02
      2.04919316e-02 2.83078793e-02 -7.00180000e-03 -9.98094957e-03
      1.45198861e-02 -5.53423585e-03 -3.00819823e-03 -4.29036878e-02
      -1.05342325e-02 4.34013642e-02 4.83842157e-02 1.38298953e-02
      -3.76993814e-03 9.72017460e-03 -1.42188128e-02 -1.95480250e-02
      -3.99903134e-02 -3.20705101e-02 1.20609645e-02 1.16059063e-02
      -2.42353207e-03 -1.02062745e-03 1.01595111e-02 -9.81293526e-03
      5.54593373e-03 -4.04836284e-03 -2.60928888e-02 -5.17641893e-03
      8.14192742e-03 -8.23455164e-04 -1.74774660e-03 1.62176359e-02
      -1.14505077e-02 -1.58056971e-02 -4.96610105e-02 -3.68611254e-02
      1.16433864e-02 1.33884773e-02 -1.03421425e-02 6.92481128e-03
      1.75874624e-02 9.16663092e-03 7.86198210e-03 -1.29758427e-02
      -2.92154704e-03 3.24939378e-03 6.09792164e-03 -4.60368441e-03
      -2.45638099e-03 7.19113916e-04 -8.52938276e-03 1.69690102e-02
      2.10862644e-02 -5.25915949e-03 -5.93972160e-03 -3.17180413e-03
      -1.25262719e-02 -2.38958932e-02 -1.17121413e-02 -2.09443197e-02
      -1.38601316e-02 -2.11442728e-03 -3.71379545e-03 9.95812239e-04
      1.75180228e-03 -1.98866203e-02 5.83089702e-03 1.03229638e-02
      5.31869521e-03 7.35093560e-03 5.69935562e-03 5.33165736e-03
      -3.34094116e-03 6.82752056e-04 -7.11480575e-03 -2.12878119e-02
      -1.64956711e-02 -1.51056573e-02 -1.38839204e-02 6.62975339e-03
      -2.94813747e-03 -2.15291698e-02 -7.17184180e-03 -1.40470648e-02
      -1.25946542e-02 -8.63187539e-04 4.34363633e-03 -1.00912841e-03
      -4.58407030e-03 1.98556390e-03 -1.48260267e-02 -2.11392399e-02
      -2.70353071e-03 9.14626289e-03 1.31783644e-02 1.91163402e-02
      5.00203576e-03 2.38773273e-03 1.67453382e-02 -1.15196547e-02
      -3.34032625e-02 -8.34082719e-03 -1.19770812e-02 -5.47404122e-03
      1.89765599e-02 -5.07928478e-03 1.37934709e-04 8.19632784e-03
      -2.90143900e-02 -1.47206327e-02 7.29907025e-03 -1.40482094e-02
      -5.74565073e-03 4.38145408e-03 -1.99102936e-03 5.61550818e-03
      2.60467250e-02 -2.00792728e-03 -1.60182305e-02 -1.03091886e-02
      -9.33534990e-04 6.76682498e-03 6.17560605e-03 -3.28088901e-03
      2.02744990e-03 1.44763943e-02 1.13279847e-02 -9.16043110e-03
      -1.46837905e-02 -2.65781246e-02 -7.10674049e-03 -1.28191067e-02
      -4.45306953e-03 2.09412575e-02 2.82790065e-02 9.24834888e-03
      3.65359127e-03 -3.03976759e-02 -7.37177813e-03 -1.47959115e-02
      -2.42516231e-02 -1.42867099e-02 1.46006455e-03 2.19752025e-02
      2.65237447e-02 2.20697024e-03 -1.15358187e-02 -1.08817723e-02
      -9.55762248e-03 -8.52776878e-03 -2.05998942e-02 -6.10597525e-03
      1.31965689e-02 2.51775086e-02 1.96028594e-02 -2.34987754e-02
      -2.32569985e-02 -1.40366396e-02 -1.76908001e-02 8.99253041e-03
      1.38124283e-02 2.42034364e-02 1.15350531e-02 -8.43760441e-04
      -3.90011370e-02 7.27010658e-03 7.51770847e-03 1.02019683e-03
      2.35209074e-02 2.03195363e-02 8.48038308e-03 2.27335691e-02
      -3.68935964e-03 -2.91574039e-02 -1.25484290e-02 -1.03841145e-02
      2.22120504e-03 -3.45078623e-03 -1.30312108e-02 -1.56705994e-02
      1.06585044e-02 1.28509644e-02 -2.10242607e-02 -5.33995545e-03
      -1.40077071e-02 1.03924330e-02 2.28100978e-02 7.88174663e-03
      3.43623199e-03 1.41890096e-02 1.22186951e-02 -2.40285657e-02
      6.28837990e-03 1.36303958e-02 7.54052727e-03 1.20238448e-02
      -4.83204098e-03 -1.17616393e-02 5.02965134e-03 -1.02894641e-02
      -2.79330127e-02 -1.51945576e-02 5.76084107e-03 -1.05818501e-02
      -1.39560550e-03 -1.77291166e-02 9.75765474e-03 3.06826700e-02
      3.91620491e-03 -1.33215068e-02 5.54796355e-03 -1.85238589e-02
      -1.50283123e-03 6.16176613e-03 -1.27902981e-02 -1.59663595e-02
      1.58328805e-02 -1.03054498e-03 -1.39959054e-02 -3.82067054e-03
      -9.30801127e-03 -2.73946859e-03 6.05961541e-03 -4.62740473e-03
      2.51462823e-03 2.34735515e-02 1.86923500e-02 4.19288757e-04
      -1.83937419e-02 -7.35914381e-03 -1.90635342e-02 -7.00356031e-04
      6.08545588e-03 9.62272193e-03 2.35453118e-02 1.75504945e-02
      -6.01928169e-03 -7.04973331e-03 -8.90307873e-03 8.58719181e-03
      1.87891945e-02 1.74828209e-02 2.03835755e-03 -5.26884943e-03
      -9.30699799e-03 -2.45980024e-02 -1.83316860e-02 -8.45789909e-03
      -1.07855592e-02 2.88274814e-03 1.66432690e-02 1.96008850e-02
      3.13111097e-02 3.23139876e-02 -2.59707589e-03 -1.38164479e-02
      -1.69562064e-02 -7.15781143e-03 -1.12802871e-02 5.21553913e-03
      1.61986053e-02 1.11568077e-02 3.04340571e-03 -1.39436843e-02
      1.04789687e-02 1.64991093e-03 1.52360415e-02 1.56310890e-02
      5.26729831e-03 2.24514082e-02 1.62078831e-02 -1.06936051e-02
      -1.62809417e-02 -1.79511514e-02 5.35150710e-03 -9.41468962e-03
      -2.47885822e-04 2.29181219e-02 1.35521851e-02 1.36891855e-02
      1.35723222e-02 -4.79577854e-03 -1.54492678e-03 -1.09354639e-02
      8.49369355e-03 2.89494434e-04 -1.51419081e-02 1.12504559e-02
      8.43952224e-03 -6.68003689e-04 -7.71804107e-03 -2.08594780e-02
      -2.41473224e-02 -9.95203760e-03 -1.88299865e-02 -2.39605010e-02
      4.44596214e-03 1.64848398e-02 5.15462272e-03 -5.70994988e-03
      -6.95808884e-03 2.97860205e-02 -1.17089562e-02 1.39596649e-02
      1.29243694e-02 1.54680219e-02 2.03212555e-02 1.11750783e-02
      4.04081121e-03 3.73829319e-03 1.30869932e-02 -2.22987160e-02
      -1.19171124e-02 -1.73075572e-02 3.29177128e-03 1.50636435e-02
      -4.95455414e-03 1.13544418e-02 -3.04876972e-04 -6.85255835e-03
      -1.61412954e-02 2.70012580e-03 -1.66086927e-02 -2.09677429e-03
      9.09127668e-03 1.64725131e-03 2.25524288e-02 2.32157763e-03
      -4.62301262e-03 -2.68744789e-02 -9.89652518e-03 -2.30375845e-02
      -8.31816997e-03 1.16957286e-02 1.68581784e-04 1.71072036e-02
      2.01019775e-02 -6.87338226e-03 -1.81083959e-02 -3.40106944e-03
      -3.31240543e-03 5.27167879e-03 6.42870553e-03 3.28324339e-03
      2.48228479e-02 -8.71119206e-04 5.90178184e-03 -8.51198193e-03
      2.58447882e-03 -2.06119232e-02 -1.61075369e-02 -3.31162172e-03
      -1.50709106e-02 -7.39778276e-04 1.38124218e-02 -1.46501800e-02
      -2.51052435e-02 -1.62651464e-02 -1.26633300e-02 8.96873698e-03
      2.91610714e-02 2.32100096e-02 2.54574921e-02 1.71393398e-02
      -2.88346829e-03 -1.24541735e-02 -2.88091674e-02 -3.29593718e-02
      -1.67909190e-02 1.53353577e-02 1.61476657e-02 1.88178774e-02
      3.74783273e-03 3.83766368e-02 1.21922381e-02 -1.92152488e-03
      -1.79635640e-02 -1.37394173e-02 -1.42330164e-02 -6.40629977e-03
      -6.02556113e-03 7.85772281e-04 1.44616058e-02 2.00680438e-02
      1.22420192e-02 -8.10117647e-03 6.17198413e-03 -1.34300254e-03
      2.33022701e-02 -4.78865020e-03 4.19222238e-03 1.21957473e-02
      6.98630000e-03 -1.69256572e-02 -2.25061979e-02 -2.02010218e-02
      -1.45010743e-02 1.02710410e-03 -4.43975301e-03 -4.90714703e-03
      2.37886906e-02 3.32821272e-02 -2.03059544e-03 -6.81316666e-03
      -1.36050303e-02 -1.99163333e-03 9.95672680e-03 -2.32397392e-02
      -1.32340016e-02 -3.70207406e-03 7.20436405e-03 1.67218894e-02
      -6.56363508e-03 5.59399650e-03 1.55363679e-02 1.49965389e-02
      9.23984160e-04 -4.69682366e-03 -1.52705219e-02 -9.74887330e-03
      2.62048282e-02 7.70174153e-03 5.62734948e-03 -1.00624515e-02
      -1.08541176e-02 -7.78599363e-03 -4.85934643e-03 6.27950160e-03
      2.09457278e-02 -4.38315421e-03 -1.98297519e-02 -8.23430158e-03
      7.83164240e-03 4.69792774e-03 -1.34866610e-02 -1.68823684e-03
      2.28694659e-02 4.11513587e-03 6.53581636e-04 -2.48271506e-02
      -1.35903666e-02 -1.93597171e-02 -1.26562873e-02 1.05819992e-04
      -7.40452809e-03 -2.39495877e-02 -5.70455473e-03 2.36598570e-02
      -7.27050297e-04 1.32230844e-03 -9.15922876e-03 1.26442481e-02
      -4.08524135e-03 -2.08449410e-03 -2.10787985e-03 6.39558583e-03
      1.42149832e-02 -1.43879429e-02 -8.87042377e-03 -2.77435803e-03
      9.60936211e-03 -7.91968126e-03 -2.41109589e-03 -1.31498342e-02
      1.03003746e-02 -1.28478778e-03 -2.61453297e-02 -2.32935194e-02
      -7.12988200e-03 2.50554346e-02 4.41737892e-03 -8.29948764e-03
      -1.56009439e-02 6.76760465e-05 1.74305821e-03 -3.29887420e-02
      -3.17816101e-02 5.35427034e-03 9.35842283e-03 -7.81734707e-04
      -8.96597281e-03 1.77028612e-03 -3.89558589e-03 1.03333080e-02
      3.35755106e-03 -2.68347445e-03 -1.02340551e-02 -5.06238313e-03
      -1.87246893e-02 -2.42593810e-02 5.86245628e-03 5.65408776e-03
      5.41998632e-03 1.38200689e-02 1.37871811e-02 -1.77690145e-02
      -1.07166227e-02 1.65492611e-03 -1.38096958e-02 5.75788843e-04
      5.19600092e-03 5.96886454e-03 -2.12180652e-02 -3.63170318e-02
      -5.58162434e-03 2.59702513e-03 -1.52218447e-03 -2.15511806e-02
      2.24262141e-02 3.00780665e-02 1.36997886e-02 -3.02659842e-04
      -6.44376734e-03 -2.06395276e-02 -1.32428873e-02 3.80144990e-03
      -2.19959039e-02 3.39570484e-04 -8.92008841e-03 3.95378767e-04
      -1.92185608e-03 2.00425573e-02 1.42847206e-02 1.68547835e-02
      -1.83921363e-02 -8.95537995e-03 1.16516920e-02 9.23770946e-03
      -8.36459640e-03 -3.69592421e-02 -1.57345999e-02 1.26192346e-02
      1.93784498e-02 4.05674567e-03 -1.05296196e-02 8.27746466e-03
      2.36675441e-02 5.74383885e-03 -2.08910182e-03 2.88035311e-02
      1.25285853e-02 8.91340617e-03 -8.24424718e-03 -5.55583043e-03
      6.75268355e-04 2.68915575e-02 -1.47787612e-02 -4.18700092e-02
      -7.36001460e-03 2.09231228e-02 -8.10059893e-04 -2.28904765e-02
      9.94636491e-03 1.95852742e-02 -6.54410280e-04 -1.81094445e-02
      -5.20172231e-02 -2.45539229e-02 2.28129290e-02 1.60163529e-02
      4.84819291e-03 9.85117070e-03 1.70639195e-02 6.01011561e-03
      -2.35525047e-04 -2.44674291e-02 1.30929314e-02 2.96041761e-02
      2.42796671e-02 3.69678128e-05 -1.45328538e-02 -1.19239567e-02
      -3.85052501e-03 -2.31136158e-02 -5.75805381e-02 -1.99978389e-02
      3.56057696e-02 1.54196154e-02 -1.34383347e-02 -2.39646826e-02
      -2.57920232e-02 -1.60642564e-02 -2.13894825e-02 -2.43861713e-02
      1.11778863e-02 3.72165628e-02 3.93292643e-02 -1.52698187e-02
      3.65841226e-03 7.55694043e-03 1.04546174e-03 -1.74716732e-03
      -7.30391499e-03 7.91820046e-03 1.14752082e-02 1.25783514e-02
      -3.62482318e-03 -8.12817924e-03 -1.49928387e-02 -1.16142621e-02
      -1.74628738e-02 6.62826002e-03 3.97887034e-03 -2.03764439e-02
      -4.24655806e-03 -4.21856157e-03 -2.18878500e-02 -8.65445472e-03
      -6.73632137e-03 -2.59276219e-02 -1.01286191e-02 1.81197748e-02
      1.82639211e-02 2.81441640e-02 -1.36211822e-02 -1.54648628e-02
      -9.77940578e-03 -1.60037745e-02 -2.64716111e-02 -4.63696988e-03
      4.62825503e-03 -1.24665080e-02 -7.00914767e-03 -6.28756778e-03
      -1.30166439e-02 -1.05805490e-02 3.63110588e-03 -5.94526809e-03
      1.33582493e-02 1.90976635e-02 -2.41969470e-02 -6.23580487e-03
      6.64897077e-03 -2.12222859e-02 -2.27650441e-02 -2.26748995e-02
      -9.00606904e-03 1.70984063e-02 3.08234412e-02 -1.69218256e-04
      -6.00038050e-03 -1.61353517e-02 -1.48605090e-02 -1.24717876e-02
      -1.18335858e-02 -6.96913758e-03 1.82387792e-02 8.07833113e-03
      -8.52835737e-03 -2.29631690e-03 -1.72712875e-03 -2.94472687e-02
      -2.77023520e-02 -1.31811351e-02 -1.39832636e-02 1.45884203e-02
      2.94523519e-02 3.26223229e-03 -1.00514442e-02 -2.38029510e-02
      -1.68685410e-02 -3.78241427e-02 -3.71964015e-02 -6.76554162e-03
      2.55672936e-03 2.40444783e-02 1.34890350e-02 3.81189375e-03
      -1.61693357e-02 -1.51446769e-02 -2.20026169e-02 -1.55231729e-02
      -8.62408523e-03 -1.31426807e-02 -5.67472959e-03 7.93411303e-03
      2.43025776e-02 -2.69003306e-02 -4.37298454e-02 -3.86509933e-02
      -1.45453410e-02 -6.45873509e-03 1.74934429e-03 2.37611048e-02
      1.80020481e-02 3.11016897e-03 -3.96547504e-02 -2.33752131e-02
      -2.19021235e-02 -5.07629942e-03 1.34387538e-02 6.63070846e-03
      5.46037080e-03 6.86594518e-03 2.46389639e-02 -2.19923314e-02
      -4.17499850e-03 -4.08051489e-03 1.63726285e-02 1.65181793e-02
      -2.03371271e-02 -2.65821908e-02 -1.84364943e-03 2.28212904e-02
      -1.51658123e-02 -6.77419035e-03 -2.24959408e-03 1.85909271e-02
      2.57812552e-02 -4.74844873e-03 -1.63513254e-02 4.03262500e-04
      -7.86937773e-03 -2.39164699e-02 -6.63554994e-03 1.82445219e-03
      1.33190760e-02 2.00273842e-02 -3.58881429e-04 -1.34759247e-02
      -9.33402590e-03 2.13986151e-02 -1.05437869e-03 5.47623448e-03
      1.79241151e-02 8.25687777e-03 1.11014619e-02 -1.04772700e-02
      -2.22127289e-02 -1.72474887e-02 -1.66693740e-02 -7.75150070e-03
      1.27277791e-03 -7.18584843e-03 -2.14219652e-03 1.65748205e-02
      2.47289822e-03 -5.11337304e-03 2.19696667e-02 -3.60724371e-04
      7.24926067e-04 -3.89491976e-03 -3.69968545e-03 2.23171152e-02
      1.41073363e-02 2.60815094e-03 -1.03600381e-03 5.82743669e-03
      -4.78735613e-03 -2.08242331e-03 1.10479137e-02 1.98714547e-02
      -7.95966759e-03 -4.06512199e-03 -8.87548178e-03 -9.46662389e-03
      -1.59007087e-02 -2.05283370e-02 -1.28715835e-03 1.05181318e-02
      3.23469215e-03 1.72993110e-03 -9.13908798e-03 -1.14146620e-02
      -9.12804250e-03 -2.04872824e-02 -1.45556852e-02 3.79354437e-03
      -1.20792147e-02 2.11287243e-03 2.15758178e-02 1.67023242e-02
      2.13880893e-02 1.30251320e-02 2.42753495e-02 1.40876537e-02
      -1.00142919e-02 -2.10387073e-03 -6.34010229e-03 -2.00232142e-03
      -1.38285859e-02 -2.01239693e-03 4.55061439e-03 2.05110642e-03
      2.55571399e-03 5.78429364e-03 -2.45034155e-02 -6.96012378e-03
      3.14209377e-03 -7.39045674e-03 3.81504302e-03 4.77658492e-03
      4.92274389e-03 -1.22590153e-03 9.61720292e-03 -2.18905155e-02
      -1.52201783e-02 -1.47548504e-02 -2.06904057e-02 -9.60956234e-03
      9.57571156e-03 3.07906792e-03 3.19673610e-03 -1.57150021e-03
      9.38347355e-03 -1.35492282e-02 -1.14324233e-02 3.66110192e-03
      -4.86498373e-03 7.90766906e-03 1.97896548e-02 7.52175273e-03
      6.19070278e-03 -1.16510587e-02 -2.03589275e-02 -1.28703974e-02
      -4.92295902e-03 -1.75922159e-02 1.31726712e-02 1.59281883e-02
      -1.06215915e-02 1.91729739e-02 2.20877538e-03 -1.53125031e-02
      -2.12401859e-02 -5.12345554e-03 -1.23598082e-02 1.34062851e-02
      1.21710207e-02 1.00328522e-02 1.04986113e-02 1.24933175e-03
      6.86017610e-03 -2.65598558e-02 -1.52906971e-02 -8.16259906e-03
      5.62063372e-03 8.64452124e-03 -3.68995243e-03 2.08569951e-02
      -4.25215205e-03 -8.38136766e-03 -4.41621244e-03 -1.65462610e-04
      -2.11605951e-02 -6.36267336e-03 7.78237125e-03 -4.80766362e-03
      2.38945261e-02 -7.10097700e-03 -7.85531662e-03 -1.98769588e-02
      -4.46526660e-03 -2.18429361e-02 6.20255060e-03 7.85029866e-03
      4.67458647e-03 1.12966923e-02 8.32641125e-03 1.10408543e-02
      5.41887432e-03 -6.23293780e-03 -1.49985701e-02 -1.41198989e-02
      3.75432801e-03 1.37825459e-02 2.11720616e-02 6.32313173e-03
      8.75853747e-03 1.06703108e-02 8.12538201e-04 -2.29459219e-02
      9.26950233e-05 2.18595248e-02 1.50523819e-02 2.10524201e-02
      -1.80239957e-02 -1.55248567e-02 -2.77144127e-02 -2.35341731e-02
      -2.75894701e-02 -2.08597491e-03 3.31894904e-02 2.21407209e-02
      6.98164478e-03 9.96637507e-04 -3.05106118e-02 -2.96599809e-02
      -3.75839509e-02 -4.23202962e-02 -1.94276534e-02 1.14839384e-02
      2.17359923e-02 1.46791376e-02 7.20870681e-03 1.07790139e-02
      -5.05003380e-03 -1.21153919e-02 -3.53828035e-02 2.18405668e-03
      2.45282296e-02 1.68256573e-02 9.65861138e-03 7.08132377e-03
      -1.07333660e-02 -1.36994319e-02 -2.55981181e-02 -4.44728062e-02
      6.19246112e-03 5.52675920e-03 1.65291950e-02 1.19400285e-02
      -1.56675954e-03 -1.50235193e-02 -9.28598177e-03 -2.29992159e-02
      -2.36759987e-02 -1.15123084e-02 -1.49940979e-02 2.16279202e-03
      2.01588795e-02 -1.86133888e-02 -3.66356550e-03 3.60095291e-03
      -9.00142733e-03 -2.58033015e-02 -2.42759325e-02 -2.30868924e-02
      -1.49703352e-02 7.02318910e-04 1.93643589e-02 -1.21005848e-02
      -6.18861662e-03 -1.27551081e-02 -1.46156466e-02 9.85627435e-03
      -3.39677325e-03 6.45767152e-03 2.43933201e-02 1.62033886e-02
      -5.46198478e-03 -9.25762171e-04 4.07826109e-03 -1.70200802e-02
      -1.35693066e-02 -1.30043989e-02 1.30205769e-02 2.48308983e-02
      -5.80053031e-03 3.62321455e-03 1.55540872e-02 6.53095357e-03
      -1.90227032e-02 -1.62919126e-02 -1.15449764e-02 -1.93780623e-02
      -1.29532991e-02 -6.54822495e-03 1.85946412e-02 2.44063046e-02
      1.19961286e-02 -1.75038632e-02 -1.46495309e-02 -1.53362397e-02
      -3.52074765e-02 -1.71144828e-02 7.02121994e-03 -3.36114154e-03
      9.00758989e-03 7.82608148e-03 -1.56343989e-02 -1.08475452e-02
      -5.33769745e-03 2.29772981e-02 1.16016464e-02 -1.23719703e-02
      -7.08720274e-03 1.14988154e-02 1.25520909e-02 -1.44883646e-02
      1.87291969e-02 7.03906966e-03 6.95047574e-03 -1.41692245e-02
      -1.60352066e-02 2.21553561e-03 3.51626649e-02 9.09799151e-03
      -1.95387993e-02 -2.16824133e-02 -1.60746425e-02 -7.56719429e-03
      1.64473720e-03 1.76733837e-03 -1.52083598e-02 2.71701589e-02
      9.12252814e-03 -4.26335335e-02 -2.78676990e-02 3.33315902e-03
      6.39003294e-04 -5.27039869e-03 -3.03458571e-02 -1.28285680e-02
      3.56370583e-02 2.52808481e-02 -3.88314901e-03 1.32004982e-02
      6.77703787e-03 -8.80746543e-03 -1.35751460e-02 -1.63995810e-02
      6.50209095e-03 4.24362235e-02 2.69603115e-02 -2.88229268e-02
      -1.66558027e-02 -2.08337288e-02 -2.18654461e-02 -2.20773425e-02
      -3.88233410e-03 -7.07282173e-03 8.18067230e-03 -3.14296829e-03
      -3.26746702e-02 -2.10848972e-02 5.02234511e-03 -3.91404191e-03
      3.09914490e-03 -1.60627514e-02 1.50388163e-02 2.05524080e-02
      -3.95174744e-03 -1.69690680e-02 -1.43626733e-02 1.41230004e-03
      1.25939702e-03 3.61878285e-03 -1.65135171e-02 5.91476541e-03
      1.33426674e-02 -7.36017060e-03 -3.48520912e-02 -1.06521957e-02
      6.84370613e-03 -4.19598771e-03 -3.50982770e-02 -2.41401568e-02
      9.60100070e-03 2.54329271e-03 -1.76856164e-02 -8.27954430e-03
      6.05671527e-03 3.37951398e-03 5.77658229e-03 -2.26482376e-02
      -4.28835722e-03 4.94531414e-04 1.06550585e-02 -5.82835451e-03
      -9.92449094e-03 2.22410429e-02 3.01862638e-02 1.64408758e-02
      4.34930529e-03 -2.55300812e-02 -1.87826380e-02 -1.03358524e-02
      -1.07040564e-02 -3.49152386e-02 4.38378751e-03 1.57550070e-02
      3.65032960e-04 -2.57521160e-02 5.25957393e-03 1.76292546e-02
      1.91448610e-02 -1.39880348e-02 -1.79480128e-02 1.73623860e-02
      4.24381010e-02 2.61502489e-02 -6.74711401e-03 -1.55401754e-03
      8.34759884e-03 -1.23289526e-02 -2.60493997e-03 -3.21906395e-02
      -4.96156001e-03 1.90975871e-02 -1.29635888e-03 -2.78289113e-02
      -6.05727872e-03 -1.52832931e-02 -2.21934039e-02 4.65613673e-04
      -3.15086544e-02 -1.46210287e-03 3.28913331e-02 2.32034177e-02
      -8.19333643e-03 -4.64071380e-03 2.17966526e-03 -1.25339450e-02
      -1.85768455e-02 -2.62340251e-02 1.08053498e-02 3.03097833e-02
      3.62087935e-02 -1.11102834e-02 -6.60726754e-03 -4.20700759e-03
      -2.25402415e-02 -4.00412874e-03 -1.42156212e-02 2.01474130e-03
      8.86341557e-03 1.50643196e-02 -1.36405053e-02 2.05834536e-03
      -4.97593638e-03 -2.68321726e-02 -3.29394266e-02 -2.04468258e-02
      -1.40639991e-02 -3.61637445e-03 1.68131515e-02 -4.77476418e-03
      7.57278875e-03 1.17701581e-02 -1.00406297e-02 -3.44316177e-02
      -3.27425599e-02 1.85762607e-02 6.56230561e-03 2.48583220e-02
      2.62981583e-03 -9.21483675e-04 8.72710440e-03 -1.39046228e-02
      -2.83198990e-02 -9.12153814e-03 8.10777396e-03 -1.31262308e-02
      -4.22808155e-03 1.50625303e-03 4.12062602e-03 -2.46552192e-03
      -1.24307247e-02 -2.32686866e-02 -2.28186063e-02 -1.95587836e-02
      -1.58804711e-02 1.00068683e-02 8.08255468e-03 3.03347013e-03
      -1.30536978e-03 -3.68535100e-03 -1.01609239e-02 -4.05449304e-04
      -6.64462289e-03 -3.27920206e-02 -2.69674999e-03 3.46693047e-03
      -1.46332867e-02 -1.90019719e-02 -2.52918508e-02 -6.57461630e-03
      5.63252158e-03 3.91698768e-03 -2.54657473e-02 -2.25907322e-02
      4.73476667e-03 -2.04060338e-02 -1.63502414e-02 -2.53866911e-02
      -1.18770916e-02 1.55021553e-04 1.89054757e-02 -1.45568084e-02
      -2.42635310e-02 -1.45469308e-02 4.79796989e-04 -2.10414734e-02
      -2.29144972e-02 7.90924020e-03 1.22614950e-02 1.44497247e-03
      -3.17942724e-02 -2.74271090e-02 1.00218412e-03 -2.02305708e-02
      2.41638441e-03 -4.29800060e-03 1.76373329e-02 6.99641230e-03
      -1.33895350e-03 -1.16181374e-02 -1.30830416e-02 1.88708236e-03
      -2.86096800e-02 -1.59450900e-02 -2.03857236e-02 -1.76035799e-02
      -1.28859458e-02 3.17505444e-03 1.87849738e-02 -8.31854809e-03
      -2.86024660e-02 -9.82800126e-03 -1.09849041e-02 -9.50661022e-03
      -2.90339580e-03 -8.27948656e-03 -8.11618567e-03 5.66581124e-03
      -6.44701999e-03 -1.93540112e-03 -2.06008833e-02 2.83455430e-03
      2.94056226e-04 -1.04276482e-02 -1.27953021e-02 -1.44283858e-03
      2.17750091e-02 6.25282992e-03 -7.93042500e-03 1.08013488e-02
      1.02331499e-02 1.14454329e-02 2.68867705e-02 -1.45720067e-02
      -9.45628248e-03 -6.14244305e-03 -1.68764673e-03 5.49509097e-03
      1.64679494e-02 -1.04887495e-02 3.15901067e-04 1.40016535e-02
      -4.28892346e-03 -2.41802428e-02 -1.04613993e-02 -5.25590731e-04
      2.57331561e-02 1.08552631e-02 7.17232097e-03 -5.16603747e-03
      1.03876209e-02 -2.51873825e-02 -2.62262896e-02 -1.40814558e-02
      -7.51052634e-04 9.76503454e-03 2.45872773e-02 -5.70910657e-03
      1.33737335e-02 2.52710320e-02 -3.52800973e-02 -4.39482704e-02
      -3.49807106e-02 -4.50962316e-03 2.16627903e-02 7.45596364e-03
      4.24051052e-03 1.10783726e-02 8.83957092e-03 -2.92874128e-02
      -2.67653503e-02 -3.11231278e-02 1.53800212e-02 1.24702752e-02
      1.71679426e-02 2.29100380e-02 2.16148887e-03 3.68007715e-03
      -1.46183576e-02 -1.47695690e-02 -2.30134241e-02 -8.49486236e-03
      -4.37074760e-03 1.42146666e-02 5.59992017e-03 -4.72084805e-03
      -6.85523264e-03 -1.80539638e-02 -2.81085144e-03 -2.12913305e-02
      -5.55022573e-03 3.39364819e-03 -5.33454260e-03 1.89579446e-02
      1.46249002e-02 1.58365797e-02 -2.65884157e-02 -1.35615608e-02
      -2.93525606e-02 -6.85480656e-03 1.11354329e-03 -1.75702460e-02
      -4.52068355e-03 -9.35773458e-03 1.65322481e-03 -3.37496288e-02
      1.86137168e-03 -2.27752775e-02 9.14174970e-03 -3.77039751e-03
      -2.21075285e-02 -1.21964244e-02 -1.74475443e-02 -1.12008722e-02
      -6.44682348e-03 1.08979838e-02 -1.54663878e-03 9.03549045e-03
      4.22591623e-03 -1.76395811e-02 -1.29442057e-02 -2.28262413e-02
      -2.40352377e-02 -1.92842353e-02 8.50558374e-03 -9.54759191e-04
      2.39777714e-02 1.26400283e-02 -2.39859596e-02 -1.84476692e-02
      -2.46155076e-02 -1.87732372e-02 -6.18884899e-03 1.72401071e-02
      -5.23006031e-03 2.77249496e-02 9.14049987e-03 6.53567770e-03
      8.21250863e-03 -1.83818098e-02 -3.80894765e-02 -1.85224432e-02
      -3.33146076e-03 -1.37430639e-03 2.73209214e-02 1.89045966e-02
      -9.65144020e-03 -1.35359354e-02 -2.06988808e-02 -2.15001348e-02
      -2.81743370e-02 6.15060329e-04 4.19091084e-04 8.30527279e-04
      -3.95476678e-03 1.27405226e-02 3.45439999e-03 -2.87048426e-02
      -3.24323960e-02 -2.00201906e-02 -6.25282573e-03 5.46501600e-04
      2.98687466e-03 1.14674764e-02 2.23794673e-02 1.95917264e-02
      -1.45257291e-05 -2.61314921e-02 -2.55968776e-02 -3.36156576e-03
      5.89879055e-04 -1.57739837e-02 2.85702683e-02 7.50549836e-03
      2.94634011e-02 1.77894831e-02 -1.97024699e-02 -1.79697177e-03
      -1.69992454e-05 4.40710131e-03 7.72787083e-04 2.80260481e-02
      9.17571317e-03 -2.25486676e-03 -1.53985173e-02 -1.95697825e-02
      -1.91214569e-02 -1.63428746e-02 -9.69919562e-03 -2.20534229e-03
      2.36143563e-02 7.99935684e-03 1.74602773e-02 -3.41563439e-03
      -9.12429392e-03 -2.50285342e-02 -1.87188983e-02 -6.75611314e-04
      -2.49388162e-02 2.19618641e-02 2.18104087e-02 2.21755076e-02
      -4.73206071e-03 -1.82201155e-02 -1.12386374e-02 2.92741065e-03
      7.75818480e-03 1.49587365e-02 1.86933428e-02 3.98507901e-03
      2.79041249e-02 -1.26458388e-02 -2.22239997e-02 -2.48749442e-02
      -1.30773634e-02 -1.50033981e-02 -1.45813292e-02 1.50353452e-02
      8.34611058e-03 2.93341186e-02 -2.35396880e-03 -1.58346780e-02
      -3.08550708e-02 -2.41605821e-03 1.20603964e-02 -1.43952221e-02
      -1.34968283e-02 -1.36926631e-02 -8.98713432e-03 -1.66180991e-02
      -2.39452571e-02 -3.09062880e-02 1.43651562e-02 6.38120575e-03
      5.59585460e-04 -2.41297521e-02 -7.36977265e-04 3.01447008e-02
      2.62136385e-03 -2.55076084e-02 -3.12888399e-02 -2.60275248e-02
      -1.97419301e-02 -3.49499062e-02 4.86221351e-03 -1.52632454e-03
      1.34226363e-02 3.44627746e-03 -1.79993957e-02 -2.13722177e-02
      -2.09127553e-02 -1.06437951e-02 -1.27447965e-02 5.25255455e-03
      -1.80156697e-02 -3.09828650e-02 -2.25889739e-02 -1.70755982e-02
      -1.33070908e-02 2.25706305e-03 3.65556288e-03 -5.65883238e-03
      -6.36877818e-03 -6.95935870e-03 -2.53594425e-02 -9.43750236e-03
      -1.23366257e-02 -9.57709923e-03 -1.43312169e-02 -2.39845118e-04
      3.69611476e-03 -6.58887625e-03 5.06239850e-03 7.46058021e-03
      1.15536456e-03 -1.41021945e-02 -9.24114138e-03 -8.07450339e-03
      -8.21525510e-03 -7.39051076e-03 1.29549270e-02 5.49231283e-03
      1.35030588e-02 1.86234433e-02 6.53661881e-03 -4.76503832e-04
      2.71348469e-03 9.54411179e-03 -2.38220370e-03 7.10869487e-03
      -5.25583932e-03 -3.73375183e-03 -1.15682697e-02 -1.10527072e-02
      -1.52218034e-02 -4.38229507e-03 3.54076410e-03 2.51548495e-02
      6.15556259e-03 -3.81624848e-02 -2.70944629e-02 -2.19808351e-02
      -1.02450680e-02 -2.11589225e-02 9.59415827e-03 -1.53748656e-03
      1.75644946e-03 -2.04394441e-02 1.05080782e-02 3.09634842e-02
      2.04850473e-02 3.44648794e-03 -1.00777857e-02 1.72215048e-02
      1.83956381e-02 7.04851374e-03 -9.19962954e-03 6.28421875e-03
      9.79595166e-03 -4.53421194e-03 -1.72671787e-02 -2.94679347e-02
      2.04164698e-03 -1.18679535e-02 7.24206725e-03 -5.56085166e-03
      -3.41224857e-02 -3.19284722e-02 -1.08685717e-03 -1.30146916e-03
      -2.37452355e-03 1.03136124e-02 -7.67656323e-03 6.70902524e-03
      -1.77312992e-03 -1.64725035e-02 -7.90625811e-03 2.66230237e-02
      -7.24445749e-03 -1.80192366e-02 -2.21691150e-02 -2.14381609e-02
      -1.04598077e-02 2.07711034e-03 8.82098358e-03 1.72747287e-03
      -3.59142851e-03 -1.69110950e-02 -1.16934450e-02 -9.48149245e-03
      -5.69183053e-03 2.53822524e-02 1.36615406e-03 2.72666756e-02
      2.58773994e-02 1.10563245e-02 -1.97415389e-02 -1.46003328e-02
      -2.64304802e-02 -1.18231792e-02 4.75530606e-03 6.45808876e-03
      -1.85729377e-02 9.18254815e-03 1.87106468e-02 -1.45721957e-02
      -2.97209080e-02 -2.06080023e-02 -5.31804329e-03 -3.58311599e-03
      -1.36583634e-02 -2.49390993e-02 7.40581471e-03 1.99490432e-02
      8.15721881e-03 -2.66636349e-03 -1.26045747e-02 -3.50653520e-03
      -1.15150167e-02 -3.47644314e-02 3.10876332e-02 4.17923518e-02
      3.32257859e-02 -1.99162439e-02 -3.11919134e-02 -3.03201266e-02
      -1.62926149e-02 -9.84217040e-03 1.39975501e-02 1.15607884e-02
      2.65383963e-02 2.17106380e-02 1.21572439e-03 -9.70535632e-03
      -1.71981957e-02 -2.53347903e-02 -2.03020517e-02 1.01149557e-02</_></support_vectors>
  <uncompressed_sv_total>64</uncompressed_sv_total>
  <uncompressed_support_vectors>
    <_>
      7.41577968e-02 8.61637592e-02 1.05567820e-01 1.13559172e-01
      1.86047330e-01 9.17118192e-02 9.88710746e-02 1.10971749e-01
      1.68198958e-01 1.74942240e-01 1.42484680e-01 1.58494800e-01
      1.57285586e-01 2.42452726e-01 1.38581246e-01 8.88960734e-02
      1.08393565e-01 2.42452726e-01 1.20153606e-01 1.32125124e-01
      7.11514801e-02 1.87877625e-01 1.75421447e-01 1.58696532e-01
      1.08893514e-01 1.77573338e-01 1.86650425e-01 2.42452726e-01
      2.08129570e-01 9.67738181e-02 1.91490412e-01 2.42452726e-01
      2.42452726e-01 1.81465462e-01 2.14856625e-01 2.42452726e-01
      1.35343105e-01 1.13914438e-01 8.24298263e-02 1.11034133e-01
      2.27438256e-01 1.31190240e-01 6.05083294e-02 8.16856101e-02
      2.05726206e-01 9.58317071e-02 1.82861313e-01 9.36249793e-02
      1.52740479e-01 2.22466141e-01 1.41640410e-01 9.36571881e-02
      1.95255175e-01 1.15021124e-01 1.99029312e-01 1.72419220e-01
      9.10986736e-02 1.40800804e-01 2.27438256e-01 2.27438256e-01
      1.42211899e-01 1.80817321e-01 2.04922691e-01 1.39314726e-01
      1.91802427e-01 1.60793126e-01 1.75110295e-01 2.27438256e-01
      2.27438256e-01 1.80878386e-01 2.27438256e-01 1.57692298e-01
      1.02914095e-01 7.75585473e-02 4.29028831e-02 1.01377189e-01
      1.66013256e-01 1.62454098e-01 8.53887275e-02 1.61791116e-01
      1.31296352e-01 1.68652594e-01 9.51249674e-02 9.63166282e-02
      1.54511079e-01 2.21990377e-01 2.02264205e-01 1.76471114e-01
      1.73731044e-01 1.93500668e-01 1.92716047e-01 1.04021691e-01
      7.33724385e-02 1.29853562e-01 2.21990377e-01 2.21990377e-01
      1.33869395e-01 1.92061782e-01 2.11660266e-01 2.21990377e-01
      1.10696234e-01 9.73160416e-02 2.21990377e-01 2.21990377e-01
      2.21990377e-01 1.56141758e-01 2.09574014e-01 2.21990377e-01
      1.95913881e-01 1.33917406e-01 1.34567976e-01 1.48502588e-01
      1.25371024e-01 1.08534060e-01 1.26982018e-01 9.27845538e-02
      1.69052571e-01 2.22269565e-01 2.22269565e-01 2.04128966e-01
      1.74061835e-01 1.06735408e-01 1.81455061e-01 8.45200270e-02
      8.42445865e-02 2.21258640e-01 2.22269565e-01 1.05842508e-01
      1.27050236e-01 1.43356323e-01 1.52328223e-01 1.70617551e-01
      1.03299506e-01 9.20380875e-02 2.22269565e-01 2.22269565e-01
      2.22269565e-01 2.22269565e-01 2.10867524e-01 1.53191179e-01
      2.03668743e-01 9.33149606e-02 9.11456496e-02 2.22269565e-01
      1.64464235e-01 1.73765451e-01 2.05044076e-01 1.48158967e-01
      1.55908912e-01 1.48046464e-01 7.24828690e-02 1.02816336e-01
      1.65641308e-01 1.04054645e-01 1.40046149e-01 2.15425730e-01
      2.14661047e-01 1.92930922e-01 8.53695124e-02 1.03559770e-01
      1.28976375e-01 1.58829570e-01 1.44615516e-01 1.88513517e-01
      2.03570604e-01 2.15425730e-01 1.56483307e-01 2.12245986e-01
      1.27087325e-01 1.91567540e-01 1.49654269e-01 1.02795012e-01
      1.49065644e-01 1.92246556e-01 1.93479463e-01 1.99318871e-01
      1.46717921e-01 1.84980199e-01 2.15425730e-01 1.70165062e-01
      1.33269444e-01 1.31808117e-01 2.17727885e-01 1.84828699e-01
      1.32266566e-01 7.89620578e-02 9.16484520e-02 1.72821969e-01
      1.57989934e-01 1.23340547e-01 1.35066152e-01 1.36195511e-01
      8.50151628e-02 1.06523655e-01 1.22784324e-01 1.05869696e-01
      1.67807385e-01 2.05130175e-01 2.16146439e-01 1.70179233e-01
      1.82278186e-01 1.50026754e-01 1.73850447e-01 9.62693691e-02
      1.96456075e-01 2.17727885e-01 2.14163363e-01 2.17727885e-01
      2.11912900e-01 1.72392040e-01 1.59968376e-01 1.65614337e-01
      1.64789036e-01 1.69512436e-01 2.14352638e-01 2.17727885e-01
      1.27398282e-01 1.69302553e-01 1.21624731e-01 1.04166247e-01
      1.57354981e-01 1.06949240e-01 1.21188857e-01 1.30239934e-01
      1.75636843e-01 2.16446295e-01 9.15913433e-02 5.60922325e-02
      1.04055114e-01 2.13011339e-01 1.66756511e-01 2.22951815e-01
      1.28997386e-01 2.22951815e-01 2.22951815e-01 2.22951815e-01
      1.83456808e-01 1.34622693e-01 1.53295591e-01 1.77193716e-01
      1.32913515e-01 1.91967905e-01 2.06185520e-01 2.22951815e-01
      1.91020831e-01 1.67380095e-01 9.72034186e-02 2.15320274e-01
      1.70744270e-01 1.47132784e-01 1.18377991e-01 1.79245681e-01
      2.05864310e-01 7.63585716e-02 5.86784072e-02 7.85587430e-02
      1.44203395e-01 1.65648594e-01 2.05935791e-01 1.56582013e-01
      2.31119081e-01 1.21237412e-01 1.54879972e-01 1.20384604e-01
      5.74266389e-02 1.94757625e-01 1.55614212e-01 2.10014090e-01
      2.31119081e-01 2.31119081e-01 1.51617214e-01 1.39266178e-01
      2.04123437e-01 1.27643079e-01 2.12614417e-01 1.36441439e-01
      1.32822812e-01 1.04138292e-01 1.79423168e-01 1.52894989e-01
      1.93210199e-01 2.31119081e-01 1.21418431e-01 2.09261537e-01
      1.17756501e-01 8.55061784e-02 1.72144920e-01 2.31119081e-01
      1.00336261e-01 1.74790442e-01 1.09141424e-01 5.14659397e-02
      1.03396215e-01 7.58761317e-02 1.40282989e-01 2.80082196e-01
      2.80082196e-01 1.82527617e-01 2.57480562e-01 7.36462027e-02
      6.78902343e-02 5.37154302e-02 2.32652649e-02 1.10794708e-01
      2.80082196e-01 2.80082196e-01 1.66581914e-01 1.70792043e-01
      1.75637379e-01 8.63492563e-02 9.72713307e-02 5.72804511e-02
      5.76494038e-02 2.80082196e-01 2.45878413e-01 1.30992085e-01
      1.15610458e-01 9.86201018e-02 7.34283924e-02 3.97473313e-02
      4.12660576e-02 1.03695378e-01 2.80082196e-01 2.80082196e-01
      1.83191344e-01 1.50862753e-01 2.47058328e-02 5.70498481e-02
      7.22762719e-02 6.77802861e-02 1.10733151e-01 2.72883624e-01
      2.27668151e-01 1.93523720e-01 1.28860340e-01 3.39529999e-02
      4.49050777e-02 1.40455037e-01 1.36246011e-01 2.72883624e-01
      2.72883624e-01 2.72883624e-01 1.42166242e-01 8.37549493e-02
      3.69461738e-02 6.91538230e-02 2.93991137e-02 3.53906937e-02
      1.22116446e-01 2.72883624e-01 2.72883624e-01 2.16785058e-01
      1.11854762e-01 3.15266624e-02 9.40296948e-02 1.40355393e-01
      8.76608714e-02 1.57503292e-01 2.72883624e-01 2.72883624e-01
      1.28417775e-01 6.40881434e-02 2.85389572e-02 4.37012501e-02
      1.38509542e-01 1.12209275e-01 2.30267763e-01 2.30267763e-01
      2.30267763e-01 1.64524660e-01 1.96249753e-01 1.33432850e-01
      7.29932785e-02 2.29644671e-01 1.54293507e-01 1.89688444e-01
      2.30267763e-01 2.15913355e-01 2.04323515e-01 5.58021478e-02
      2.74441652e-02 7.21414909e-02 1.22944653e-01 1.17315866e-01
      1.59253836e-01 2.30267763e-01 2.30267763e-01 2.03884259e-01
      2.12098122e-01 1.23686902e-01 8.36218968e-02 1.11496165e-01
      1.07059315e-01 2.30267763e-01 1.80990845e-01 2.30267763e-01
      2.35952809e-01 2.35952809e-01 1.55631393e-01 6.48352504e-02
      1.71111181e-01 1.34347036e-01 1.42942712e-01 1.41390502e-01
      1.56432763e-01 2.35952809e-01 1.72364980e-01 7.71590546e-02
      5.51748723e-02 9.20547843e-02 1.06897697e-01 1.76509202e-01
      2.11612940e-01 2.34865621e-01 2.35952809e-01 2.35952809e-01
      1.72426388e-01 8.25906917e-02 7.62395337e-02 5.10592014e-02
      1.36639506e-01 1.15683906e-01 1.90713167e-01 2.35952809e-01
      2.35952809e-01 1.65163785e-01 1.03100918e-01 1.36773691e-01
      8.37958455e-02 1.09630220e-01 1.81233048e-01 2.35952809e-01
      2.29131684e-01 8.32945555e-02 7.40306750e-02 4.98232543e-02
      6.27912283e-02 7.52187371e-02 1.32506147e-01 1.72331452e-01
      2.29131684e-01 1.85756996e-01 8.45420882e-02 9.24132243e-02
      1.21156462e-01 8.06861892e-02 7.74354860e-02 1.03828996e-01
      1.86660662e-01 1.88377544e-01 2.29131684e-01 2.04888001e-01
      1.93328321e-01 1.11775093e-01 2.07216829e-01 7.23360181e-02
      1.05723865e-01 1.67666793e-01 2.10056454e-01 2.29131684e-01
      2.29131684e-01 2.01530457e-01 2.11818501e-01 2.29131684e-01
      1.08814001e-01 1.64193258e-01 2.29131684e-01 2.28562862e-01
      9.98421982e-02 1.01556182e-01 1.08491302e-01 1.33257821e-01
      1.23426147e-01 7.98947364e-02 1.15544595e-01 2.00958624e-01
      1.20785892e-01 9.11015496e-02 1.03695832e-01 8.85690376e-02
      1.50577188e-01 1.74325958e-01 8.97992551e-02 8.68908390e-02
      2.00584769e-01 1.43567160e-01 2.13044986e-01 1.84690922e-01
      1.90805376e-01 1.93002924e-01 2.05684111e-01 1.54712990e-01
      2.29579076e-01 2.29579076e-01 2.29579076e-01 2.29579076e-01
      1.76738814e-01 1.50631070e-01 1.70760021e-01 2.11590797e-01
      1.22761682e-01 1.51562005e-01 2.29579076e-01 2.29579076e-01
      1.59670159e-01 9.34800133e-02 7.08002150e-02 1.21257737e-01
      1.38517782e-01 5.84684275e-02 7.09628165e-02 1.56790957e-01
      1.83901429e-01 1.79674193e-01 1.67289004e-01 2.47708008e-01
      1.07893191e-01 8.85465592e-02 4.99056838e-02 8.11586604e-02
      7.50747025e-02 1.29086956e-01 2.47708008e-01 1.64222121e-01
      1.66490510e-01 1.35648578e-01 1.97558910e-01 1.03272356e-01
      1.25921980e-01 2.47708008e-01 2.47708008e-01 2.47708008e-01
      2.14116082e-01 2.47708008e-01 1.35022342e-01 1.15214668e-01
      1.21407539e-01 2.03790888e-01 2.11253092e-01 2.47708008e-01
      1.19894996e-01 7.80027583e-02 5.46618588e-02 1.48210675e-01
      1.33305192e-01 1.31205574e-01 1.04766220e-01 1.18999206e-01
      1.55853346e-01 2.29301915e-01 1.31561875e-01 1.10625684e-01
      1.52951539e-01 2.29301915e-01 2.07154691e-01 1.58571467e-01
      1.82347745e-01 2.29301915e-01 1.76783070e-01 7.84124881e-02
      7.22120628e-02 1.17462017e-01 2.16668278e-01 1.75851628e-01
      8.25075433e-02 1.17127001e-01 1.94029540e-01 2.29301915e-01
      1.11743234e-01 1.92420781e-01 2.29301915e-01 2.15908960e-01
      2.29301915e-01 1.22808963e-01 2.04722673e-01 2.29301915e-01
      1.89550683e-01 1.18687354e-01 1.37529865e-01 1.23837367e-01
      1.90699503e-01 1.98066160e-01 9.84243825e-02 1.41157120e-01
      1.75590605e-01 1.42101437e-01 1.34843379e-01 2.16098174e-01
      1.57479241e-01 1.87873363e-01 1.37501135e-01 1.40046731e-01
      2.16098174e-01 1.22135259e-01 1.37894750e-01 1.30125210e-01
      2.07744524e-01 1.67197034e-01 1.13812312e-01 2.16098174e-01
      1.03863791e-01 1.68349087e-01 1.85622483e-01 1.23909332e-01
      2.16098174e-01 2.16098174e-01 1.76482752e-01 2.07992047e-01
      1.43397465e-01 1.74565375e-01 2.16098174e-01 1.05068490e-01
      1.92156941e-01 8.80954117e-02 1.52107969e-01 9.97536108e-02
      1.81165397e-01 1.79366827e-01 1.94558293e-01 2.17394277e-01
      1.64240122e-01 2.02206582e-01 9.01283696e-02 1.19765274e-01
      1.15626641e-01 1.78487316e-01 2.17394277e-01 1.49291411e-01
      1.48054332e-01 2.17394277e-01 1.32879302e-01 1.56787097e-01
      1.69710517e-01 1.04753077e-01 2.17394277e-01 1.46326795e-01
      2.17120796e-01 2.06343308e-01 1.03281170e-01 1.44821361e-01
      1.11531287e-01 1.81436166e-01 1.15704045e-01 1.78696617e-01
      2.17394277e-01 1.68030933e-01 1.73501477e-01 1.65354982e-01
      2.00876489e-01 1.28220499e-01 1.20169580e-01 1.25726476e-01
      1.30494550e-01 1.93877876e-01 7.89451152e-02 6.39396235e-02
      2.05789968e-01 2.18498185e-01 1.98863551e-01 1.63785696e-01
      2.04985529e-01 1.19171508e-01 2.11677477e-01 1.41754389e-01
      1.08949147e-01 2.18498185e-01 1.95432618e-01 1.36623770e-01
      1.50629595e-01 1.23449959e-01 1.49251834e-01 1.56221017e-01
      9.99866575e-02 1.51569992e-01 1.68446988e-01 2.18498185e-01
      1.31560057e-01 1.20865673e-01 1.71297401e-01 1.85095727e-01
      1.64029896e-01 2.18498185e-01 2.00438410e-01 2.18498185e-01
      1.36020020e-01 1.43943876e-01 1.49516121e-01 1.70513451e-01
      1.07514232e-01 2.19114423e-01 1.69104680e-01 1.54381990e-01
      1.74170539e-01 8.92105550e-02 1.62090048e-01 1.03234611e-01
      1.23276390e-01 2.04039693e-01 2.05439642e-01 1.56003326e-01
      2.19114423e-01 2.11291298e-01 2.19114423e-01 9.00331959e-02
      1.55760467e-01 1.08972304e-01 1.86009750e-01 2.19114423e-01
      1.73465818e-01 1.16510317e-01 2.19114423e-01 1.92966595e-01
      1.04746677e-01 1.67537481e-01 9.12335590e-02 2.19114423e-01
      2.13261351e-01 7.40001947e-02 7.60761127e-02 2.19114423e-01
      1.60802558e-01 1.88005552e-01 1.01139717e-01 9.62611511e-02
      2.07792342e-01 1.27240121e-01 1.61616147e-01 1.81285411e-01
      2.22629055e-01 2.13374451e-01 2.09508374e-01 1.83482751e-01
      1.32033855e-01 1.51159838e-01 1.63642868e-01 1.63733214e-01
      1.43542871e-01 2.22629055e-01 1.36339158e-01 1.46707505e-01
      1.82376117e-01 1.27575487e-01 2.04435706e-01 1.37097940e-01
      6.42821640e-02 1.26795188e-01 2.22629055e-01 1.44975275e-01
      1.79083079e-01 2.22629055e-01 1.48044765e-01 1.36975318e-01
      1.43296376e-01 1.59814805e-01 1.31064519e-01 1.88252568e-01
      1.97774932e-01 2.23461464e-01 2.24212408e-01 1.47582233e-01
      1.12985447e-01 1.58504695e-01 1.17781594e-01 1.02884077e-01
      1.25712588e-01 1.97292730e-01 2.24212408e-01 2.24212408e-01
      1.35227233e-01 1.80976614e-01 1.88539445e-01 9.97895524e-02
      8.14901441e-02 1.64262384e-01 1.61086977e-01 1.78266421e-01
      2.24212408e-01 1.60077110e-01 1.08177535e-01 1.14098318e-01
      1.65507749e-01 6.04311712e-02 7.83861652e-02 2.24212408e-01
      2.24212408e-01 2.24212408e-01 1.54049948e-01 1.79576948e-01
      1.83760509e-01 1.06622487e-01 1.23929910e-01 1.61404744e-01
      1.79002360e-01 2.22315416e-01 2.23581746e-01 2.17166394e-01
      2.23581746e-01 1.74536094e-01 8.19783732e-02 1.04719505e-01
      2.12235734e-01 1.53842553e-01 1.36308759e-01 2.23581746e-01
      1.76651463e-01 2.23581746e-01 1.24976642e-01 5.34412935e-02
      1.03626132e-01 1.57706290e-01 2.23581746e-01 2.23581746e-01
      2.09121168e-01 2.04254657e-01 1.66083723e-01 1.77244350e-01
      6.94676787e-02 1.22954540e-01 1.74377337e-01 1.75555840e-01
      1.36973858e-01 1.37531549e-01 1.62858114e-01 1.62544891e-01
      1.10431328e-01 4.83472273e-02 6.79210648e-02 1.14393204e-01
      2.36016348e-01 2.28990182e-01 2.41264373e-01 1.81167021e-01
      2.07181111e-01 7.16742054e-02 3.08761913e-02 9.91645083e-02
      1.51952520e-01 1.31159544e-01 1.47946760e-01 2.30451182e-01
      1.48785710e-01 1.17627345e-01 6.40439242e-02 4.77921441e-02
      2.36453861e-01 2.26794109e-01 1.74321324e-01 2.39056319e-01
      2.41264373e-01 2.01883316e-01 1.97139382e-01 7.87689090e-02
      3.16733867e-02 4.82319668e-02 1.48662195e-01 1.43302232e-01
      2.41264373e-01 2.41264373e-01 1.35524109e-01 1.94869950e-01
      3.92160788e-02 3.59487236e-02 2.47596242e-02 1.44362971e-01
      1.05705783e-01 7.80869499e-02 1.09773673e-01 8.08307678e-02
      1.03853732e-01 3.78173478e-02 7.55009204e-02 2.65028268e-01
      2.65028268e-01 2.03342423e-01 1.68412790e-01 1.14429906e-01
      1.28464386e-01 2.19159201e-01 1.06544085e-01 1.42187864e-01
      2.65028268e-01 2.65028268e-01 1.16264358e-01 9.91607830e-02
      1.49133265e-01 4.84059714e-02 1.93617344e-01 5.41135073e-02
      5.04287593e-02 3.40876542e-02 1.24408893e-01 1.94955230e-01
      2.65028268e-01 2.65028268e-01 1.32462248e-01 2.65028268e-01
      1.87933132e-01 1.40451506e-01 1.01410270e-01 2.11130694e-01
      1.77316546e-01 1.16310932e-01 6.08099662e-02 8.19336772e-02
      8.55014995e-02 1.30789846e-01 1.83954239e-01 2.29084715e-01
      2.15790004e-01 2.29084715e-01 1.92780524e-01 1.33290499e-01
      1.01652682e-01 6.75427020e-02 1.74188301e-01 2.29084715e-01
      1.69686601e-01 2.29084715e-01 1.34769514e-01 2.29084715e-01
      1.23634204e-01 1.04064211e-01 1.19174972e-01 1.30322263e-01
      1.49726257e-01 9.53136683e-02 1.05040394e-01 2.29084715e-01
      2.29084715e-01 1.30457535e-01 1.55952543e-01 1.72898158e-01
      2.20066637e-01 1.91704661e-01 1.19562820e-01 2.29084715e-01
      2.10438564e-01 1.57356381e-01 1.25223443e-01 7.19895437e-02
      3.86133194e-02 6.37555122e-02 1.08047187e-01 1.56862810e-01
      2.36169532e-01 2.27907062e-01 1.29668757e-01 1.18080854e-01
      6.96949214e-02 1.04316972e-01 8.15490112e-02 1.90562904e-01
      2.36169532e-01 2.26139158e-01 2.02266246e-01 1.96578652e-01
      9.49188322e-02 1.28972039e-01 9.48010311e-02 1.30637035e-01
      1.41230717e-01 1.77105352e-01 2.36169532e-01 1.60015196e-01
      2.36169532e-01 1.80057272e-01 1.92543238e-01 1.03165127e-01
      1.28931060e-01 2.36169532e-01 2.36169532e-01 1.83762446e-01
      1.16286479e-01 1.41166046e-01 1.39354378e-01 9.94330496e-02
      2.07160652e-01 8.43024701e-02 1.45989582e-01 1.45217702e-01
      9.63295847e-02 1.38325110e-01 1.64932251e-01 1.70988873e-01
      1.49637297e-01 2.19820738e-01 1.45883411e-01 1.74316123e-01
      1.55850232e-01 1.81539759e-01 4.73042764e-02 2.11810559e-01
      2.19820738e-01 2.19820738e-01 1.32727295e-01 9.92063805e-02
      2.19820738e-01 1.85503542e-01 9.39971805e-02 6.96045682e-02
      1.91050738e-01 2.19820738e-01 2.19820738e-01 1.99667469e-01
      1.44687489e-01 1.78221881e-01 1.91047400e-01 2.19820738e-01
      8.47251192e-02 1.23300053e-01 1.58260599e-01 9.83577967e-02
      9.95483398e-02 1.34496331e-01 1.83000192e-01 1.31696776e-01
      1.39148265e-01 1.90009043e-01 2.22329542e-01 2.22329542e-01
      1.34207532e-01 7.89428577e-02 1.19472578e-01 1.45052269e-01
      1.59770861e-01 1.21648178e-01 1.04033917e-01 2.18795598e-01
      2.22329542e-01 1.49780571e-01 1.33506149e-01 1.85306966e-01
      1.43107176e-01 1.52755260e-01 1.89774811e-01 2.08011165e-01
      2.22329542e-01 2.22329542e-01 2.22329542e-01 1.31414816e-01
      2.22329542e-01 2.07181111e-01 1.49067923e-01 1.47238255e-01
      2.23286033e-01 1.48348793e-01 1.21055201e-01 1.22466549e-01
      7.01326504e-02 1.15117311e-01 1.48443803e-01 1.68139294e-01
      1.28514588e-01 2.09315464e-01 1.11914143e-01 7.53790885e-02
      1.11640811e-01 9.06128064e-02 1.19655222e-01 1.91252455e-01
      1.81636348e-01 2.23286033e-01 2.03610659e-01 1.50850073e-01
      1.94446966e-01 2.23286033e-01 1.34553343e-01 1.84779063e-01
      2.23286033e-01 2.07849443e-01 1.32603928e-01 1.48107350e-01
      9.45147052e-02 7.95657709e-02 1.85497910e-01 1.79410890e-01
      1.79302707e-01 2.23286033e-01 2.23286033e-01 2.10695088e-01
      1.38529032e-01 8.10397044e-02 6.41689599e-02 8.25196803e-02
      2.29214951e-01 1.86675087e-01 6.24833405e-02 6.88395351e-02
      2.29214951e-01 1.37800172e-01 1.42028436e-01 1.89130262e-01
      2.01332718e-01 2.29214951e-01 2.29214951e-01 1.10637113e-01
      1.19769379e-01 2.29214951e-01 1.67440534e-01 9.37576368e-02
      1.05599619e-01 1.46380171e-01 1.76299885e-01 1.60745367e-01
      6.66646585e-02 4.03889790e-02 1.99235141e-01 1.73952371e-01
      1.41071528e-01 2.29214951e-01 2.29214951e-01 2.29214951e-01
      2.29214951e-01 1.40662536e-01 8.96917284e-02 2.29214951e-01
      5.83608672e-02 1.35165572e-01 1.65358499e-01 1.72728375e-01
      1.41392261e-01 1.64128095e-01 9.61148515e-02 1.13803744e-01
      1.26278907e-01 1.18593112e-01 2.14025021e-01 1.81200251e-01
      1.90774277e-01 2.13488951e-01 1.31564707e-01 1.24322310e-01
      1.26150429e-01 1.38348818e-01 1.89576745e-01 1.48127615e-01
      1.38216123e-01 1.67642742e-01 2.10114211e-01 2.20002979e-01
      1.33357793e-01 1.17457248e-01 2.34136626e-01 2.34136626e-01
      2.09301665e-01 1.32046342e-01 1.42874643e-01 1.93090126e-01
      1.24774002e-01 1.25226155e-01 2.17657194e-01 2.34136626e-01
      1.47147134e-01 1.27083853e-01 1.22322395e-01 1.31804585e-01
      2.11499766e-01 1.29644662e-01 1.13808095e-01 1.09078765e-01
      1.20393850e-01 1.96925104e-01 1.13933630e-01 1.53411523e-01
      1.70635760e-01 2.06320941e-01 1.69062778e-01 1.22693986e-01
      1.52689070e-01 2.20620751e-01 2.20620751e-01 1.88336238e-01
      1.36039212e-01 1.83133081e-01 1.73537716e-01 9.83762443e-02
      1.17236324e-01 2.11841837e-01 1.90068245e-01 2.20620751e-01
      1.81631625e-01 1.44931242e-01 2.11962909e-01 2.20620751e-01
      1.51365995e-01 8.92578438e-02 1.32728308e-01 2.20620751e-01
      2.31594443e-01 1.34230211e-01 1.32254049e-01 1.30481631e-01
      1.68147653e-01 8.42608437e-02 1.06350310e-01 1.45273626e-01
      1.85974464e-01 2.31594443e-01 1.47509128e-01 1.72148734e-01
      1.53242558e-01 2.31594443e-01 1.11816660e-01 1.55905038e-01
      1.44843265e-01 1.41003609e-01 2.31594443e-01 1.59417674e-01
      1.17386311e-01 1.12917662e-01 2.31594443e-01 1.13952152e-01
      6.09206483e-02 6.50189370e-02 2.29952246e-01 2.31594443e-01
      2.31594443e-01 2.31594443e-01 1.18976355e-01 2.31594443e-01
      1.87393948e-01 5.62902614e-02 9.13211331e-02 1.44838721e-01
      2.22692534e-01 1.27052262e-01 1.47136927e-01 1.67866081e-01
      2.22692534e-01 1.29211605e-01 9.30883810e-02 9.93062034e-02
      1.42186180e-01 2.22692534e-01 9.54828337e-02 1.57613188e-01
      1.32642880e-01 2.22692534e-01 1.07360967e-01 4.39270101e-02
      6.92502633e-02 2.22692534e-01 2.22692534e-01 1.87946081e-01
      1.78022772e-01 2.13499218e-01 2.22692534e-01 1.88955501e-01
      5.49311750e-02 1.05417676e-01 1.01111181e-01 2.12801948e-01
      1.50798947e-01 1.75870627e-01 2.22692534e-01 2.22692534e-01
      1.63847208e-01 1.01152040e-01 1.37049809e-01 1.80997759e-01
      1.82293147e-01 9.37788114e-02 1.63086489e-01 1.14155494e-01
      1.36949375e-01 9.83150601e-02 4.31370661e-02 1.33353025e-01
      2.31188521e-01 1.77733168e-01 1.21064022e-01 1.34884074e-01
      1.35340691e-01 1.89805135e-01 1.71047837e-01 1.67603359e-01
      1.69710353e-01 1.84674919e-01 1.94558531e-01 1.21450096e-01
      2.02331349e-01 1.45174339e-01 1.71219751e-01 1.28654152e-01
      8.62322971e-02 1.07543297e-01 2.16649771e-01 2.31188521e-01
      1.00507960e-01 1.35816246e-01 1.38056934e-01 2.31188521e-01
      1.84969410e-01 2.31188521e-01 2.31188521e-01 2.31188521e-01
      1.58943415e-01 1.17713727e-01 1.18573055e-01 1.21507145e-01
      1.53518438e-01 1.05685055e-01 1.94813669e-01 9.09421518e-02
      1.06994420e-01 1.80283293e-01 1.43575370e-01 1.19807862e-01
      1.36411265e-01 1.38687342e-01 1.34236768e-01 1.31010383e-01
      1.59414619e-01 1.04290947e-01 1.81674048e-01 1.13123134e-01
      1.37085930e-01 1.72207385e-01 2.35977098e-01 1.26992479e-01
      2.35977098e-01 2.35977098e-01 2.35977098e-01 1.37943313e-01
      1.30077556e-01 1.93267092e-01 2.34086737e-01 2.04290554e-01
      1.41146496e-01 1.62058741e-01 2.35977098e-01 2.35977098e-01
      2.33072802e-01 1.69054598e-01 1.58122569e-01 2.03938186e-01
      1.81954816e-01 1.79717436e-01 1.38764158e-01 2.33072802e-01
      1.45670280e-01 1.91230208e-01 1.22006543e-01 1.24326460e-01
      1.47999987e-01 1.43702611e-01 1.01525694e-01 8.60062614e-02
      1.03119984e-01 1.20522328e-01 2.33072802e-01 1.64784521e-01
      1.96671322e-01 2.15794027e-01 1.96938723e-01 1.86165497e-01
      1.71705276e-01 2.33072802e-01 2.33072802e-01 1.76312596e-01
      1.43601567e-01 1.23384073e-01 1.51782975e-01 1.32657960e-01
      9.46500748e-02 1.18154556e-01 1.22539558e-01 1.08828649e-01
      1.62222266e-01 2.18024239e-01 2.36571506e-01 1.76917613e-01
      1.83104292e-01 1.01191752e-01 5.27880192e-02 6.54654130e-02
      1.88564822e-01 1.79532364e-01 2.45483205e-01 2.45483205e-01
      1.14967518e-01 1.54613689e-01 6.45026863e-02 7.10542127e-02
      5.04653789e-02 1.78813934e-01 1.47899151e-01 2.03080028e-01
      1.88851252e-01 1.53603435e-01 1.45942092e-01 7.36838430e-02
      7.00667724e-02 1.09677315e-01 2.07472920e-01 2.45483205e-01
      2.45483205e-01 1.79611370e-01 1.50967270e-01 1.71413913e-01
      1.29208192e-01 1.04020357e-01 1.43811613e-01 2.32774243e-01
      1.44040197e-01 1.14387184e-01 1.26080081e-01 6.10994510e-02
      1.25318900e-01 7.93419555e-02 9.09689143e-02 6.52830377e-02
      1.08396627e-01 2.30174601e-01 2.30687320e-01 2.45658785e-01
      2.21440166e-01 2.45658785e-01 1.98235676e-01 1.36698902e-01
      1.05963498e-01 1.96528077e-01 2.35829979e-01 1.41403005e-01
      1.13719270e-01 1.37256622e-01 1.42022625e-01 1.44412637e-01
      1.08190723e-01 9.54519585e-02 1.16124213e-01 1.90108716e-01
      2.45658785e-01 2.05685556e-01 2.45658785e-01 2.45658785e-01
      1.74293026e-01 1.15267113e-01 1.31226659e-01 1.04620993e-01
      1.11997306e-01 1.53317660e-01 1.31687209e-01 1.49222091e-01
      1.73469827e-01 1.14578575e-01 9.65008214e-02 8.39363560e-02
      1.12208351e-01 1.97769433e-01 2.32906148e-01 1.46315172e-01
      1.90325335e-01 2.32906148e-01 1.66416481e-01 1.32563233e-01
      1.05213463e-01 1.86444923e-01 9.35297683e-02 1.76555544e-01
      9.51116756e-02 1.61491483e-01 1.84810981e-01 1.41947344e-01
      8.80611315e-02 1.37798026e-01 1.06325582e-01 1.23572983e-01
      2.32906148e-01 1.72940224e-01 2.32906148e-01 2.32906148e-01
      2.32906148e-01 1.75333500e-01 1.97399661e-01 2.32906148e-01
      1.40794694e-01 1.96412191e-01 8.47937614e-02 1.17470860e-01
      1.24565020e-01 1.02505200e-01 1.15229927e-01 8.45932737e-02
      1.29386708e-01 1.50864407e-01 2.24155098e-01 1.96050048e-01
      2.24155098e-01 1.46628544e-01 1.46090999e-01 2.24155098e-01
      1.82156712e-01 1.03421196e-01 1.08901478e-01 1.57619700e-01
      1.02206200e-01 1.57535255e-01 1.90893099e-01 1.43468201e-01
      1.55391559e-01 1.07723854e-01 1.68006122e-01 1.60582453e-01
      1.90814763e-01 2.24155098e-01 2.24155098e-01 2.24155098e-01
      2.07076281e-01 1.90778151e-01 1.98774919e-01 1.78409040e-01
      6.30271509e-02 1.69243544e-01 2.31584936e-01 2.31584936e-01
      1.24604389e-01 9.53516290e-02 1.47654817e-01 1.72641829e-01
      7.78140426e-02 9.00403336e-02 1.39040619e-01 2.31584936e-01
      2.31584936e-01 1.50973380e-01 1.16000064e-01 1.11996047e-01
      1.62234768e-01 1.57224253e-01 9.00056288e-02 1.53833851e-01
      2.31584936e-01 2.31584936e-01 2.07755566e-01 1.18374541e-01
      8.91192630e-02 1.63680762e-01 7.16213658e-02 1.46030664e-01
      1.48164794e-01 2.31584936e-01 2.31584936e-01 1.99610218e-01
      2.09533796e-01 1.59032047e-01 1.98162794e-01 7.79451281e-02
      9.66333523e-02 1.98397398e-01 1.87060416e-01 1.51277438e-01
      1.37124658e-01 1.51804417e-01 9.65512246e-02 1.49779603e-01
      1.37192219e-01 9.87405851e-02 2.10901126e-01 2.10901126e-01
      2.10901126e-01 1.47116110e-01 2.07707986e-01 1.79346442e-01
      1.93810627e-01 1.62302673e-01 1.59024984e-01 1.37450978e-01
      1.87120318e-01 1.83804557e-01 1.38550520e-01 1.86145052e-01
      1.59609213e-01 1.49595529e-01 1.03782386e-01 1.40229121e-01
      1.45326853e-01 2.10901126e-01 2.10901126e-01 1.06414452e-01
      1.49566859e-01 2.10901126e-01 1.74176455e-01 1.76473692e-01
      9.27192643e-02 1.66632280e-01 1.95951134e-01 2.12906525e-01
      1.41202450e-01 1.31725043e-01 1.97936252e-01 1.64090559e-01
      1.28829822e-01 1.18534036e-01 1.58079654e-01 1.49366990e-01
      1.54309750e-01 1.43179372e-01 1.23870492e-01 2.12906525e-01
      1.94286019e-01 1.50092021e-01 1.18624233e-01 1.80512235e-01
      2.12906525e-01 1.67807296e-01 1.11668222e-01 1.13657512e-01
      1.76779658e-01 1.46584660e-01 1.68550238e-01 1.60774812e-01
      2.02097386e-01 2.12906525e-01 2.12906525e-01 1.23060308e-01
      1.53175533e-01 1.65457726e-01 1.89314097e-01 2.12906525e-01
      1.24299146e-01 1.30115643e-01 1.18453704e-01 1.67755529e-01
      1.06655002e-01 9.61207524e-02 2.35532690e-02 4.60972786e-02
      9.60982144e-02 1.46179914e-01 9.49506089e-02 2.23569885e-01
      2.15039656e-01 1.62001178e-01 2.21402153e-01 1.53764099e-01
      1.48941636e-01 2.26455316e-01 9.69009772e-02 1.67258367e-01
      1.14695288e-01 2.03897759e-01 1.93781361e-01 1.26442224e-01
      8.28677043e-02 8.05932283e-02 1.49238169e-01 1.40195042e-01
      2.26455316e-01 2.26455316e-01 1.99111491e-01 2.26455316e-01
      2.14457437e-01 2.20686004e-01 2.26455316e-01 2.26455316e-01
      1.48410290e-01 5.84425963e-02 9.61806402e-02 9.39607322e-02
      1.03983991e-01 1.60626024e-01 1.71723336e-01 1.71104699e-01
      2.16425374e-01 2.16425374e-01 1.78653851e-01 1.26736417e-01
      1.51663810e-01 9.22384411e-02 1.20959722e-01 1.55128136e-01
      2.09022269e-01 2.16425374e-01 8.94027501e-02 9.59704518e-02
      1.48866534e-01 1.07322685e-01 1.25165701e-01 1.55319229e-01
      2.16425374e-01 2.16425374e-01 2.16425374e-01 1.95776671e-01
      1.65658727e-01 1.31116584e-01 2.00638130e-01 1.61331907e-01
      1.92535162e-01 2.16425374e-01 2.12962314e-01 2.16425374e-01
      2.21054673e-01 2.10937843e-01 1.75973460e-01 1.82677299e-01
      9.83355716e-02 8.73174965e-02 1.29651710e-01 1.59850076e-01
      1.34127796e-01 1.39790162e-01 1.23165280e-01 1.28760934e-01
      1.25311360e-01 1.44690841e-01 9.68110487e-02 9.86789241e-02
      1.05148926e-01 1.41226158e-01 2.21054673e-01 1.95905596e-01
      1.20533869e-01 1.67400271e-01 1.50069326e-01 1.86423689e-01
      2.21054673e-01 2.10473701e-01 2.09142596e-01 2.21054673e-01
      1.82519257e-01 1.44734815e-01 1.40015870e-01 1.33632123e-01
      1.85840368e-01 1.83680490e-01 2.06647709e-01 2.21054673e-01
      1.72633320e-01 1.01182111e-01 1.07236385e-01 8.75725597e-02
      1.98379993e-01 1.45135000e-01 1.08414195e-01 9.57384706e-02
      1.80233344e-01 2.23461017e-01 2.17407554e-01 1.62467346e-01
      1.47947356e-01 2.23461017e-01 2.08821133e-01 6.38742745e-02
      8.12256038e-02 1.61349282e-01 1.84477195e-01 1.73793361e-01
      1.91624001e-01 1.30538866e-01 1.49483159e-01 2.10538223e-01
      1.35888636e-01 1.55163854e-01 2.19376430e-01 2.23461017e-01
      2.14692637e-01 1.89969927e-01 2.14589030e-01 1.77438557e-01
      1.66667804e-01 9.32055116e-02 9.58106294e-02 1.35532632e-01
      2.22417742e-01 1.48508176e-01 1.09363355e-01 1.82181299e-01
      2.19018146e-01 2.22417742e-01 8.30829889e-02 8.45424235e-02
      1.32836595e-01 1.96524158e-01 1.17659986e-01 1.35352209e-01
      2.03640327e-01 1.67245120e-01 1.78164244e-01 1.57314420e-01
      1.34948209e-01 1.76242560e-01 2.22417742e-01 1.82429358e-01
      1.59976721e-01 1.53144971e-01 1.85428202e-01 1.68261096e-01
      1.25459194e-01 6.06891997e-02 1.39219135e-01 2.19544649e-01
      1.36482626e-01 1.94192901e-01 1.16991311e-01 2.22417742e-01
      1.16509676e-01 1.74254522e-01 1.08897105e-01 2.21787855e-01
      1.41117409e-01 1.16562098e-01 1.58310905e-01 1.36258349e-01
      1.30853578e-01 1.19544618e-01 1.13741443e-01 1.06410153e-01
      1.40583932e-01 1.65459946e-01 8.74827951e-02 1.85397789e-01
      9.67332050e-02 2.73198426e-01 1.59263149e-01 2.77715057e-01
      2.77715057e-01 2.37890914e-01 1.14998743e-01 6.60362840e-02
      1.45024687e-01 1.07762799e-01 1.66934907e-01 9.11549553e-02
      8.44669491e-02 9.04817134e-02 1.52442470e-01 5.70194833e-02
      2.33885482e-01 2.77715057e-01 1.91209167e-01 1.09347701e-01
      1.18034400e-01 2.33557209e-01 2.26881608e-01 1.62884206e-01
      1.07090354e-01 1.06608532e-01 1.71349436e-01 1.72473222e-01
      1.52804092e-01 6.80382773e-02 2.46486470e-01 2.46486470e-01
      2.03498468e-01 1.14710651e-01 1.32566750e-01 1.88486695e-01
      2.46486470e-01 1.85900390e-01 9.88687798e-02 1.26659065e-01
      2.33258426e-01 1.66730538e-01 8.26322511e-02 2.03027159e-01
      2.46486470e-01 2.08655089e-01 1.11704491e-01 4.81078178e-02
      1.78524002e-01 1.79813892e-01 1.22862563e-01 1.36987135e-01
      1.51419207e-01 2.15327129e-01 2.46486470e-01 1.68045774e-01
      5.14435470e-02 8.39494616e-02 1.25415549e-01 7.86451176e-02
      2.01122433e-01 1.47630900e-01 1.85187340e-01 1.92037016e-01
      1.58009008e-01 1.37871355e-01 9.76423323e-02 1.37355730e-01
      1.89955145e-01 1.25396162e-01 8.91755372e-02 7.55331740e-02
      9.48832482e-02 9.16269124e-02 8.73915181e-02 7.38467127e-02
      9.72260833e-02 1.44569337e-01 2.14460254e-01 1.91564575e-01
      2.39757940e-01 2.39757940e-01 2.24838883e-01 1.50771335e-01
      1.02930568e-01 8.90329629e-02 1.62598163e-01 1.72582969e-01
      2.17904508e-01 2.39757940e-01 1.68038562e-01 2.10473061e-01
      2.25457594e-01 1.26829788e-01 1.33840844e-01 2.39757940e-01
      1.46957502e-01 1.05213396e-01 9.07515287e-02 1.03599131e-01
      1.52611077e-01 8.40516165e-02 5.53317778e-02 1.25971496e-01
      2.62175709e-01 2.07639202e-01 1.05742134e-01 1.02908842e-01
      1.01575211e-01 1.68620646e-01 1.27531826e-01 8.56921002e-02
      1.32905751e-01 2.43754685e-01 1.78553000e-01 1.86854780e-01
      2.62175709e-01 1.90115541e-01 2.62175709e-01 2.15673283e-01
      1.74781352e-01 2.39924163e-01 2.62175709e-01 1.06407419e-01
      7.89119899e-02 1.17717065e-01 8.54974762e-02 2.14593530e-01
      1.37743548e-01 1.15763679e-01 1.26295269e-01 2.15713441e-01
      2.24871412e-01 1.47966474e-01 1.06635809e-01 1.08617753e-01
      1.49201781e-01 1.50976136e-01 1.34094134e-01 1.20918602e-01
      1.32591799e-01 1.68925241e-01 2.20255360e-01 1.22112460e-01
      1.99717358e-01 2.56468982e-01 2.56468982e-01 2.56468982e-01
      2.11347774e-01 1.17395028e-01 8.43192935e-02 1.24863937e-01
      8.12973380e-02 4.39443067e-02 1.08707756e-01 1.05929717e-01
      1.52896523e-01 1.13654569e-01 1.00297496e-01 1.41163841e-01
      1.44379586e-01 7.15778247e-02 1.59997746e-01 1.95009604e-01
      2.37388745e-01 2.56468982e-01 2.17343390e-01 1.98538944e-01
      7.28648454e-02 8.90481472e-02 4.17082421e-02 1.25344574e-01
      1.43263057e-01 1.65684164e-01 1.02798611e-01 1.22569084e-01
      9.93150473e-02 1.68428242e-01 2.36804277e-01 1.46689907e-01
      2.36804277e-01 2.36804277e-01 1.98110059e-01 1.24526292e-01
      1.70663580e-01 1.93330914e-01 7.88195580e-02 5.96834943e-02
      5.70078716e-02 1.16381966e-01 1.30552158e-01 1.52916923e-01
      1.11230530e-01 1.14219069e-01 1.46460712e-01 2.36804277e-01
      2.36804277e-01 1.68757290e-01 2.36804277e-01 2.36804277e-01
      2.36804277e-01 1.98222592e-01 1.61391810e-01 2.36804277e-01
      1.03972368e-01 1.16735086e-01 9.47850868e-02 1.62331015e-01
      2.13015601e-01 9.87830609e-02 1.17845371e-01 1.15697823e-01
      1.24841884e-01 1.19960286e-01 1.05604097e-01 1.45434916e-01
      2.16081262e-01 2.16081262e-01 1.71059400e-01 1.61272198e-01
      1.87858045e-01 1.49449244e-01 1.99118346e-01 1.77081555e-01
      1.71105459e-01 1.83480218e-01 2.16081262e-01 1.34706244e-01
      1.11478485e-01 1.07487932e-01 2.16081262e-01 1.72530636e-01
      1.86552882e-01 2.05176950e-01 2.16081262e-01 2.16081262e-01
      2.16081262e-01 1.13673203e-01 1.97145596e-01 1.38267159e-01
      1.17223337e-01 1.14008181e-01 2.14589030e-01 2.14589030e-01
      1.75047189e-01 1.47850379e-01 1.11561596e-01 1.73261493e-01
      9.03955251e-02 2.14589030e-01 1.58318058e-01 2.14589030e-01
      2.14589030e-01 1.98858365e-01 1.83923244e-01 1.42251834e-01
      1.87428683e-01 6.58759326e-02 1.31743520e-01 1.97544873e-01
      1.59368828e-01 1.49990872e-01 1.72190130e-01 1.97354019e-01
      1.18733667e-01 1.70596063e-01 1.30866230e-01 1.95692882e-01
      1.81460872e-01 2.14589030e-01 1.33705169e-01 1.77529499e-01
      1.65867537e-01 1.63411424e-01 9.11585540e-02 1.31156951e-01
      1.98561281e-01 1.29823178e-01 1.50538161e-01 1.37469515e-01
      1.40639469e-01 1.72660038e-01 1.43846959e-01 1.19597793e-01
      8.33032355e-02 1.60981670e-01 9.93972942e-02 2.08867133e-01
      1.35130197e-01 1.27300113e-01 1.61253005e-01 2.25417018e-01
      1.90992981e-01 1.34363234e-01 2.04948604e-01 1.37926266e-01
      1.92432761e-01 1.03947707e-01 1.52866408e-01 1.52379930e-01
      1.37658104e-01 1.12305529e-01 1.66444495e-01 2.25417018e-01
