<?xml version="1.0"?>
<opencv_storage>
<opencv_ml_svm>
  <format>3</format>
  <svmType>C_SVC</svmType>
  <kernel>
    <type>LINEAR</type></kernel>
  <C>1.</C>
  <term_criteria><epsilon>1.1920928955078125e-07</epsilon>
    <iterations>1000</iterations></term_criteria>
  <var_count>10000</var_count>
  <class_count>2</class_count>
  <class_labels type_id="opencv-matrix">
    <rows>2</rows>
    <cols>1</cols>
    <dt>i</dt>
    <data>
      0 1</data></class_labels>
  <sv_total>1</sv_total>
  <support_vectors>
    <_>
      3.00783886e-05 5.57833255e-06 9.32135117e-06 1.50531851e-05
      1.77894672e-05 1.56261303e-05 1.58279017e-05 1.59199990e-05
      1.72916571e-05 1.53259371e-05 1.54922145e-05 1.84771379e-05
      2.31869089e-05 2.11202896e-05 2.13970579e-05 2.22581748e-05
      2.48871620e-05 2.07061748e-05 2.20012698e-05 2.15636428e-05
      2.18420373e-05 2.33564060e-05 2.48425949e-05 2.46067011e-05
      2.70463879e-05 3.07452756e-05 2.98343384e-05 2.76607298e-05
      3.16450351e-05 3.04163423e-05 3.12792654e-05 3.57937824e-05
      3.10473115e-05 2.94607435e-05 3.25355250e-05 3.17059348e-05
      2.81320608e-05 2.73167407e-05 2.65787239e-05 2.71611643e-05
      2.46646650e-05 2.18531459e-05 2.11325132e-05 1.95589546e-05
      2.08342244e-05 2.07478406e-05 2.35731168e-05 2.45133378e-05
      2.51755573e-05 2.45854426e-05 2.28305580e-05 2.17779907e-05
      2.36645319e-05 2.42143306e-05 2.45742667e-05 1.93935684e-05
      1.79753497e-05 1.65843467e-05 1.39515696e-05 1.60261661e-05
      1.58600305e-05 1.01614360e-05 1.35334803e-05 1.72880355e-05
      1.62808938e-05 9.13459735e-06 1.47936935e-05 2.04620737e-05
      2.58187847e-05 2.70132587e-05 2.51859055e-05 1.97104418e-05
      2.15063028e-05 2.40607187e-05 2.50899029e-05 2.89335694e-05
      2.40459885e-05 2.50965531e-05 2.52993523e-05 3.00092033e-05
      2.46074251e-05 2.22002564e-05 2.59695171e-05 3.43692736e-05
      1.67060971e-05 1.46437951e-05 1.47065057e-05 5.82965731e-06
      -5.93678124e-07 -9.77552372e-06 -1.09128923e-05 3.20354025e-06
      -2.75834191e-06 -1.19484539e-05 -7.59826753e-06 -1.00846364e-05
      -2.43462437e-05 -2.37855656e-05 -2.03808213e-05 1.01358701e-07
      2.11117385e-05 -8.32151727e-06 -3.32447053e-06 9.82667916e-06
      7.38990548e-06 7.92189621e-06 8.86632552e-06 4.92843856e-06
      -1.63026854e-07 3.16154046e-06 9.62455942e-07 2.30427077e-06
      1.58295570e-05 8.77229377e-06 1.12784492e-05 6.23313144e-06
      1.38298710e-05 1.00581738e-05 3.97504618e-06 8.32429487e-06
      2.54781025e-06 3.41643954e-06 2.43359659e-06 -1.09696487e-06
      1.01239548e-05 1.68016213e-05 6.80599442e-06 2.86194881e-06
      6.57459623e-06 1.44659534e-05 6.80369021e-06 1.00159205e-05
      -4.43474519e-08 -8.63807327e-06 -6.65012408e-07 2.37174208e-06
      3.23839743e-07 4.48950885e-07 -4.77934691e-06 -1.03008495e-06
      -5.11237340e-06 -1.08920285e-05 -8.32775549e-06 -1.46869597e-05
      -1.05319741e-05 -1.71606189e-05 -1.14757031e-05 -5.64644051e-06
      1.10432256e-06 -7.81957442e-06 -9.34973832e-06 -1.31941270e-05
      -1.17076115e-05 3.02957324e-06 7.84067561e-06 -6.96485040e-06
      -1.14073437e-05 -1.40343955e-05 -1.81898231e-05 -1.46687751e-06
      3.59884052e-06 -6.19149523e-06 -3.08447255e-07 -1.12567632e-05
      -1.16495357e-05 -1.08683853e-05 -5.54247754e-06 2.69827547e-06
      3.61371463e-07 -1.51310805e-05 -8.22512993e-06 -1.05208683e-05
      1.92609468e-06 2.31053150e-06 5.39655957e-06 4.79195114e-06
      -1.09653993e-05 -4.25393364e-06 -1.39315234e-05 -1.46693901e-06
      -9.76112187e-06 6.88326827e-06 4.76897731e-06 1.58978837e-05
      1.22772917e-05 1.67571143e-05 2.29728048e-05 3.10157739e-05
      2.61521491e-05 -1.80061506e-05 -2.17295656e-05 3.62712444e-06
      -5.63145795e-06 -1.20323239e-05 -2.24260839e-05 -2.21832779e-05
      -4.14656242e-05 -4.65960875e-05 -4.39533032e-05 -2.97733586e-05
      3.04794212e-05 6.02080490e-06 -6.43405372e-07 9.00480427e-06
      2.06377649e-06 7.10014501e-06 1.23465443e-05 1.37162306e-05
      8.53047641e-06 1.11333438e-05 9.44523072e-06 1.35643941e-05
      1.97306472e-05 9.57586781e-06 1.54209301e-05 8.39855602e-06
      1.73912831e-05 1.76741887e-05 6.30101249e-06 7.62701075e-06
      5.79337393e-06 9.46860746e-06 7.91308594e-06 8.20635523e-06
      1.60318687e-05 2.37983804e-05 9.51920629e-06 3.89713705e-06
      3.69246186e-06 1.95618213e-05 9.79502056e-06 6.56000020e-06
      -5.53295695e-06 -1.53131641e-05 -1.49114649e-05 -3.52209304e-06
      8.03796752e-07 -3.93130722e-06 1.19303502e-06 2.80016116e-06
      -7.39158850e-06 -9.47065655e-06 -2.30456340e-06 -8.26902306e-06
      -1.27269323e-06 7.94342725e-08 -6.96968982e-06 -5.44600141e-07
      9.50612730e-07 -8.82641507e-06 -6.21862137e-06 -1.65706297e-05
      -1.54662630e-05 -1.04223105e-07 -1.50155165e-06 -2.00564182e-06
      -7.92121136e-06 -1.70927906e-05 -1.46590301e-05 -5.82557914e-06
      1.29248554e-06 -1.04695700e-05 -1.03499151e-05 -1.58011244e-05
      -2.33974356e-06 9.99204167e-06 1.13742826e-05 9.56424901e-06
      3.32271998e-06 -1.08814793e-05 -1.92359639e-05 -1.24212766e-05
      -8.43302075e-07 7.67546169e-07 9.70170845e-07 1.54239224e-05
      5.51008952e-06 5.94667563e-06 8.06734533e-06 -6.78639935e-06
      -7.63314711e-06 3.98997418e-06 -2.09522350e-05 -6.27162399e-06
      7.52521544e-07 6.06582626e-06 4.47119828e-06 4.33513105e-06
      1.30450235e-05 9.99651820e-06 1.34843940e-05 1.10284118e-05
      -2.51145266e-05 -1.98311991e-05 -2.79144624e-05 -2.18574132e-05
      -3.41266059e-05 -4.17053270e-05 -3.48812864e-05 -2.47575899e-05
      2.50260437e-05 -8.33523984e-07 -3.55806310e-06 6.99469808e-07
      3.77174092e-06 5.78880918e-06 1.83979082e-05 1.36671160e-05
      1.39243748e-05 1.20339528e-05 1.92537100e-05 1.09409812e-05
      2.17322558e-05 6.89283524e-06 1.46886123e-05 9.52167102e-06
      1.18176176e-05 2.40590798e-05 1.20380737e-05 1.73605331e-05
      1.51566664e-05 1.25001789e-05 5.92082233e-06 4.02136993e-06
      1.09751745e-05 1.10122610e-05 8.94647474e-06 3.28406122e-06
      3.25023007e-06 1.37580801e-05 1.26161822e-05 8.51175719e-06
      7.84717031e-06 -4.36110895e-06 -7.05176490e-06 -3.14737258e-06
      5.55737688e-06 -2.04064008e-06 -2.34970616e-06 3.46778529e-06
      1.08663221e-06 1.40383884e-06 2.07749054e-06 -5.38342510e-06
      -3.00334523e-06 -2.36248312e-07 7.32071101e-07 -4.00621866e-06
      -1.34066238e-06 -9.84678354e-06 9.01508770e-07 -6.16757143e-06
      -1.38487330e-05 -9.49314835e-06 -9.28085956e-06 -6.66516007e-06
      -1.64378309e-06 -8.51859386e-06 -9.59718545e-06 -3.78205345e-06
      -1.79316055e-06 -3.42404519e-06 -2.17839215e-06 -9.68866857e-07
      4.31765966e-06 9.91514844e-06 1.17691825e-05 7.16738850e-06
      5.31509750e-06 -2.72988927e-06 -1.86371562e-05 7.03807609e-06
      1.28998227e-06 2.72188913e-06 2.79520805e-06 1.64747271e-05
      1.99253736e-05 -1.28022805e-06 2.14149150e-05 2.50643825e-05
      9.16048157e-06 2.66840452e-05 2.12006107e-05 -2.14075203e-06
      -2.17608135e-06 1.08217171e-06 -3.77468587e-06 -2.17056440e-05
      -7.89388832e-06 2.81403100e-05 3.35493896e-05 1.04990440e-05
      -1.56769111e-05 3.99576948e-06 -9.27325164e-06 -3.28056740e-05
      -3.29881223e-05 -3.33410972e-05 -2.74010290e-05 -2.50001285e-05
      2.99386356e-05 1.25855183e-06 -6.14571832e-07 8.22302809e-07
      9.22330764e-06 1.07924643e-05 2.07973753e-05 2.13984185e-05
      1.98727412e-05 1.03549764e-05 6.41470297e-06 6.92843696e-06
      1.57292670e-05 1.47972469e-05 3.57007934e-06 6.98133545e-06
      1.36227809e-05 2.37266049e-05 2.04053649e-05 1.74020970e-05
      1.37555026e-05 7.52426740e-06 8.64634694e-06 7.46881642e-06
      4.17851015e-06 3.09110192e-06 5.49798642e-06 9.12017731e-06
      6.79509776e-06 1.48689387e-05 7.72587919e-06 -6.99541488e-06
      -2.41271732e-06 -7.81812469e-06 -5.69747363e-06 -4.08060760e-06
      3.06639936e-06 -1.21714891e-06 -7.33561501e-06 -1.29022260e-06
      -3.26979921e-06 -5.28521286e-06 4.80492417e-06 -5.15176907e-06
      -1.00435900e-05 -3.80025563e-06 8.81577648e-07 -3.31505316e-06
      -9.38921494e-06 -7.81535982e-06 -2.30797173e-06 8.39263248e-06
      -9.34992750e-06 -1.30144799e-05 -6.59180660e-06 -1.13404531e-05
      5.08449239e-06 1.73421688e-06 -7.22084314e-06 -8.02897284e-06
      2.25127837e-06 3.41909640e-07 -2.33038668e-06 -5.05239632e-06
      1.68593454e-06 7.52572123e-06 9.55924770e-06 7.68792870e-06
      1.12947555e-06 -5.12405404e-06 -7.75885019e-06 1.34803477e-05
      1.89010916e-05 1.77258680e-05 2.71293484e-05 3.81604877e-05
      2.47150638e-05 1.43859324e-05 3.37655983e-05 2.93602825e-05
      4.00982281e-05 4.39627620e-05 4.16884832e-05 1.31015795e-05
      2.61382684e-06 1.87088222e-06 -8.58961812e-06 -1.86737725e-05
      -8.72078635e-06 2.41409580e-05 2.23882671e-05 1.18379012e-05
      4.93734933e-06 1.12266105e-06 1.43132393e-05 -9.50970843e-06
      -3.08562608e-06 -2.03799264e-05 -2.22764011e-05 -2.09756709e-05
      2.67345931e-05 -3.74717933e-06 -2.97391762e-06 9.73387887e-06
      1.59001356e-05 1.96259662e-05 1.96976707e-05 1.95162156e-05
      1.58300900e-05 5.87151953e-06 4.58621480e-06 1.75755576e-05
      1.36656354e-05 1.27106077e-05 4.44219722e-06 1.06152820e-05
      8.19148681e-06 1.83038173e-05 7.64926335e-06 1.85665328e-06
      8.31820398e-06 8.38827964e-06 4.22194717e-06 6.56522434e-06
      8.58835938e-06 6.25523808e-06 -3.93469406e-07 4.06414847e-06
      1.02137901e-05 6.19307593e-06 1.56867156e-06 -3.97888425e-06
      -8.72122655e-06 -2.67225300e-06 -2.57335364e-06 2.16079866e-06
      -2.38576945e-06 -5.64315542e-06 -1.39209978e-05 -1.00342959e-05
      -3.99691089e-06 -3.94938161e-06 -4.13755106e-06 -9.47414208e-07
      -8.25275401e-06 -6.44229249e-06 -2.73684168e-06 -1.58087209e-06
      -2.00717750e-06 -4.18227319e-06 -2.95010932e-06 -1.98057683e-06
      -1.73748333e-06 -2.19545382e-06 2.64410801e-06 -5.28671717e-06
      -2.23159896e-06 -1.52098721e-06 4.52741915e-06 7.65524328e-06
      3.54914914e-06 5.05174012e-06 1.21281100e-05 -1.22558185e-06
      -5.74447313e-06 -1.28723104e-06 1.04139790e-05 1.29809087e-05
      1.49069137e-06 -3.18339994e-06 1.59765000e-06 1.52362036e-05
      2.02948340e-05 2.88845022e-05 3.04691712e-05 3.86578613e-05
      3.92758957e-05 3.27841772e-05 4.99524795e-05 2.77450581e-05
      1.63614495e-05 3.83518054e-05 4.25375110e-05 2.79234337e-05
      2.76082919e-05 1.57572122e-05 1.15702715e-05 -3.02259082e-06
      -9.72740781e-06 -3.79706012e-06 -1.39021340e-05 -1.00152492e-05
      7.70538827e-06 -5.79149855e-06 -1.60045129e-05 -1.53841029e-05
      1.21905405e-05 4.01590341e-07 -7.68584141e-06 -2.43192917e-05
      2.52000937e-05 1.16342221e-06 9.82844995e-06 9.85654788e-06
      1.39567192e-05 1.54520148e-05 2.05265569e-05 1.39361182e-05
      1.31875140e-05 4.81320467e-06 1.89795651e-06 1.07679116e-05
      1.20815248e-05 1.12805865e-05 3.25982819e-06 7.87863246e-06
      1.75975601e-05 2.19669055e-05 1.42872159e-05 4.74822258e-07
      -2.81040229e-06 2.74980152e-07 9.55906762e-06 1.03835248e-06
      6.94575283e-06 3.14388944e-06 -4.62463106e-07 -2.37212794e-06
      5.46845831e-06 2.84819293e-07 -7.68317841e-06 -5.89841466e-06
      -1.46740795e-05 -7.19120089e-06 -6.14757482e-06 -5.12328188e-06
      -5.96141854e-06 2.23331313e-06 -1.57479826e-05 -1.24007565e-05
      -5.68102314e-06 -4.84711927e-06 -7.24785696e-06 -7.80255050e-06
      -7.50300705e-06 8.06017511e-08 -6.24966378e-06 3.83422184e-06
      7.37777782e-07 -6.52387644e-06 -1.71159616e-06 -5.78563959e-06
      -2.05544302e-06 3.33312687e-06 1.51220356e-05 -3.19259584e-07
      -6.37634366e-06 3.76189314e-06 2.07518633e-06 3.80620168e-06
      -2.26950397e-06 4.82872338e-06 1.86586767e-05 1.18610706e-05
      1.45817885e-05 2.88663978e-06 1.07166288e-05 1.07130627e-05
      -2.22909534e-07 -9.11210554e-06 -2.89921809e-06 5.93217874e-06
      1.56740152e-05 1.04920755e-05 2.51368347e-05 3.80211750e-05
      3.56091077e-05 2.71601893e-05 3.35274490e-05 2.83320642e-05
      -5.87965587e-06 1.14847408e-05 2.14807787e-05 2.61546102e-05
      4.04505226e-05 2.30999631e-05 1.73215140e-05 6.61552667e-06
      -1.59206120e-05 2.71131512e-06 1.60751988e-05 8.26506664e-07
      -1.81193573e-05 -3.22101951e-05 -3.80941783e-05 -3.31302108e-05
      -9.30870738e-06 -8.47720185e-06 4.24314021e-06 -1.37711795e-05
      3.23012355e-05 1.60060154e-05 1.55738053e-05 1.58276798e-05
      1.38479854e-05 1.06312928e-05 1.58269486e-05 1.19794722e-05
      7.26242934e-06 5.77965329e-06 4.09256336e-06 5.07196592e-06
      1.02603253e-05 5.86154511e-06 3.11912231e-06 -1.43427803e-06
      5.90755371e-06 7.89826572e-06 3.84913028e-06 -5.38652739e-06
      2.71636713e-06 3.68214864e-06 7.72855037e-06 5.86242277e-06
      4.72388649e-07 8.89726471e-06 7.58818624e-06 -6.21941638e-07
      4.77357069e-08 -3.72399336e-06 -1.84383080e-05 -2.39456531e-05
      -1.60493437e-05 -1.08186878e-05 -1.51522327e-05 -8.83575285e-06
      -1.52095754e-05 -1.71320735e-05 -9.32624062e-06 -7.09328674e-07
      2.73106707e-06 -3.76190428e-07 -8.04488718e-06 -1.14476879e-05
      -1.06899015e-05 -2.20546917e-06 -1.21009498e-06 2.67615223e-06
      2.05358879e-06 -5.07655795e-06 -7.45475518e-06 -9.65983781e-06
      -4.18056879e-06 4.96063058e-06 4.11528026e-06 6.86120575e-06
      -4.14606484e-06 -6.96912366e-06 -6.75965975e-06 4.28241179e-07
      -1.93430492e-06 3.68715769e-06 1.21666799e-05 2.10315447e-05
      6.30956174e-06 1.67336893e-05 1.25968545e-05 1.70578260e-05
      6.72665010e-06 -9.93622598e-06 -1.06809500e-06 -4.28613703e-06
      6.10080633e-06 1.47193450e-05 1.11982026e-05 3.89762099e-05
      3.66630193e-05 3.09163406e-05 2.95653717e-05 3.44739128e-05
      1.45488848e-05 1.24957342e-05 5.36263497e-06 1.46098791e-05
      1.91086619e-05 2.09591908e-05 7.29363956e-06 1.21113499e-06
      -1.10981437e-05 -3.68239313e-07 2.83244826e-05 2.74518934e-05
      6.04252000e-06 -4.05809760e-06 -2.11817187e-05 -1.98598664e-05
      -2.94857614e-06 -1.86286320e-06 1.17680438e-05 -2.73263709e-06
      3.89208835e-05 2.22762319e-05 2.10200178e-05 7.36059565e-06
      4.95698259e-06 9.37939603e-06 2.07051689e-05 2.00133491e-05
      2.49790864e-05 3.29095092e-05 3.42680214e-05 3.03604502e-05
      3.29022187e-05 2.43751638e-05 2.11480256e-05 1.49336402e-05
      9.30882743e-06 1.50633177e-05 1.18754515e-05 -7.96027143e-06
      -6.31220519e-06 -5.73808052e-07 3.86559623e-06 7.76436718e-06
      4.68622238e-06 9.74326304e-06 7.08802145e-06 1.08099548e-05
      4.43556974e-06 -3.04201251e-07 1.93092751e-06 6.34592766e-07
      -1.08830163e-05 -1.30042290e-05 -1.52746634e-05 -1.06929001e-05
      -1.83329139e-05 -1.95768771e-05 -9.34978743e-06 -5.01365048e-06
      -9.96990093e-06 -1.06817390e-06 -4.72831152e-06 -1.44991764e-05
      -4.47677121e-06 -3.24731286e-06 3.41306986e-06 2.09409359e-06
      -2.95824429e-06 -1.02697377e-05 -9.39434358e-06 -9.21267383e-06
      -2.00542581e-06 6.85405848e-06 3.11067356e-06 1.27879175e-05
      3.09920620e-06 -1.33780140e-05 -3.43373608e-06 -2.84102725e-06
      -5.05294338e-06 9.88972147e-07 1.64758899e-06 2.12220516e-06
      -1.59804733e-06 1.49410118e-06 1.26747382e-05 6.44309421e-06
      1.30697981e-05 -2.24467367e-05 -1.53638593e-05 -1.03611892e-05
      -3.23932863e-06 5.82422354e-06 3.26749869e-05 3.01151722e-05
      2.59762764e-05 2.48772631e-05 2.03402760e-05 2.49032983e-05
      2.75099337e-05 -1.82500571e-06 -1.62497781e-05 7.37337723e-06
      5.31305932e-06 -3.13878127e-06 -1.21878338e-05 -1.88405174e-05
      -6.33907530e-06 1.25615106e-05 2.56525436e-05 2.07458743e-05
      6.38405163e-06 1.95105386e-05 1.06712050e-05 8.60862201e-06
      2.10537710e-05 1.21902212e-05 5.81408585e-06 -6.42355599e-06
      4.80409253e-05 3.29584291e-05 2.63210859e-05 1.06172165e-05
      1.27830644e-05 1.45952399e-05 1.84518340e-05 2.00297036e-05
      1.94261374e-05 2.88152623e-05 3.32342825e-05 3.54691438e-05
      3.24486646e-05 2.71368808e-05 2.11140032e-05 2.63185120e-05
      1.83560387e-05 1.82260101e-05 1.64585399e-05 -1.39792985e-06
      -6.51045912e-06 1.00349434e-05 3.66762765e-06 1.34561396e-05
      1.14579843e-05 1.45049398e-05 1.31190072e-05 1.73616190e-05
      -1.76989806e-06 3.66299304e-07 1.14595014e-05 1.05185918e-05
      5.08642142e-06 -7.15958379e-07 -5.91166918e-06 -7.50131994e-06
      -8.32762817e-06 -3.27325529e-06 -7.02830539e-06 -9.52613664e-06
      -1.75796686e-05 -5.89539377e-06 -2.86290538e-06 -1.09368093e-05
      -6.53119605e-06 -5.98186125e-06 -6.44508327e-06 -8.60687123e-06
      -1.19840852e-05 -1.41515229e-05 -1.28845404e-05 -1.43816542e-05
      -2.21311348e-06 -7.14736132e-07 5.20892127e-06 1.24769776e-05
      1.75936548e-05 1.18086987e-07 -9.14075542e-07 2.03169361e-06
      -1.38846519e-06 -1.63208745e-06 6.01667443e-06 5.45893045e-06
      3.51827975e-06 1.03890861e-05 1.31756788e-05 5.18236220e-06
      4.33190735e-06 -1.64778212e-05 -1.42777444e-05 1.37145037e-06
      3.41022997e-06 8.28117390e-06 2.30321275e-05 1.75535824e-05
      1.31376364e-05 9.48623892e-06 6.14744522e-06 1.12331882e-05
      2.08267666e-05 -4.31664876e-06 -2.14260963e-05 -3.80132042e-06
      1.16334622e-05 1.73109838e-05 9.91057641e-06 -5.74085425e-06
      -3.80780443e-06 1.11167446e-05 1.75139048e-05 1.40037137e-05
      -7.43509736e-06 -5.61217757e-06 5.82120447e-06 1.33466456e-05
      3.66917120e-05 3.42461208e-05 2.28166864e-05 -3.04854416e-06
      5.24701427e-05 3.05446374e-05 3.15184043e-05 2.48731594e-05
      2.42073966e-05 1.85409735e-05 2.57300908e-05 1.64268895e-05
      8.13292354e-06 1.79530434e-05 1.73165499e-05 1.84757391e-05
      1.70327166e-05 2.11585429e-05 1.25781435e-05 1.87923888e-05
      1.97043337e-05 1.70733765e-05 1.67892413e-05 -2.02407864e-06
      1.11218299e-06 1.05998452e-05 1.12142643e-05 1.29565233e-05
      3.46793945e-06 8.88403883e-06 3.90022888e-06 9.32229341e-06
      1.38281284e-05 1.07855085e-05 9.53284143e-06 1.53360870e-05
      1.79556832e-06 3.17377248e-06 1.51988206e-05 2.28480872e-06
      -5.63970571e-06 -9.95615028e-06 -1.30445887e-05 -1.01147325e-05
      -1.55851340e-05 -1.66073405e-05 -1.11744193e-05 -1.15374996e-05
      -1.29086466e-05 -1.48367953e-05 -1.64087305e-05 -1.41429518e-05
      -1.53592719e-05 -1.63403711e-05 -5.86072247e-06 -4.15318937e-06
      -9.23846358e-07 -4.91208402e-06 1.16161682e-05 1.50778651e-05
      1.73018234e-05 5.04109858e-06 -1.40957911e-06 3.33114713e-06
      2.25001543e-07 9.63519415e-06 1.54515101e-06 1.12969701e-05
      -9.29422015e-07 7.42469183e-06 2.35997995e-05 7.01522231e-06
      1.00640455e-05 -4.68368444e-06 -9.98045925e-06 -4.12229110e-06
      2.85263411e-07 8.11347218e-06 6.58962381e-06 4.72062402e-06
      -3.92908396e-06 -2.11374049e-06 4.26177667e-06 2.52066206e-06
      1.38077276e-05 9.57307839e-06 -1.15679723e-05 -1.04701667e-05
      6.00303929e-06 7.90714694e-06 7.59660361e-06 -1.19209858e-06
      -7.51686321e-06 6.40210192e-06 1.57678733e-05 1.42818481e-05
      2.69993689e-06 -9.73393344e-06 -1.46632983e-05 -1.93250326e-05
      2.25334566e-06 1.50711157e-05 1.44784199e-05 5.22556729e-06
      4.70966042e-05 4.45001751e-05 5.25787327e-05 3.25446090e-05
      2.80363056e-05 2.69552129e-05 2.30659261e-05 1.99742062e-05
      2.33778087e-06 5.55473616e-06 1.29218370e-05 1.07803917e-05
      1.10236515e-05 9.95589380e-06 8.76437662e-06 1.07826381e-05
      1.33850190e-05 1.62489068e-05 1.67375711e-05 3.41893633e-06
      -1.24481414e-06 6.33929460e-07 1.21230996e-05 1.35042019e-05
      1.65725032e-06 -4.08568940e-06 8.36029358e-06 1.05389145e-05
      1.26098066e-05 9.86161194e-06 5.67996585e-06 1.72518162e-06
      -2.61695754e-06 1.01385872e-07 6.05906234e-06 8.83533085e-06
      -1.11145312e-06 -5.06454944e-06 -4.50443258e-06 -2.76646119e-06
      -8.74588022e-06 -6.38384017e-06 1.68401471e-06 -1.12451662e-05
      -9.92433615e-06 -1.54348618e-05 -3.93429173e-06 5.90209481e-07
      -1.67710532e-05 -9.68842141e-06 -5.82982966e-06 -1.18072503e-05
      -9.96532799e-06 -6.29008491e-06 2.69618977e-06 5.48973367e-06
      3.64997391e-06 -3.19747369e-06 -1.50140540e-05 -7.15795477e-06
      -1.50530832e-06 6.15788213e-06 1.18292892e-05 5.81612426e-07
      6.11320093e-06 8.44500755e-06 2.30270925e-05 2.33012925e-05
      1.75379009e-05 -1.59006322e-05 -2.06267796e-05 3.27079874e-06
      1.36353738e-05 1.36814124e-05 4.90101411e-06 -5.66714925e-06
      -7.51149037e-06 -3.61049410e-06 -2.76858827e-07 1.35546065e-06
      3.21246716e-06 1.06939378e-05 -8.07655738e-07 -7.48500997e-06
      -1.22038855e-05 -1.05816471e-05 -7.15284477e-06 -8.06316802e-06
      -7.81582276e-06 1.19280890e-06 4.70830997e-07 -4.23584993e-07
      -1.11451482e-05 -1.30037288e-05 4.91104970e-07 -3.92661150e-06
      2.99524891e-06 -6.68769462e-06 -1.05315739e-05 -7.78396679e-06
      4.65602097e-05 3.68195360e-05 4.98494082e-05 3.19413011e-05
      2.43316426e-05 3.19750798e-05 2.58996715e-05 2.61610585e-05
      1.55586549e-05 9.59501176e-06 5.14227850e-06 2.16877515e-06
      9.46333876e-06 7.84478107e-06 1.74669403e-05 3.18979874e-05
      2.22345134e-05 3.38586287e-05 2.49722307e-05 1.38864671e-05
      1.54042282e-05 1.91769286e-05 1.68023871e-05 1.28369547e-05
      1.54282388e-05 9.38417634e-06 1.06233992e-05 9.75958392e-06
      1.32564583e-05 1.18417838e-05 2.19263802e-05 1.54956288e-05
      2.29905945e-05 1.49527468e-05 1.42886893e-05 5.68517771e-06
      -5.83782185e-06 -2.24010432e-06 -5.39903249e-06 -8.43167800e-06
      -3.96468613e-06 -2.29665056e-06 -1.08520389e-05 -1.25300157e-05
      -1.07079741e-05 -9.82315032e-06 -1.10642384e-06 5.78688514e-06
      -2.88515116e-06 -1.97158101e-06 -4.46508966e-06 -1.36615627e-05
      -8.07474953e-06 -1.00544612e-05 -8.13883980e-06 -7.17189050e-06
      -2.77540812e-06 6.62161074e-06 -1.82156725e-06 -7.92805622e-06
      -6.98563463e-06 -8.33770991e-06 -1.07375087e-08 -2.88202523e-06
      1.04757455e-05 5.20602134e-06 1.65799574e-05 1.21017174e-05
      1.12527141e-05 -2.57280444e-05 -3.52637289e-05 -1.17523878e-05
      -3.85058729e-06 -5.16107036e-07 -4.85164037e-06 6.39380630e-07
      -1.18651324e-05 -8.92195885e-07 1.40882794e-05 7.36087895e-06
      3.83672705e-06 9.91069464e-06 6.96661937e-06 -3.15221564e-06
      -5.81591576e-06 -1.21957164e-05 -6.74675584e-06 -3.61549610e-07
      1.71036172e-05 1.96934907e-05 1.60970794e-05 1.17246395e-06
      -1.71507745e-05 -2.76283008e-05 -2.25629537e-05 -1.01036767e-05
      1.09292969e-05 6.90882825e-06 7.60014882e-06 2.15987575e-06
      4.33847381e-05 3.90450696e-05 4.78083748e-05 4.23878664e-05
      2.35466778e-05 3.45758308e-05 2.98471441e-05 2.65504368e-05
      2.27672790e-05 2.04677926e-05 2.05482738e-05 1.66140708e-05
      1.74927955e-05 2.18796340e-05 2.66361330e-05 3.26574445e-05
      1.76993271e-05 2.49715977e-05 2.81340872e-05 2.17919023e-05
      2.59133540e-05 3.16338082e-05 2.69001612e-05 2.25276635e-05
      2.33782976e-05 1.67184153e-05 1.84587061e-05 1.76820740e-05
      2.40800618e-05 2.49372260e-05 2.09695918e-05 1.86315629e-05
      3.05226531e-05 1.33749427e-05 5.36070820e-06 4.89331705e-06
      -1.39756412e-06 1.53791484e-06 -4.45676051e-06 -2.70081296e-06
      -4.80101517e-06 -4.33817013e-06 -1.62747128e-05 -1.72069376e-05
      -1.13419519e-05 -6.50876109e-06 -1.60349416e-07 -2.04378443e-06
      -2.35276775e-06 -6.40034727e-07 -7.14037469e-06 -9.47667559e-06
      -1.05712625e-05 -8.91111176e-06 -6.95435165e-06 -7.56726104e-06
      4.55363988e-06 6.02411546e-06 -2.09290829e-06 -4.47323464e-06
      9.62184004e-07 -1.10380324e-05 -8.45830255e-06 1.24855262e-06
      8.76781996e-06 2.26662974e-06 -3.37056304e-06 4.16973262e-06
      -1.38619689e-05 -2.83888003e-05 -4.16806033e-05 -3.09946663e-05
      -2.61095993e-05 -1.64008197e-05 -1.59262108e-05 -1.48479312e-05
      -1.14685272e-05 -1.88955892e-06 1.24196549e-05 1.33857584e-05
      1.48942190e-05 1.93561846e-05 1.33628200e-05 2.14311217e-06
      -9.00464215e-07 -9.94802576e-06 -1.24002636e-05 6.05488481e-07
      2.87545981e-06 -1.23800578e-06 5.43914848e-06 7.92243736e-06
      -2.85263354e-07 -2.43186169e-05 -2.75373059e-05 -3.66373824e-05
      -2.09936461e-05 -2.12562918e-05 -1.06532098e-05 -1.05353149e-06
      3.69904956e-05 3.02247790e-05 4.00655517e-05 3.97625045e-05
      3.50842820e-05 2.73772312e-05 2.24240357e-05 2.23496772e-05
      2.39930305e-05 2.23906391e-05 2.81100602e-05 2.04597345e-05
      2.60157394e-05 2.95594527e-05 2.64256832e-05 2.66584266e-05
      1.95710491e-05 3.55598349e-05 2.62911744e-05 2.96535745e-05
      2.73355472e-05 2.99746625e-05 4.17590054e-05 3.65980013e-05
      3.34669785e-05 3.12472184e-05 2.84366379e-05 2.77807576e-05
      3.06522161e-05 2.67200885e-05 1.43334973e-05 1.82953263e-05
      2.03433065e-05 1.33004432e-05 6.69981046e-06 7.04550575e-06
      -8.64969479e-06 -9.71485406e-06 -1.48052022e-05 -7.01257386e-06
      -3.27634780e-06 6.54907944e-06 -2.39467226e-06 -1.13716987e-05
      -7.44471072e-06 -3.06065499e-06 1.51527206e-06 2.81132714e-07
      -1.05172126e-06 -2.83637610e-06 1.46284474e-05 1.43494299e-06
      4.32453362e-07 -1.24613834e-05 1.21748405e-06 -6.16098441e-06
      5.64432924e-07 3.22076676e-06 -5.48461276e-06 -7.69960025e-06
      2.05458400e-06 -3.02283161e-06 -5.93016057e-06 3.52031520e-07
      -3.41150439e-06 -9.36597553e-06 -1.25861225e-05 1.08011352e-06
      -6.56525208e-06 -2.21516038e-05 -3.30039948e-05 -2.82889832e-05
      -2.40768550e-05 -3.12081611e-05 -2.42457190e-05 -2.37696368e-05
      -2.10332946e-05 1.96093629e-06 1.19728456e-05 -4.64198229e-06
      -6.18772174e-06 -2.16374974e-06 8.31013949e-06 6.96545112e-06
      6.95863855e-06 -1.94357085e-06 -3.31845922e-06 -5.73106627e-06
      -6.48060632e-06 -1.63911300e-05 -2.37603836e-05 -1.12947100e-05
      -1.15117173e-05 -2.02437132e-05 -1.50231499e-05 -1.89235907e-05
      -2.20742331e-05 -3.32661039e-05 -1.87585647e-05 -1.83784578e-05
      4.09561253e-05 2.41851121e-05 3.14826611e-05 3.39347425e-05
      3.91666872e-05 3.76850403e-05 2.30208861e-05 2.42429578e-05
      2.24979776e-05 2.53136186e-05 2.84157923e-05 1.48879562e-05
      1.53041019e-05 2.63484853e-05 2.06406876e-05 1.02990680e-05
      1.69944306e-05 1.20853747e-05 2.31226095e-05 1.90939518e-05
      2.96981761e-05 3.11149997e-05 3.01954115e-05 3.65803280e-05
      2.52804966e-05 2.24947034e-05 1.16049887e-05 1.36873787e-05
      1.42551098e-05 1.49416946e-05 1.04565906e-05 1.51182189e-06
      7.24339588e-06 1.37780007e-05 7.29100066e-06 -6.57276678e-06
      -6.40110738e-06 -5.27608609e-06 -1.28985039e-05 -4.08333381e-06
      2.11601787e-06 1.71824468e-06 1.27135818e-05 8.30942463e-06
      8.41662950e-06 8.44197871e-07 4.31210947e-06 -2.81061921e-06
      -2.18095865e-05 -1.55941780e-05 -1.72167602e-05 -1.48264926e-05
      -1.55862072e-05 -9.58911733e-06 -9.95301070e-06 -5.86429587e-06
      -1.74274810e-05 -1.53127803e-05 -5.91400931e-06 -9.47625358e-06
      -9.88272495e-06 -1.81583819e-05 -2.32015645e-05 -1.19401727e-06
      -3.69225418e-05 -3.24567336e-05 -2.91891556e-05 -3.15157777e-05
      -2.80285276e-05 -3.15570214e-05 -3.94805065e-05 -3.82705257e-05
      -3.65033738e-05 -4.35355978e-05 -4.27443192e-05 -3.85314415e-05
      -4.08312699e-05 -1.67093513e-05 -2.23107759e-06 -2.08844995e-06
      -1.52970515e-05 -2.18040077e-05 -1.42865201e-05 -4.52321228e-06
      4.39727364e-06 3.03403863e-06 1.10950905e-05 6.26565225e-06
      5.98883571e-06 -3.39810953e-07 -1.09704151e-05 -1.41281362e-05
      -1.39081949e-05 -1.89694074e-05 -2.75731727e-05 -1.59452302e-05
      -1.90881656e-05 -2.27881392e-05 -2.04796052e-05 -2.31874565e-05
      3.43587526e-05 9.93650883e-06 1.97779882e-05 3.86808897e-05
      3.89482848e-05 2.88301399e-05 1.55356029e-05 1.36674162e-05
      1.42929184e-05 1.80089519e-05 2.20160637e-05 1.19774904e-05
      7.39702227e-06 1.50656288e-05 2.21573991e-05 1.93315118e-05
      1.66994178e-05 1.21236753e-05 1.95198299e-05 1.83454649e-05
      3.48525209e-05 1.29833352e-05 8.30541649e-06 2.37662462e-05
      1.57613485e-05 9.23251901e-06 4.42083456e-06 8.49618846e-06
      -1.31142758e-06 -3.72908431e-07 6.24943232e-06 1.03516186e-06
      1.10831397e-05 1.49590478e-05 1.16211922e-05 -2.91574861e-06
      -1.33806236e-06 1.19883380e-05 -5.03027741e-06 -2.24449286e-06
      2.80423546e-06 -2.83321333e-06 6.35565630e-06 1.02361321e-06
      -5.82466782e-06 -4.84832117e-06 -2.34767890e-06 -1.05523850e-05
      -2.58612599e-05 -2.42948518e-05 -4.15316863e-05 -2.23539009e-05
      -2.57528700e-05 -1.91013060e-05 -1.43759016e-05 -2.49416134e-05
      -3.31338997e-05 -2.22843664e-05 -1.44286623e-05 -1.15194480e-05
      -8.48893978e-06 7.10219297e-07 -2.13928870e-05 -1.36316039e-05
      -4.25486542e-05 -3.20593826e-05 -6.11462747e-06 -1.56901842e-05
      -2.50812755e-05 -3.27124544e-05 -3.71256356e-05 -3.72563227e-05
      -3.23193090e-05 -3.11212716e-05 -2.71196241e-05 -2.16752651e-05
      -1.65961683e-05 -9.61662317e-06 -1.09898356e-05 -1.75190053e-05
      -3.31624215e-05 -3.06379588e-05 -2.91017277e-05 -2.39331057e-05
      -2.72196667e-05 -1.23179307e-05 -5.26553185e-06 -1.49395123e-06
      1.12430807e-05 6.77046182e-06 -7.71007763e-07 1.84509162e-07
      7.22374580e-07 -2.20571201e-06 -1.83143457e-05 -2.69453103e-05
      -2.82966121e-05 -1.72476175e-05 -2.16230983e-05 -2.30448131e-05
      2.85615424e-05 3.49063748e-06 3.00421607e-06 1.41798364e-05
      1.31604911e-05 1.61404296e-05 2.45262368e-06 3.39298595e-06
      9.11511961e-06 2.44306975e-05 1.92410189e-05 2.64375012e-05
      2.85225378e-05 1.83492666e-05 3.04386795e-05 2.65443032e-05
      2.34607196e-05 3.05496724e-05 2.65691979e-05 1.63608456e-05
      2.31946324e-05 2.85967258e-06 4.60961644e-07 5.54446660e-06
      -1.04434866e-06 1.13279441e-06 -6.69473593e-06 -8.29477813e-06
      -1.63128952e-05 -1.17410655e-05 -1.17229683e-05 5.53245809e-06
      -1.25916004e-05 -1.06347470e-05 -5.59864930e-06 -7.18419324e-06
      6.68987559e-06 9.12539235e-06 8.05155742e-06 -4.82933592e-06
      -1.02301301e-05 -6.22409289e-06 2.45120214e-06 7.62923219e-06
      6.66062124e-06 7.36531274e-06 1.13354226e-05 4.54721385e-06
      2.09170139e-06 6.68304938e-06 4.72818920e-06 -8.28087013e-06
      -4.24602740e-06 -5.41193003e-06 -2.17272799e-07 -8.24953531e-06
      -1.32454807e-05 -7.56106920e-06 -1.12153941e-06 2.21893811e-06
      3.38931773e-06 3.49813348e-07 -1.35783284e-05 -7.92350602e-06
      -1.11761756e-05 -1.04005608e-06 1.31426659e-05 5.49193146e-06
      3.74744741e-06 -8.69067208e-06 -1.82857384e-05 -1.38689766e-05
      -1.01798350e-05 -4.27254099e-06 -6.17104797e-06 -6.81146548e-06
      -6.36042432e-06 -1.24124790e-06 -5.05908520e-06 -6.34765684e-06
      -1.74395391e-05 -3.28804563e-05 -3.56430683e-05 -3.22808810e-05
      -2.10304406e-05 -1.60981454e-05 -1.78742666e-05 -1.50338064e-05
      -7.28332770e-06 -9.92809873e-06 -9.31110037e-07 1.65181100e-05
      2.55438918e-05 2.64069240e-05 5.08560333e-06 -1.22704514e-05
      -1.79076796e-05 -1.61558219e-05 -2.72313628e-05 -2.59743501e-05
      2.97165461e-05 1.67035626e-06 1.65339304e-06 -8.02056093e-06
      -8.51210643e-06 3.26360509e-06 9.69756638e-06 1.54653280e-05
      1.73025965e-05 1.62926717e-05 1.91631389e-05 2.59358021e-05
      1.66567297e-05 1.13817168e-05 1.99232127e-05 2.16402696e-05
      1.37549114e-05 1.29867412e-05 2.40362024e-05 1.36519611e-05
      1.71694483e-05 -3.69139372e-07 -3.88017526e-07 -1.04982000e-05
      -1.50739306e-05 -1.88762315e-05 -2.00481099e-05 -1.91100717e-05
      -1.57103641e-05 -5.72177350e-06 -1.29441751e-05 -5.86865235e-06
      -1.20479153e-05 -8.07045762e-06 -6.92563799e-06 -1.30713106e-05
      1.00232191e-05 1.31302522e-05 9.43535724e-06 -4.41977227e-06
      8.64216872e-06 1.80749594e-05 2.40328172e-05 1.29568625e-05
      6.14575947e-06 7.66776429e-06 1.55763137e-05 2.06564073e-05
      1.96308283e-05 1.80184143e-05 1.83392967e-05 7.47804324e-06
      1.07006099e-05 8.32999376e-06 2.07846588e-05 2.37517324e-05
      1.11125419e-05 8.37531479e-06 -1.93900428e-06 2.82095539e-06
      8.17004562e-08 -3.60801573e-06 3.57894783e-06 -4.41597393e-07
      -1.15959620e-05 3.16649152e-06 8.41846628e-08 2.69059819e-06
      -3.35424693e-06 -1.35768087e-05 -2.00678787e-05 -1.25286715e-05
      -9.06116111e-06 -1.96709902e-06 -1.26840962e-06 -8.42010013e-06
      -1.34357615e-05 -1.07007745e-05 -6.11419318e-06 -7.62998661e-06
      -9.56434451e-06 -1.35363334e-05 -1.24194939e-05 -1.48687323e-05
      -1.60044965e-05 -2.12784053e-05 -1.76454014e-05 -5.45948933e-06
      -4.39569294e-06 -1.09981174e-05 -1.15477842e-05 -2.12299778e-06
      1.67069938e-05 1.20437853e-05 8.72469991e-06 8.40626399e-07
      4.33520563e-06 3.65269045e-07 -1.55116177e-05 -2.02072697e-05
      2.25718159e-05 -1.64007251e-05 -7.25075097e-06 2.41196915e-07
      2.16262015e-06 8.05312357e-06 1.01345795e-05 5.53177233e-06
      1.58775474e-05 5.34807668e-06 8.53022175e-06 1.33735421e-05
      9.85942461e-06 2.02876595e-06 2.75540447e-06 7.12866859e-06
      4.32558318e-06 9.13460735e-06 1.73982844e-05 1.79389081e-05
      1.84090459e-05 1.09649327e-05 3.96233008e-06 5.94402991e-06
      -1.00716816e-05 -6.22231209e-06 -5.24166262e-06 -1.97960208e-06
      -7.72618569e-06 -5.86121314e-06 -1.82928397e-05 -1.22333959e-05
      -7.76492743e-06 8.63784226e-06 5.88660214e-06 -7.21621291e-06
      -1.05526306e-06 1.63839934e-06 -1.88707395e-06 1.52851032e-06
      1.56713650e-05 2.16511780e-05 2.79405631e-05 1.71477113e-05
      8.06207481e-06 2.05029596e-06 3.28572423e-06 2.16127628e-05
      2.11493261e-05 2.02535721e-05 1.66520786e-05 1.18015541e-05
      1.72827986e-05 2.00619525e-05 2.65895087e-05 2.78037787e-05
      2.31208760e-05 1.74910019e-05 3.68006067e-06 -8.83362554e-06
      -1.69467676e-05 -1.81378873e-05 -1.53436122e-05 -1.63722598e-05
      -2.39221627e-05 -1.33929225e-05 2.74368631e-06 -2.82112921e-07
      -1.01368796e-05 -2.29239158e-05 -3.30609982e-05 -2.48391952e-05
      -1.62714132e-05 -5.67237112e-06 2.02479418e-06 -6.51251048e-06
      -1.14523145e-05 -1.78269747e-05 -2.11378392e-05 -1.58312705e-05
      -1.57919494e-05 -1.65057354e-05 -1.23263835e-05 -1.69316991e-05
      -1.82672302e-05 -1.80885181e-05 -2.15259679e-05 -1.24293565e-05
      -6.17229807e-06 -1.48471763e-05 -4.08920823e-06 -1.83723046e-06
      -4.26807901e-06 4.89983358e-06 8.21699450e-06 6.10401503e-06
      4.90184493e-06 6.44395732e-06 1.42965703e-07 9.53104063e-06
      2.55646119e-05 2.77918389e-06 1.38395171e-05 1.54692425e-05
      5.54886037e-06 4.88036630e-06 7.12024712e-06 7.01363524e-06
      1.26000887e-05 -3.87861337e-06 -5.25765836e-06 4.39387986e-06
      1.01498454e-05 1.50785891e-05 1.25597589e-05 3.21407788e-05
      2.06530385e-05 1.96473447e-05 2.27044075e-05 2.12438972e-05
      1.42884965e-05 6.78526430e-06 -1.81853875e-06 -1.61328830e-06
      -9.31511659e-06 -1.37513655e-06 -5.44005979e-06 -1.66025970e-07
      -2.59736862e-06 -7.58718215e-06 -7.41749864e-06 -1.00398456e-05
      1.60612126e-05 2.46916534e-05 1.92118496e-05 3.92315405e-06
      -1.74776460e-06 -2.97803808e-06 -4.36918981e-06 -1.04078754e-05
      1.10698738e-05 1.84080000e-05 2.34599302e-05 6.38634128e-06
      -2.34305435e-06 -2.82946348e-06 -2.07212565e-06 9.75151033e-06
      1.94887289e-05 2.01069579e-05 1.93752112e-05 2.05286724e-05
      1.51037493e-05 1.60677973e-05 1.85648114e-05 1.79217077e-05
      2.33236333e-05 2.56665680e-05 1.60624440e-05 -8.10110123e-06
      -1.64914964e-05 -1.86305206e-05 -1.77863330e-05 -1.91485597e-05
      -2.34373038e-05 -9.33936826e-06 1.69862471e-06 -6.62768207e-06
      -1.52722259e-05 -2.49672230e-05 -2.94199672e-05 -3.35238037e-05
      -2.76963019e-05 -1.75062250e-05 -1.47128012e-05 -1.05846821e-05
      -1.58454677e-05 -1.81687010e-05 -1.84327582e-05 -2.23789684e-05
      -2.57468437e-05 -2.52859954e-05 -2.37390523e-05 -2.36740052e-05
      -2.02118845e-05 -1.47008659e-05 -1.24302424e-05 2.61615673e-06
      -8.00554426e-06 -2.01358598e-05 -2.08571346e-05 -6.63184619e-06
      -8.24795188e-06 -1.26363075e-05 -7.12149131e-06 7.56002464e-06
      3.15592587e-07 -4.21051482e-06 -8.12720737e-06 9.08909078e-06
      3.50625560e-05 1.68700499e-05 1.85612826e-05 1.12084672e-05
      1.43678892e-06 -1.70166584e-06 -5.08321000e-06 -7.61808451e-06
      6.95470635e-06 1.33724507e-05 7.45412581e-06 9.85739280e-06
      2.30463793e-05 2.56175317e-05 2.75673956e-05 2.96174494e-05
      9.97545067e-06 2.34961390e-05 1.78666960e-05 1.60840264e-05
      1.15354510e-06 -3.30979697e-06 -8.58952990e-06 7.09274582e-06
      -7.78136837e-07 -7.44700264e-06 -9.00080613e-06 5.81399763e-06
      -1.44036335e-06 -4.87165380e-06 -4.44931038e-06 -9.02718057e-07
      1.60914897e-05 2.63164638e-05 1.63329114e-05 -4.09066251e-06
      -3.03486490e-06 -2.73521414e-06 -5.18212801e-06 -1.30801220e-06
      2.73042788e-05 2.43065369e-05 2.37549939e-05 1.16731571e-05
      6.87705597e-06 3.06853713e-06 4.29474494e-06 6.34460139e-06
      1.27037001e-05 9.49935838e-06 2.06851855e-05 2.67635460e-05
      2.11183960e-05 1.38735904e-05 1.92158623e-05 1.42011513e-05
      1.97937406e-05 2.05274791e-05 2.02325718e-05 1.74748820e-05
      1.16788360e-05 -3.02815010e-06 -2.16298486e-06 -1.86273655e-06
      -5.68276982e-06 -8.43628277e-06 7.16032218e-06 2.84538288e-07
      -4.76021569e-06 -1.21133762e-05 -5.00110991e-06 -1.99100687e-05
      -2.51226684e-05 -2.95815062e-05 -2.93381836e-05 -1.70429339e-05
      -1.89677503e-05 -1.72496020e-05 -1.52241901e-05 -1.95098855e-05
      -2.34916879e-05 -1.94619261e-05 -1.09890279e-05 -1.41437758e-05
      -2.31219001e-05 -2.06596415e-05 -3.04804526e-05 -2.19455633e-05
      -1.47283954e-05 -1.01611531e-05 -3.36136782e-06 2.74032391e-06
      5.28156761e-06 -5.11574808e-06 -6.51525079e-06 -8.62846173e-06
      -1.64341436e-05 -8.00492489e-06 8.57248267e-07 -2.65340567e-08
      3.45881672e-05 1.62287433e-05 5.16664113e-06 3.10541964e-06
      -2.37872405e-06 -4.40110898e-06 1.04253172e-06 6.08085566e-06
      1.93542255e-05 2.20876645e-05 1.08768827e-05 1.38101350e-05
      1.70258227e-05 2.09671798e-05 2.04572716e-05 2.16341905e-05
      1.44000305e-05 1.42072477e-05 2.22520830e-05 1.09415678e-05
      8.36823529e-06 1.24638200e-05 -2.28334488e-06 4.19211119e-06
      -2.15090313e-06 -1.32571449e-05 2.39023166e-07 -3.63285199e-06
      3.35465006e-06 5.11015196e-06 -1.43706268e-06 -2.23609322e-06
      9.96680228e-06 2.03869440e-05 1.37281768e-05 -6.98805434e-06
      -1.11264635e-05 -1.18525322e-05 4.05111768e-06 9.56383155e-06
      2.26228658e-05 1.50303085e-05 2.46914860e-05 2.10221533e-05
      1.62775123e-05 1.02895174e-05 1.24330645e-05 1.15391522e-05
      9.08200855e-06 7.15980377e-06 1.88096546e-05 2.84702546e-05
      2.39007677e-05 1.65419151e-05 1.31832549e-05 2.39637830e-05
      2.63341935e-05 2.85177684e-05 2.56810235e-05 2.73479018e-05
      2.52374921e-05 6.79681625e-06 8.33141200e-07 3.98270868e-06
      -2.79767642e-06 -1.10552592e-05 4.89011654e-06 1.28095417e-06
      -2.76946139e-06 -6.81451820e-06 8.91288437e-06 5.46307911e-06
      -1.25611805e-05 -2.38238063e-05 -1.65564779e-05 -2.10655508e-05
      -1.33510293e-05 -1.75246278e-05 -1.17075851e-05 -1.12149555e-05
      -1.35179671e-05 -8.05150103e-06 -1.39853546e-06 -5.82067241e-06
      -1.25186598e-05 -1.62124761e-05 -1.44197757e-05 -5.04657282e-06
      -1.52673765e-05 -1.77688307e-05 -2.99932935e-06 1.37374718e-05
      9.92958303e-06 8.43487487e-06 1.43555171e-05 1.11536781e-06
      -1.64374105e-05 -2.87528947e-05 -2.14272350e-05 1.61279456e-06
      3.68348992e-05 5.77653191e-06 -4.05751553e-06 3.98125258e-06
      -3.36069252e-06 2.79319693e-06 1.42317313e-05 2.83680693e-05
      1.13461429e-05 1.48378258e-05 9.01604380e-06 1.41992232e-05
      8.56510360e-06 4.01508578e-06 6.85911527e-06 1.54896861e-05
      3.59735850e-06 1.05786166e-05 1.58801668e-05 1.11274012e-05
      1.00186771e-05 1.44497408e-05 1.48948220e-05 1.35874161e-05
      5.81879112e-06 -1.19572078e-05 -4.93397738e-06 -1.05507197e-05
      -7.63900152e-06 -7.46029900e-06 2.08676011e-06 5.45889679e-06
      1.13059252e-06 1.18431435e-05 3.40819133e-06 -9.33545743e-06
      -1.54937534e-05 -1.95135071e-05 -3.47398827e-06 1.00426914e-05
      1.70301846e-05 5.55718429e-07 3.39021335e-06 1.33326530e-05
      9.88790634e-06 1.45205213e-05 1.90194551e-05 1.37252109e-05
      1.60953841e-05 1.73778280e-05 2.08478923e-05 1.94186232e-05
      2.02355732e-05 2.83079862e-05 2.70822475e-05 2.65312501e-05
      2.45478659e-05 1.95054708e-05 2.07009598e-05 3.66232925e-05
      3.32449563e-05 1.89137645e-05 1.78702430e-05 1.67383569e-05
      1.61391308e-05 1.66018435e-05 1.37151492e-05 2.18717269e-05
      1.38337455e-05 1.12896180e-06 -9.69476218e-07 1.56182141e-05
      -4.53124585e-06 -9.14523116e-06 6.23319238e-07 -3.03546949e-06
      1.27668291e-05 2.82520477e-06 -3.60886156e-06 -4.87589386e-06
      -1.54462650e-05 -7.51976722e-06 -2.11045131e-06 -2.66381630e-06
      -4.17751835e-06 -8.03793409e-06 -8.52265475e-06 3.92663708e-07
      1.30598037e-05 -1.62924312e-06 8.50819470e-06 2.01555358e-05
      1.67342878e-05 2.38783596e-05 2.43769773e-05 2.10682447e-06
      -1.03088714e-05 -1.54046829e-05 -2.18799305e-05 1.70167823e-05
      3.13060664e-05 -1.82615543e-06 1.73895705e-06 8.84131532e-06
      8.76878858e-06 8.77078401e-06 1.45754530e-05 2.77638865e-05
      1.15997273e-06 1.02990953e-05 7.53588165e-06 1.51961217e-06
      6.16300258e-06 6.11161613e-06 7.26655935e-06 1.10355841e-05
      7.25731979e-06 1.53589317e-05 1.43921070e-05 1.42644567e-05
      1.49027237e-05 1.89075206e-06 8.60789714e-06 4.19839307e-06
      -1.48390484e-06 -1.72733216e-05 -2.39067031e-05 -1.32469831e-05
      -2.30390424e-06 -3.23590939e-06 6.28577709e-06 1.26488731e-05
      9.33793035e-06 4.65195353e-06 -4.63596416e-06 -1.01192809e-05
      -1.59575920e-05 -2.35792722e-05 -7.83416453e-06 3.54372287e-06
      8.98442977e-06 2.50340258e-06 -5.79902007e-06 -3.98948305e-06
      8.32092326e-07 9.53410563e-06 1.73009230e-05 1.07816650e-05
      1.52717512e-05 1.36828812e-05 1.50311880e-05 9.87217300e-06
      1.11956178e-05 2.80505519e-05 2.79486940e-05 2.95901191e-06
      6.89855824e-06 1.71225893e-05 1.20747400e-05 2.46726449e-05
      2.61498990e-05 2.47519765e-05 2.69884222e-05 2.69496031e-05
      2.34560484e-05 2.88744377e-05 1.74804354e-05 2.04208536e-05
      4.66189249e-07 -2.66683969e-06 -3.81608743e-06 5.36163998e-06
      6.74852026e-06 6.08688288e-06 9.20190541e-06 -1.98281313e-07
      -3.38095219e-06 -1.66018208e-06 -9.12893847e-06 -1.84158853e-05
      -2.35032076e-05 -1.75519181e-05 -4.52432232e-06 4.76809919e-06
      -6.00578778e-06 -1.14501927e-05 -1.98722919e-05 -1.25260485e-05
      1.35841947e-05 9.27209840e-06 7.53748191e-06 2.22289455e-05
      3.86889733e-05 3.29990435e-05 7.56422924e-06 6.47405523e-06
      -8.70022086e-06 -2.06585173e-05 -1.13780015e-05 3.16521655e-05
      3.57466160e-05 1.35397895e-05 8.90926185e-06 9.75807779e-06
      1.43471434e-05 9.79287506e-06 1.06762172e-05 1.48296767e-05
      9.58849068e-06 -2.85894635e-06 5.72586544e-07 1.22278325e-05
      5.60815079e-06 2.81885218e-06 6.51255959e-06 1.55423550e-05
      7.41583563e-06 1.09459979e-05 2.06316381e-05 1.65075799e-05
      2.05400411e-05 5.53250266e-06 -4.58703835e-06 -6.55046642e-06
      -5.54633743e-06 -1.34950387e-05 -2.22871186e-05 -1.80569241e-05
      -1.22739530e-05 -1.64080975e-05 -8.34432922e-06 5.71182136e-06
      6.26464134e-06 1.09616622e-06 -6.28109092e-06 -1.46202467e-06
      -9.62988543e-06 -6.69720248e-06 1.39638432e-05 1.03151133e-05
      8.28657994e-06 7.20639491e-07 -7.98967085e-06 -3.07268397e-06
      3.08803260e-06 1.22640231e-05 2.73151600e-05 2.33538885e-05
      1.84615383e-05 7.28814894e-06 2.23051102e-05 1.95584726e-05
      1.64347130e-05 3.57842873e-05 2.61884343e-05 9.37841378e-06
      7.46722299e-06 5.08306266e-06 3.48147569e-06 1.32055411e-05
      8.86997987e-06 1.64516641e-05 2.30583737e-05 2.02989013e-05
      1.86327925e-05 1.93463457e-05 1.66823356e-05 1.21161856e-05
      1.08195593e-06 8.85251438e-07 7.12164456e-06 4.28577823e-06
      1.05128652e-06 2.37062704e-06 1.08133545e-05 4.92963636e-06
      -4.01862007e-06 8.60125510e-06 -4.00750014e-06 -1.44479636e-05
      -2.10795661e-05 -2.07976118e-05 -2.19041212e-05 -1.22224656e-05
      -1.30339076e-05 -1.07904889e-05 -8.91701711e-06 -1.10391557e-05
      2.82339585e-07 9.43160831e-06 1.68733059e-05 2.16407880e-05
      4.64426703e-05 3.65504056e-05 2.12072591e-05 2.45269439e-06
      -5.46487718e-06 -2.34375693e-05 -7.77939113e-06 2.19675585e-05
      4.12317604e-05 2.14427946e-05 1.67610524e-05 9.07426875e-06
      -8.66566985e-10 4.70676287e-06 -1.04705450e-05 -6.53402776e-06
      8.28509565e-06 -1.56354281e-06 -9.15597684e-06 -8.99745601e-07
      3.54295935e-06 1.23269283e-05 1.42074823e-05 2.10580365e-05
      1.88359481e-05 7.33493061e-06 -1.56328781e-07 7.55420797e-06
      1.59408683e-05 1.02718614e-05 7.21217702e-06 -1.81384748e-05
      -1.17928703e-05 -1.06298512e-05 -2.12752529e-05 -1.77243619e-05
      -2.01297098e-05 -1.39084914e-05 -8.94988261e-06 -7.15730812e-06
      -1.24047006e-06 4.39590167e-06 -1.31558363e-06 -7.17221474e-06
      -1.45296181e-05 -9.82461279e-06 8.51701679e-06 5.83516203e-06
      1.27997237e-06 -2.24166388e-06 -7.07069194e-06 1.60127240e-06
      8.37781772e-06 1.05102272e-05 2.19205413e-05 2.57883057e-05
      2.25055282e-05 1.50584992e-05 2.13546828e-05 2.30406222e-05
      1.30677245e-05 2.77135114e-05 1.87226651e-05 1.31592105e-05
      5.62751165e-06 4.85744386e-06 4.61415539e-06 7.57965290e-06
      9.67321103e-06 2.34281015e-05 3.22084416e-05 2.57971587e-05
      2.26291450e-05 2.50824105e-05 2.13737021e-05 9.59800309e-06
      2.71625277e-06 -6.43832209e-06 4.51977348e-06 9.88766806e-06
      6.16861507e-06 8.20603020e-07 -2.12207806e-06 1.59527201e-06
      -8.84698602e-06 -6.81521351e-06 -8.74733087e-06 -1.06876887e-05
      1.38866017e-06 -2.39865562e-06 -1.75499990e-05 -2.04380813e-05
      -1.77236725e-05 -1.63408240e-05 -1.21214293e-06 4.45621527e-06
      2.95544919e-06 1.60863601e-05 1.05979934e-05 2.42906735e-05
      5.12914266e-05 4.95856148e-05 2.10337603e-05 1.92564175e-06
      -3.23893664e-06 -2.37561817e-05 -2.27537694e-05 1.23310965e-05
      4.17908159e-05 1.69505402e-05 6.62866660e-06 4.92029812e-06
      -8.83509438e-06 -6.30186150e-06 -8.71340762e-06 -1.31126046e-06
      1.25591951e-05 1.05426006e-05 1.46983657e-05 1.43303296e-05
      1.92230200e-05 1.84572018e-05 7.93845720e-06 6.75677893e-06
      2.15226664e-05 8.96315942e-06 3.08030963e-06 1.10645715e-05
      2.53812977e-05 2.43131672e-06 2.81608686e-06 -1.39513932e-05
      -1.36793233e-05 -1.53782748e-05 -1.86913567e-05 -4.17498359e-06
      -9.42797124e-06 -1.08659460e-05 -1.22270912e-05 -1.19664264e-05
      -6.14765986e-06 3.12015777e-06 -3.26113104e-06 -9.48194975e-06
      -1.78616810e-05 -9.49378682e-06 8.99253700e-06 7.37400751e-06
      8.93535798e-06 -2.60192724e-06 -1.68872011e-05 -1.40167731e-05
      -9.85371753e-06 5.81641325e-06 1.89669154e-05 2.03756390e-05
      1.76039248e-05 1.79856925e-05 1.51193808e-05 2.60043435e-05
      2.67843152e-05 2.48258075e-05 5.35240633e-06 5.11639018e-06
      6.71063435e-06 1.21017565e-05 9.48737670e-06 1.64382636e-05
      1.26128225e-05 2.94566016e-05 2.54789647e-05 3.30358343e-05
      2.71729095e-05 2.43720297e-05 2.09387927e-05 1.26474888e-05
      1.39098629e-05 1.59261299e-06 -2.33929336e-06 -4.70361056e-06
      -5.77591345e-06 -1.16729069e-07 3.80915230e-06 4.49072058e-06
      -1.58309667e-05 -1.36086701e-05 -6.75851243e-06 -5.74171554e-06
      4.86283579e-06 -5.83415670e-07 -5.60044691e-06 -2.80863333e-06
      -8.11967402e-06 -1.82935491e-05 -1.36588078e-05 2.14027708e-07
      6.79413733e-06 6.57047758e-06 6.21134132e-06 2.98124232e-05
      5.83563487e-05 5.42560156e-05 1.98198850e-05 3.93264418e-06
      9.79494325e-06 -7.63577464e-06 -1.74681463e-05 1.42145718e-05
      3.36808989e-05 -1.68276685e-07 5.72152248e-06 3.80677398e-06
      4.55646159e-06 8.61166063e-06 1.26618461e-05 1.25620654e-05
      2.71405024e-05 1.24029175e-05 3.47882669e-05 3.24531247e-05
      2.16980934e-05 4.16700168e-05 2.21809532e-05 3.31061601e-05
      2.22903382e-05 2.20950224e-05 2.33567589e-05 2.48817159e-05
      2.54523911e-05 1.35127493e-05 8.85767258e-06 5.33108368e-06
      8.90665706e-06 1.42716381e-05 4.30510636e-06 -6.46333888e-07
      2.64306345e-06 2.98037639e-06 -2.31836157e-06 -2.79067558e-06
      -4.09138283e-06 8.20199966e-06 9.69675966e-06 2.18423429e-05
      3.56289420e-05 1.30467906e-05 2.73707337e-05 3.31940282e-05
      3.13971796e-05 2.36531232e-05 6.02266437e-06 5.66845529e-06
      4.68378585e-06 1.46263337e-05 2.04867938e-05 1.73352255e-05
      2.33662122e-05 2.71706795e-05 3.13700657e-05 3.38555546e-05
      3.53863979e-05 2.17327615e-05 1.73593810e-06 8.41902693e-06
      5.90591208e-06 3.68262067e-06 1.27272533e-05 1.98726921e-05
      2.05374236e-05 2.31708818e-05 3.31513365e-05 4.00639656e-05
      3.08295603e-05 2.24004798e-05 6.20733363e-06 9.25630866e-06
      1.72821819e-05 -2.88731417e-06 -3.52467464e-06 -4.33516379e-06
      -5.76431330e-06 -1.69848946e-07 1.09081589e-06 7.88516809e-06
      9.13410020e-07 -6.37479161e-06 -8.73508088e-06 -5.12354018e-06
      -6.72692067e-06 -5.41886948e-06 1.64406543e-07 -2.39500218e-06
      -9.20341881e-06 -6.34523622e-06 -1.07074438e-05 -9.89260025e-06
      5.90845139e-06 1.13096094e-05 1.54667250e-05 3.84740852e-05
      4.76247260e-05 2.97242041e-05 1.64075391e-05 3.86645479e-06
      6.21955996e-06 1.48985109e-05 2.08062411e-05 3.57256577e-05
      4.49534127e-05 1.59628289e-05 6.35217702e-06 1.22087949e-05
      1.96642213e-05 1.96851270e-05 1.68218212e-05 1.66163645e-05
      2.13677195e-05 2.33364790e-05 3.62746432e-05 1.63362038e-05
      2.28768331e-05 2.55329142e-05 3.56046658e-05 5.55157130e-05
      4.42254204e-05 5.73640500e-05 4.06351319e-05 2.02395404e-05
      1.69925497e-05 1.67103808e-05 1.77896909e-05 2.13127823e-05
      2.21886130e-05 2.84977687e-05 2.21466053e-05 1.67648086e-05
      1.11389618e-05 1.07357428e-05 5.36042398e-06 1.92240782e-06
      4.65826088e-06 6.93266929e-06 1.30709395e-05 2.74131799e-05
      3.80250676e-05 2.14010324e-05 1.84287419e-05 2.44012790e-05
      3.37442689e-05 3.01639284e-05 1.93181113e-05 1.98726993e-05
      1.69428949e-05 2.07042922e-05 2.14188603e-05 2.21299833e-05
      2.53611543e-05 3.05217509e-05 2.84648595e-05 3.00651627e-05
      3.04335790e-05 2.63505826e-05 1.89846742e-05 2.44664461e-05
      1.07298747e-05 1.13191400e-05 7.62446552e-06 1.12705193e-05
      1.83924622e-05 2.96694743e-05 2.80225522e-05 3.58011494e-05
      4.34065623e-05 3.78939876e-05 1.98185153e-05 2.04224198e-05
      3.02647131e-05 1.15707608e-05 9.60616944e-06 -1.82759152e-07
      -7.28768282e-06 -1.48518745e-06 -6.31116109e-06 6.28132557e-06
      -9.07926335e-07 -1.87681253e-05 -2.52765876e-05 -1.56002479e-05
      3.16193473e-06 -1.04995740e-06 -4.22453695e-06 -5.03886076e-06
      -4.12938653e-06 -3.03196089e-06 -2.79470714e-06 -7.44823592e-06
      5.09952042e-06 7.37266691e-06 2.17305314e-05 5.56876839e-05
      3.25075089e-05 9.44513613e-06 1.22421770e-05 -1.89950129e-06
      5.29231329e-06 2.47996522e-05 4.10382090e-05 4.43461358e-05
      4.03412196e-05 1.92268308e-05 1.18562803e-05 3.19306055e-05
      2.22102044e-05 1.35263599e-05 1.95323410e-05 2.26874326e-05
      3.26138725e-05 2.25976710e-05 2.03593154e-05 1.86575071e-05
      3.11116601e-05 1.69967225e-05 2.92875247e-05 4.30690634e-05
      4.93723455e-05 4.84846132e-05 3.85141502e-05 3.02837361e-05
      2.41632988e-05 1.86665366e-05 1.18716125e-05 1.05380268e-05
      2.26916200e-05 3.57554927e-05 3.40484294e-05 1.84530509e-05
      1.54840964e-05 1.09839293e-05 9.08347829e-06 3.52856568e-06
      8.68575808e-06 5.41631380e-06 -1.73885144e-06 7.54676785e-06
      1.86278539e-05 7.39893903e-06 2.23651296e-06 2.21213795e-05
      2.85777169e-05 1.51794220e-05 1.36271783e-05 1.71034844e-05
      1.30148301e-05 1.57158047e-05 2.08714282e-05 2.59990920e-05
      2.43172217e-05 2.58159453e-05 2.80107597e-05 3.25300971e-05
      3.22190645e-05 3.29419527e-05 2.75135590e-05 2.26188804e-05
      1.74142824e-05 2.09587724e-05 2.34295985e-05 1.66640766e-05
      1.65076744e-05 2.87102739e-05 2.33459432e-05 1.76827853e-05
      2.65876988e-05 2.51741931e-05 1.61710541e-05 1.45528638e-05
      3.05612230e-05 2.23564020e-05 2.94304627e-05 1.54174177e-05
      9.99802978e-06 1.65900383e-05 1.06493380e-05 8.83326993e-06
      3.87919317e-06 5.47170998e-07 6.29563374e-06 7.20881872e-06
      7.56295412e-06 1.04491346e-05 6.31692001e-06 5.99685973e-06
      6.20396395e-06 9.49796140e-06 -1.68005920e-06 1.26283589e-06
      -3.89637944e-06 -4.62085472e-06 7.89615660e-06 4.69069091e-05
      3.05811300e-05 5.92044307e-06 4.44072555e-07 -1.71316151e-05
      -5.62955665e-06 2.26789161e-05 3.75663076e-05 4.09973036e-05
      4.80088820e-05 2.85879541e-05 1.72277141e-05 2.07856392e-05
      1.80336665e-05 1.41329238e-05 1.44059077e-05 1.80837869e-05
      1.63763088e-05 7.93954314e-06 2.15446289e-05 3.25420770e-05
      2.86818540e-05 2.50990761e-05 8.84920883e-06 1.44400647e-05
      3.61708444e-05 3.61027924e-05 3.14823228e-05 2.74531631e-05
      2.58442305e-05 2.65549825e-05 1.49398275e-05 1.28421125e-05
      1.39460626e-05 1.57162849e-05 1.56456226e-05 -4.24581060e-07
      9.69667508e-06 7.93804338e-06 4.34872254e-06 5.78625759e-06
      9.94152742e-06 4.19215030e-06 -1.56204226e-06 -1.98161115e-06
      3.07807386e-06 6.25841767e-06 1.50432882e-07 6.38335950e-06
      1.59518422e-05 1.87286696e-05 1.32444393e-05 1.25399756e-05
      1.76257345e-05 1.89169514e-05 2.12507293e-05 2.15334840e-05
      1.92222542e-05 1.76871145e-05 1.87944497e-05 2.38904649e-05
      2.78421921e-05 2.46511827e-05 2.24456180e-05 2.00238010e-05
      1.74271991e-05 2.50926496e-05 3.02107655e-05 1.59268893e-05
      1.26577397e-05 1.13902970e-05 9.47163335e-06 4.30185946e-06
      1.85972040e-05 2.56124022e-05 1.94331988e-05 1.52980865e-05
      2.53982034e-05 2.42051010e-05 2.10640301e-05 2.90185881e-06
      -1.22255096e-06 1.01753949e-05 2.80721797e-05 2.62046433e-05
      2.04370353e-05 3.61788443e-06 1.82486212e-06 3.64549396e-06
      1.09180728e-05 1.80034021e-05 2.25095846e-05 1.49838879e-05
      4.64797859e-06 7.40355108e-06 9.11930692e-06 1.77698366e-05
      2.33282390e-05 2.46042600e-05 3.50782684e-05 4.99835005e-05
      5.15950633e-05 4.27993909e-05 3.00312968e-05 -1.17462423e-05
      -8.43047837e-06 8.27192878e-07 1.93274682e-05 3.33778262e-05
      3.67104876e-05 1.98233884e-05 1.74381421e-05 1.58666116e-05
      1.21080348e-05 -4.96926930e-07 9.39130496e-06 3.55592715e-06
      4.66714118e-06 5.11748931e-06 7.54264738e-06 9.50467256e-06
      1.56486112e-05 8.84876863e-06 8.27336180e-07 1.22248293e-05
      2.81619414e-05 2.91196393e-05 3.52618590e-05 2.14022675e-05
      3.35847180e-05 3.39370745e-05 2.69312895e-05 1.92167026e-05
      1.74607630e-05 1.14583190e-05 -7.38721837e-06 -1.08420654e-05
      6.26885640e-06 3.97139416e-07 -5.76621323e-06 5.94985704e-06
      9.74789964e-06 1.94376644e-05 1.18942962e-05 1.58880368e-06
      9.36977540e-06 1.19449496e-05 -5.28235933e-06 -4.76931609e-06
      6.08899063e-06 8.90644969e-06 2.89761192e-06 6.26513383e-06
      5.55386532e-06 5.88752891e-06 1.10923320e-05 1.77692091e-05
      1.70062740e-05 1.92609223e-05 1.96455530e-05 2.27315741e-05
      2.43630657e-05 2.04204152e-05 2.02841275e-05 2.04887710e-05
      2.50546200e-05 2.38128741e-05 2.54181596e-05 2.75062212e-05
      2.10722046e-05 1.27822004e-05 7.74514865e-06 8.83612574e-06
      1.93471897e-05 2.93765879e-05 1.80621664e-05 1.09978000e-05
      2.17232737e-05 7.35851881e-06 2.22207109e-05 2.58028031e-05
      1.42748513e-05 1.57282866e-05 1.31026891e-05 3.45013141e-05
      2.60411471e-05 7.09004689e-06 8.62042361e-06 6.10295547e-06
      -7.67084566e-06 -5.13121495e-06 -4.20363023e-07 2.63156016e-06
      1.31352135e-05 1.86024572e-05 2.35297921e-05 2.10821072e-05
      2.70001110e-05 2.00066461e-05 3.24697830e-05 5.81333552e-05
      3.16928999e-05 1.72145701e-05 1.88478607e-05 -1.17347608e-05
      2.59165927e-06 1.16748470e-05 1.29772443e-05 2.26276061e-05
      3.14802382e-05 -1.63549521e-06 -1.47303103e-06 2.27990768e-07
      9.98629275e-06 5.09596157e-06 -8.37289554e-06 -1.46596437e-06
      1.50715152e-06 -6.44665670e-06 -7.37144956e-06 -2.22667973e-06
      -1.39487497e-06 6.87179408e-06 1.27955482e-05 1.43221359e-05
      5.47486752e-06 1.79224953e-05 2.21525297e-05 1.65733436e-05
      3.12185002e-05 2.97109927e-05 3.56779310e-05 1.78245173e-05
      9.62735794e-06 1.07139394e-05 1.41291857e-05 1.09884440e-05
      8.10913025e-06 6.64595473e-06 -1.10739995e-06 -7.44231670e-07
      8.77935599e-06 2.24411033e-05 1.67011967e-05 8.57509531e-06
      1.21721514e-05 1.07103970e-05 -6.76761601e-06 -4.74970102e-06
      1.37634515e-06 8.54323935e-06 -2.04370826e-06 3.90254763e-06
      1.19690822e-05 6.31173452e-06 2.70907253e-06 7.74737418e-06
      1.04216442e-05 1.01958012e-05 1.63478671e-05 1.73760800e-05
      1.92617335e-05 1.97137761e-05 2.30282367e-05 2.87584608e-05
      1.58655348e-05 3.09983152e-05 2.35665648e-05 1.35096252e-05
      8.23488244e-06 9.51823768e-06 1.55747075e-05 1.40720040e-05
      1.85347471e-05 3.19193714e-05 2.29213838e-05 1.07941742e-05
      1.03156290e-05 1.68274892e-05 3.19741412e-05 2.66663665e-05
      2.81062403e-05 3.67162538e-05 2.43731465e-05 2.01426374e-05
      9.86724081e-06 -2.15841965e-06 3.17223908e-06 9.52873052e-06
      2.89554919e-06 -3.00310489e-07 -4.25672488e-06 -1.52185294e-06
      -3.99188320e-06 -2.87830630e-06 6.04391244e-06 1.12410771e-05
      3.06467118e-05 9.26684061e-06 1.14731693e-05 3.86779757e-05
      2.63260190e-05 5.65659548e-06 -2.72845091e-06 -1.74184897e-05
      4.59820967e-06 1.82706135e-05 1.69916530e-05 2.15633190e-05
      2.91200140e-05 2.81071124e-07 1.76094090e-06 -5.95631309e-06
      3.09833723e-07 -5.01402792e-06 -1.01226560e-05 -9.98871474e-06
      -4.38541656e-06 -2.18733612e-06 -6.13980774e-06 -3.89372735e-06
      5.00977785e-06 5.60775334e-06 5.29635190e-06 3.94745030e-06
      9.87642670e-06 3.65176811e-06 2.69233715e-05 3.57525678e-05
      3.32815725e-05 3.35884288e-05 2.20188922e-05 7.86235432e-06
      8.06236039e-06 3.42240787e-06 -2.98493501e-06 -6.73179329e-06
      -2.86974137e-06 1.19561191e-05 1.38258465e-05 1.62737924e-05
      1.44888927e-05 6.03548051e-06 3.51204312e-06 -1.59201022e-07
      8.05470336e-06 1.78667633e-05 -2.09956079e-06 4.83614122e-06
      2.19993362e-05 1.71294632e-05 3.44876003e-06 4.83020358e-06
      1.04476767e-05 3.48389835e-06 2.01779076e-05 2.25397689e-05
      1.29400059e-05 1.34044112e-05 2.74997074e-05 3.87497967e-05
      2.66125080e-05 3.28011229e-05 2.94648798e-05 3.67343964e-05
      2.44998646e-05 2.69387838e-05 1.84406108e-05 1.27992953e-05
      1.76133453e-05 1.63997011e-05 1.60520904e-05 2.06848363e-05
      3.07208902e-05 3.43329884e-05 2.26048469e-05 1.52818029e-05
      1.93489323e-05 2.53032940e-05 2.82801157e-05 2.63298898e-05
      2.16462613e-05 2.91210235e-05 1.83467982e-05 2.30250535e-05
      2.02644733e-05 2.52109430e-06 -8.56440784e-06 -7.47153354e-06
      -2.10230723e-06 1.24978908e-06 2.95729001e-06 5.46735419e-06
      1.14344209e-06 -3.07804669e-07 -5.77253047e-07 3.46890624e-06
      1.32570876e-05 1.07437791e-05 3.10584414e-06 2.06855129e-05
      1.66173468e-05 3.41452528e-06 1.07947981e-05 1.86487105e-05
      4.72862803e-06 1.54535064e-05 1.40303682e-05 1.39078993e-05
      2.77909785e-05 2.04587059e-06 3.08431481e-06 -7.99114059e-06
      -2.08931524e-05 -1.59029023e-05 -5.47214086e-06 -8.38343840e-06
      -3.03724448e-07 7.69426094e-07 4.69606857e-06 8.54172322e-06
      3.25767451e-06 -2.66041525e-06 1.40570455e-06 5.32069953e-06
      1.31504285e-05 1.25248498e-05 9.61527985e-06 1.74055203e-05
      2.91026154e-05 3.62595492e-05 2.37376280e-05 1.85742847e-05
      1.06228554e-05 -3.75056584e-06 -2.97849692e-06 2.72643689e-07
      4.91589935e-06 1.30034205e-05 1.69306822e-05 1.03039529e-05
      9.71720328e-06 8.22759546e-07 1.13084388e-05 3.95773986e-06
      2.37643576e-07 1.32986497e-06 4.66997062e-06 5.55725410e-06
      2.56000221e-05 9.69443499e-06 -5.66356766e-06 2.82807309e-06
      4.33651076e-06 3.38042946e-06 7.48070443e-06 1.94292024e-05
      1.78562750e-05 1.68361585e-05 3.53102332e-05 3.50446862e-05
      3.42890708e-05 4.29091451e-05 4.36871705e-05 3.04964105e-05
      3.77705983e-05 2.78024290e-05 3.01579603e-05 4.71307103e-05
      4.74305780e-05 3.84059349e-05 1.97642967e-05 1.28985721e-05
      2.12219456e-05 2.06486820e-05 1.49186762e-05 1.36032795e-05
      1.33440199e-05 1.69730793e-05 1.95013272e-05 2.11264141e-05
      2.28740737e-05 4.87601164e-06 1.51283248e-05 2.26625616e-05
      3.00429710e-05 1.15121675e-05 4.57399528e-06 3.09112761e-06
      2.61519813e-06 -5.85754151e-06 2.29586726e-06 1.02293034e-05
      1.08900977e-05 1.37844308e-05 3.68962787e-06 5.24724146e-06
      5.56561872e-06 1.19511492e-06 -9.89595537e-06 4.01366833e-06
      1.68346105e-05 -6.26175620e-07 -1.11386942e-06 5.79958396e-06
      1.17770087e-05 1.63835211e-05 8.47555657e-06 1.02319573e-05
      2.60285451e-05 -1.37141687e-05 -2.50160283e-05 -2.30345358e-05
      -2.06976292e-05 -1.55672096e-05 -1.51303357e-05 -1.29026589e-07
      1.17490354e-05 1.17733543e-05 8.90285150e-07 2.49300479e-06
      2.35962830e-06 3.09843949e-06 2.07301696e-06 -3.47518494e-06
      7.86734472e-06 1.95614739e-05 1.57470840e-05 1.58434486e-05
      2.44894090e-05 2.46171330e-05 2.20780112e-05 7.67225811e-06
      8.49168282e-06 9.83508653e-06 1.87231865e-06 6.82800146e-06
      4.52633287e-07 4.38765528e-06 3.33360867e-06 -3.51518156e-06
      -5.56284613e-06 6.51962455e-06 1.44081423e-05 9.32400599e-06
      -3.86664669e-06 -5.99984651e-06 3.62090077e-07 1.19414111e-07
      5.45147759e-06 -2.43927457e-06 -8.81873711e-06 4.37198605e-06
      -1.20927489e-05 -6.81324718e-06 -5.72139697e-06 -9.01102794e-07
      2.91718891e-07 4.21291901e-07 1.38386758e-05 1.97002864e-05
      2.68665535e-05 2.67741761e-05 2.44359926e-05 2.32007969e-05
      1.84949786e-05 1.66239024e-05 1.90963092e-05 3.01194323e-05
      3.65387605e-05 4.80031049e-05 4.82758987e-05 3.14408680e-05
      2.67555915e-05 2.32778402e-05 2.08030233e-05 2.65129947e-05
      3.27313428e-05 7.52232427e-06 -2.78059611e-06 1.00767484e-05
      1.59896827e-05 5.13009581e-06 1.15112780e-05 9.66924108e-06
      2.98173109e-05 1.09757157e-05 2.41400212e-05 3.64969637e-05
      3.95278839e-05 5.45134162e-06 -3.59336605e-06 1.15008572e-06
      4.49092659e-06 8.62903198e-06 8.78922492e-06 -1.99211013e-06
      4.67117025e-06 7.66555058e-06 -4.21247296e-06 7.64956076e-06
      1.80966545e-05 7.18745696e-06 -2.79467417e-06 8.77336606e-06
      -1.88036381e-06 2.32182865e-05 1.31987335e-05 6.68033726e-06
      1.77769834e-06 -4.33077694e-05 -4.05914325e-05 -4.36877781e-05
      -4.17549018e-05 -6.33649961e-06 -2.21358073e-06 2.69197403e-06
      1.57820905e-05 1.44318446e-05 2.29186139e-06 -4.96647601e-07
      5.98266024e-06 -7.50621621e-06 -3.50222581e-06 3.73129274e-06
      5.97389271e-06 1.87265232e-05 1.62550077e-05 1.50743172e-05
      2.19781068e-05 2.15602831e-05 2.21479349e-05 1.60684413e-05
      2.47233620e-05 1.89446109e-05 1.28036045e-05 1.83063730e-05
      8.58968633e-06 7.66961875e-06 -1.21323706e-06 -4.63244078e-07
      3.92273614e-06 4.34162575e-06 2.16693252e-06 3.99557302e-06
      -3.15077568e-06 -6.71229282e-06 -5.59763021e-06 -7.66526500e-06
      -8.37475636e-06 -8.52153698e-06 2.56024987e-06 -5.20528101e-06
      -1.60136642e-05 -1.12065927e-05 -1.37123643e-05 -1.08127624e-05
      -1.07600217e-05 1.12902171e-06 4.02017849e-06 1.25110246e-05
      8.80628249e-06 7.70039151e-06 6.21535355e-06 -2.94135907e-06
      7.74089676e-06 4.40557233e-06 3.12745533e-06 4.50195921e-06
      8.13888892e-06 2.07875855e-05 3.00458014e-05 1.88110189e-05
      3.93141709e-05 3.48440772e-05 3.08195304e-05 4.40296026e-05
      4.00207391e-05 1.43389807e-05 1.19978054e-07 3.81412201e-06
      8.89562489e-06 1.00457719e-05 6.55306121e-06 -1.95961633e-07
      3.02340595e-06 -1.75482401e-05 -1.66699065e-05 -1.22266192e-06
      1.24670096e-05 1.49493899e-05 -1.14768955e-05 -1.72295167e-05
      -9.36424203e-06 -2.93079324e-06 -6.60003525e-06 -7.93640720e-06
      -1.65618185e-05 -1.91299532e-05 -1.53657147e-05 8.17624641e-06
      1.94784043e-05 1.58220810e-05 -2.66070356e-06 2.14683519e-06
      7.03189744e-06 3.18854427e-06 2.03716409e-05 2.08026831e-05
      -1.10657575e-05 -3.94261770e-05 -5.66752897e-05 -5.39867833e-05
      -4.03363374e-05 -2.98134782e-05 -2.34616855e-05 -1.77805050e-05
      4.56315138e-06 8.87111764e-06 -3.08491531e-06 -7.57744419e-06
      2.00989034e-05 2.49959867e-05 1.35798036e-05 1.43582620e-05
      1.37186798e-05 1.54221179e-05 8.90029514e-06 6.69881047e-06
      -2.53436269e-06 2.36497453e-05 2.21392802e-05 1.91424515e-05
      1.57016566e-05 1.40243592e-05 1.36131521e-05 1.24776734e-05
      7.67591700e-06 5.37936967e-06 -3.87201089e-06 -5.60000444e-06
      -4.52347285e-06 5.19110290e-06 1.14434670e-05 8.48155378e-06
      -8.76402464e-06 -1.65472993e-05 -1.72426153e-05 -2.25532476e-05
      -2.60523611e-05 -2.06484074e-05 -5.80812866e-06 -6.94770733e-06
      -4.97551855e-06 -1.11655163e-05 -1.68944025e-05 -1.38274063e-05
      -1.23095306e-05 -9.84722737e-06 -7.61424781e-06 9.39598635e-07
      5.12195584e-06 1.55962380e-06 3.08709377e-06 3.78592290e-06
      4.80097697e-06 -6.68761913e-06 -8.63269452e-06 -6.39025075e-06
      -3.25732299e-06 3.49636252e-06 6.50685524e-06 3.82740109e-06
      1.33350813e-05 2.75738548e-05 3.37006568e-05 2.57798947e-05
      1.72073487e-05 9.06922924e-06 1.53726905e-05 -2.86461500e-07
      -1.69921950e-05 -1.52633056e-05 -1.17667441e-05 -1.56601855e-05
      -3.66628615e-06 -1.71476095e-05 -1.80142470e-05 -2.31903032e-05
      -2.46341897e-05 -2.68637777e-05 -2.57389183e-05 -2.40656482e-05
      -2.83364188e-05 -2.46609343e-05 -2.02344327e-05 -2.52393493e-05
      -2.18488713e-05 -2.10322232e-05 -2.55796767e-05 -3.36533731e-06
      8.93633478e-06 6.81591973e-06 -1.72545947e-06 -1.14611130e-05
      6.26917426e-06 -2.22855238e-06 7.11576195e-06 2.27650944e-05
      -5.72782665e-06 -5.06432953e-05 -4.24539394e-05 -5.04304990e-05
      -4.76889290e-05 -4.17140036e-05 -4.37455528e-05 -4.27406740e-05
      -4.62641183e-05 -3.32734307e-05 -2.84151320e-05 -2.06509612e-05
      2.08000947e-05 4.08849955e-05 3.42446510e-05 2.56165076e-05
      9.44007843e-06 7.08675998e-06 1.61994158e-05 7.97649773e-06
      3.71522719e-06 1.92002972e-05 1.84746932e-05 -2.53109943e-06
      -2.16590661e-06 7.70722727e-06 1.13526248e-05 6.02558475e-06
      3.63565323e-06 -5.15499266e-07 2.61954619e-06 -1.11724444e-06
      -5.59421278e-06 1.09668517e-05 7.73849479e-06 5.27716111e-06
      -3.95301385e-07 -6.75902402e-06 -1.16362662e-05 -2.27807905e-05
      -2.12690429e-05 -1.67920352e-05 -1.18070575e-05 -3.19169931e-06
      -5.39839903e-06 -1.51981021e-05 -1.94564127e-05 -1.95548600e-05
      -1.86280577e-05 -1.55467569e-05 -1.09938119e-05 -5.05505022e-06
      5.13153418e-06 6.76157742e-06 1.18559428e-05 1.08662998e-05
      4.32695879e-06 -1.09619496e-05 -1.18813668e-05 -2.43481172e-05
      -2.44000821e-05 -3.15055149e-05 -2.68701824e-05 -2.99149378e-05
      -2.59060798e-05 -1.02929280e-05 -7.62459240e-06 -1.70258463e-05
      -1.51454060e-05 -2.95231785e-05 -2.55196173e-05 -2.47418793e-05
      -2.65006274e-05 -2.62977774e-05 -2.19719368e-05 -1.91701256e-05
      -4.61961372e-06 -1.88373524e-05 -1.78837035e-05 -3.61798120e-05
      -3.04456444e-05 -2.13367075e-05 -3.05353715e-05 -3.18527018e-05
      -1.90917508e-05 -2.76673654e-05 -3.07055780e-05 -2.50686408e-05
      -2.25499334e-05 -3.11483200e-05 -2.58289419e-05 -2.41611033e-05
      -1.34193613e-06 -1.02416125e-05 -1.25965298e-05 -5.93214236e-06
      -1.31394054e-05 -7.28622581e-06 -1.00344619e-06 1.26718705e-05
      -1.30999151e-05 -3.86521751e-05 -4.21190962e-05 -5.19517598e-05
      -3.77760989e-05 -3.56636265e-05 -4.75621127e-05 -4.87508914e-05
      -5.02962903e-05 -3.34436954e-05 -3.50924820e-05 -2.19428930e-05
      1.47568053e-05 3.00956617e-05 2.07798548e-05 2.19671128e-05
      1.66765367e-05 1.89520888e-05 2.18432106e-05 2.00073846e-05
      1.00815805e-05 5.67173038e-06 7.84847271e-06 6.99916836e-06
      8.48822037e-06 6.87035390e-06 1.96732458e-06 -5.74840215e-06
      -8.86470116e-06 -9.70564815e-06 -9.43132454e-06 -5.57297699e-06
      2.10728786e-07 6.35628066e-06 1.42804893e-05 1.86345933e-05
      2.40969530e-06 -6.30538307e-06 -1.80570460e-05 -2.04618245e-05
      -1.92398311e-05 -1.96816854e-05 -9.97718416e-06 -8.25839925e-06
      -1.30419794e-05 -9.79231663e-06 -2.41419252e-06 -7.27914085e-06
      -9.05043817e-06 -7.76095749e-06 -8.00303314e-06 -9.73215992e-06
      5.56185296e-06 4.18738682e-06 1.37827274e-05 1.06729949e-05
      2.80930271e-06 -1.79027502e-05 -2.58515938e-05 -3.87169639e-05
      -3.79683006e-05 -4.01009966e-05 -4.25068974e-05 -3.69215959e-05
      -3.59529440e-05 -3.57222016e-05 -3.54643853e-05 -3.37288402e-05
      -2.45294577e-05 -4.96957073e-05 -4.23484234e-05 -2.68107142e-05
      2.70308146e-06 -1.75733676e-05 -8.52429093e-06 -1.47433748e-05
      -3.49224251e-06 -1.66727314e-05 -1.67611288e-05 -2.59477929e-05
      -3.50908267e-05 -3.55118245e-05 -2.91532760e-05 -3.60128433e-05
      -2.87366311e-05 -1.18518410e-05 -2.15923410e-05 -2.65276012e-05
      -2.61827699e-05 -1.97930094e-05 -2.33131614e-05 -2.52454629e-05
      -5.31363912e-06 -1.48562331e-05 -1.09687389e-05 7.29445037e-06
      -1.08266249e-06 1.44957448e-06 1.18115331e-05 1.71413521e-05
      -9.68388758e-06 -3.65312699e-05 -4.37659401e-05 -4.28353524e-05
      -3.47927125e-05 -4.48475257e-05 -4.38373063e-05 -4.16205403e-05
      -3.48538924e-05 -2.21360970e-05 -2.13770527e-05 -2.88306564e-05
      -2.29916968e-05 -1.06411972e-05 -1.63181849e-05 -1.45458284e-06
      4.24330483e-06 1.30494482e-06 1.66213022e-06 1.85006102e-05
      1.47285855e-05 1.03664834e-05 5.39957955e-06 -1.54395693e-07
      6.20215360e-07 7.15872784e-06 3.01577984e-06 3.66100153e-06
      -2.07862286e-06 -5.45701732e-06 -4.27553186e-06 -4.84155225e-06
      -2.89905574e-06 1.20520917e-05 2.99024432e-05 1.62649376e-05
      -4.20392098e-06 -8.18350873e-06 -1.05800918e-05 -6.59528450e-06
      -9.99791610e-06 -1.76040721e-05 -2.18221794e-05 -3.10595497e-05
      -3.95007010e-05 -3.29454197e-05 -1.28414595e-05 -7.73316060e-06
      -1.66812151e-05 -9.74990508e-06 -1.26390205e-05 -1.94463355e-05
      4.16435978e-06 1.46297157e-06 -4.99324005e-06 -9.71184181e-06
      -1.21813118e-05 -2.69534321e-05 -2.62406484e-05 -3.07099690e-05
      -3.71116912e-05 -3.93488153e-05 -4.29626562e-05 -3.26037080e-05
      -2.37521053e-05 -2.86508930e-05 -1.85622557e-05 -3.23527565e-05
      -2.42402966e-05 -3.43896900e-05 -2.81227040e-05 -2.48334090e-05
      -2.22910712e-05 -1.55588004e-05 -1.29992031e-05 -1.89176226e-05
      1.56060571e-06 -1.19056485e-05 -2.04521057e-05 -2.98561044e-05
      -3.08206800e-05 -2.66705829e-05 -3.94340968e-05 -3.34650758e-05
      -2.04712505e-05 -1.95313896e-05 -1.83960528e-05 -2.26594930e-05
      -2.50859848e-05 -1.66089631e-05 -1.44723417e-05 -2.32849525e-05
      -1.03867633e-05 -1.58202274e-05 -6.08410619e-06 5.84081999e-06
      2.36346277e-05 2.81660778e-05 2.35133029e-05 1.96422225e-05
      -8.05329182e-06 -3.75313866e-05 -4.54567271e-05 -3.01072978e-05
      -4.34089452e-05 -4.63983670e-05 -3.20964646e-05 -2.84622438e-05
      -3.31504161e-05 -1.80137104e-05 -1.59016527e-05 -2.89295913e-05
      -2.04796343e-05 -2.47510579e-05 -3.06642214e-05 -2.92453115e-05
      -1.58662642e-05 -1.09246957e-05 -1.34990842e-05 -1.61763146e-05
      -2.51160891e-05 -1.32803825e-05 -6.61541890e-06 3.28243209e-06
      -1.02219165e-05 -8.33700869e-06 9.74770956e-07 1.17402681e-06
      -6.16634952e-06 -9.44106614e-06 -8.40681150e-06 -7.15892611e-06
      -3.06841207e-06 -1.16214051e-06 1.08863567e-07 -1.20306368e-05
      -1.95668199e-05 -2.35656971e-05 -1.60132167e-05 -1.63757613e-05
      -2.34287363e-05 -2.49916939e-05 -3.27681519e-05 -4.42290257e-05
      -3.95054049e-05 -2.36476862e-05 -1.80973657e-05 -1.99897222e-05
      -2.65377894e-05 -1.63904788e-05 -1.56768674e-05 -2.77726776e-05
      -1.74014967e-05 -2.41024518e-05 -1.79092276e-05 -2.39994188e-05
      -1.62573378e-05 -1.27759449e-05 -2.12014675e-05 -2.57214451e-05
      -3.27666166e-05 -3.04710538e-05 -2.99853291e-05 -2.82691853e-05
      -2.80758159e-05 -2.32080547e-05 -3.89372053e-06 4.44002171e-06
      -8.01416627e-06 -3.77680662e-05 -3.18776038e-05 -1.93571541e-05
      -2.33452938e-05 -3.08060989e-05 -2.70628279e-05 -3.06794609e-05
      -2.15411692e-05 -2.28779045e-05 -2.59539629e-05 -3.55352859e-05
      -2.59457647e-05 -2.93105259e-05 -2.91781980e-05 -3.88490225e-05
      -3.20289328e-05 -1.38911482e-05 -6.44857710e-06 -2.51333063e-06
      -1.76648900e-05 -2.36729393e-05 -1.97030295e-05 -2.26443262e-05
      -8.61992066e-06 3.53362543e-06 2.19442172e-05 1.77969450e-05
      2.14066022e-05 3.14432473e-05 2.50370758e-05 2.50912271e-05
      4.00643194e-06 -2.44615021e-05 -2.29218731e-05 -2.46742948e-05
      -2.95227219e-05 -1.86265934e-05 -1.99221504e-05 -2.15421042e-05
      -2.24678770e-05 -1.15356688e-05 -1.09436460e-05 -5.15825377e-06
      -3.07890036e-06 4.41403836e-06 -3.91783169e-06 -8.11035079e-06
      -8.70301210e-06 -2.48700212e-06 -8.77074672e-06 -1.07947735e-05
      -5.24461666e-06 1.86575096e-06 -1.44581259e-06 -7.47657577e-06
      -2.36730502e-05 -3.06130205e-05 -1.74858233e-05 -1.62848792e-05
      -2.51050660e-05 -2.08001693e-05 -3.00444208e-05 -2.36329706e-05
      -2.13413186e-05 -1.92111875e-05 -2.55845334e-05 -3.40560291e-05
      -2.92775567e-05 -3.49845286e-05 -2.36664855e-05 -2.75161019e-05
      -3.94497838e-05 -3.23366949e-05 -3.47112909e-05 -2.80756813e-05
      -3.30164876e-05 -1.62903016e-05 -1.87856767e-05 -2.15471809e-05
      -1.89703896e-05 -8.99526367e-06 -1.03791081e-05 -1.37811794e-05
      -7.34350715e-06 -1.65441925e-05 -1.46167704e-05 -2.34855961e-05
      -2.48721299e-05 -1.55132784e-05 -2.22134804e-05 -2.24498290e-05
      -1.81157775e-05 -2.30319820e-05 -2.42079714e-05 -2.20164711e-05
      -3.20424879e-05 -2.65194703e-05 -4.95257109e-06 1.72785967e-05
      8.87387159e-06 -2.93034409e-05 -3.07227492e-05 -1.95591783e-05
      -1.22655629e-05 -2.64168430e-05 -3.73134244e-05 -2.49943841e-05
      -1.64197645e-05 -2.54955139e-05 -2.71256577e-05 -4.07658590e-05
      -4.15382638e-05 -3.32723794e-05 -3.59826226e-05 -3.00740267e-05
      -3.11029507e-05 -2.49928453e-05 -6.29144188e-06 -7.46951628e-06
      -1.85077643e-05 -2.00329669e-05 -2.41582929e-05 -1.99137849e-05
      -9.16384579e-06 5.05075468e-06 2.02707834e-05 2.22808267e-05
      1.45089180e-05 2.60609322e-05 2.93081339e-05 2.08984129e-05
      1.43110483e-05 -1.20517007e-05 -1.56490350e-05 -1.97444897e-05
      -1.39426729e-05 -1.34246484e-05 -1.71732445e-05 -1.10579385e-05
      -1.70775329e-05 -1.82889435e-05 -8.89812873e-06 -2.76147489e-06
      3.29998556e-06 -4.91284527e-06 2.38511075e-05 1.04136998e-05
      -3.58593820e-06 6.26749534e-06 3.68986684e-06 1.87983151e-05
      2.06143613e-05 2.34544532e-05 4.89513013e-06 1.57303714e-06
      -7.91073762e-06 -1.64391458e-05 -1.01804899e-05 -5.12444785e-06
      -1.12401613e-05 -1.39278254e-05 -3.03003235e-05 -3.05644571e-05
      -3.09887182e-05 -3.09103052e-05 -3.64615880e-05 -3.86732936e-05
      -3.17524937e-05 -2.30161386e-05 -8.63006426e-06 -5.30813077e-06
      -2.37359982e-05 -2.31425493e-05 -3.05067897e-05 -3.07852715e-05
      -2.79143405e-05 -2.50958565e-05 -2.22962990e-05 -1.17024820e-05
      -3.55210341e-06 -7.34010470e-08 -4.98673808e-06 -4.89849617e-06
      1.05693935e-05 -4.98195004e-06 -1.10250985e-05 -1.19792994e-05
      -1.37946154e-05 -1.77394975e-06 -1.61841908e-05 -2.40077152e-05
      -1.33612848e-05 -2.57720676e-05 -2.85462538e-05 -1.93536307e-05
      -1.84527707e-05 -2.42820443e-05 -7.72788007e-06 -6.83794951e-06
      2.45074011e-06 -2.18888272e-05 -3.40324004e-05 -2.82065394e-05
      -2.39368019e-05 -2.36338437e-05 -3.29904178e-05 -3.52161369e-05
      -1.52492612e-05 -1.77688107e-05 -2.40308618e-05 -2.68283457e-05
      -3.66514032e-05 -3.66959357e-05 -3.02695371e-05 -2.63172333e-05
      -2.46611289e-05 -2.57626780e-05 -3.25039036e-05 -6.82429345e-06
      -1.01586033e-06 3.48015260e-06 -1.04513583e-05 -2.04865828e-05
      -9.80404820e-06 5.33979801e-06 1.19675788e-05 1.72303244e-05
      1.33642097e-05 2.36436626e-05 3.51201379e-05 2.44792936e-05
      1.56516689e-05 -1.37502338e-05 -1.45320846e-05 -1.67194466e-05
      -1.64232661e-05 -1.96801830e-05 -1.08126969e-05 -1.10261299e-05
      -1.24903436e-05 -1.30454473e-05 -1.35315686e-05 -1.90325663e-05
      -1.34439488e-05 -3.72773729e-06 1.56818060e-05 1.83131961e-05
      3.08707718e-06 6.58798581e-06 4.88781779e-06 1.40223001e-05
      1.41544888e-05 1.98663292e-05 7.63068419e-06 9.52733626e-06
      1.03788916e-05 4.94961296e-06 -2.34994468e-06 1.20049681e-05
      -2.62950084e-06 -3.68945348e-06 -1.36944509e-05 -2.52638019e-05
      -3.18957718e-05 -2.64965929e-05 -1.55683192e-05 -2.44840867e-05
      -2.65813123e-05 -2.40183308e-05 -1.05587715e-05 -3.81907603e-06
      -6.07983748e-06 -1.82687545e-05 -3.32660202e-05 -2.39810979e-05
      -1.63259501e-05 -8.35300398e-06 -4.95625454e-06 -3.25201336e-06
      2.02214846e-06 1.16759493e-05 3.98387510e-06 2.60003958e-06
      1.72352775e-05 -7.46304386e-06 -7.20639400e-06 -1.25212443e-06
      9.60242960e-06 1.44178257e-05 1.32470732e-05 1.50717369e-05
      1.04462997e-05 -9.75503644e-06 -1.46194961e-05 -9.14294287e-06
      -9.70486235e-06 -7.33580828e-06 5.02363491e-06 -6.66563619e-06
      -1.00927027e-05 -2.03583386e-05 -1.97109784e-05 -2.67416854e-05
      -1.60216696e-05 -1.41372520e-05 -3.55390512e-05 -2.38682096e-05
      -1.86470825e-05 -1.34322763e-05 -1.42217878e-05 -1.64775684e-05
      -1.40836355e-05 -7.53648055e-06 -1.81619398e-05 -8.20975765e-06
      -9.23326934e-06 -8.90344563e-06 -1.46593820e-05 -1.29036835e-05
      4.09864833e-06 1.28180172e-05 3.45911189e-06 4.93455047e-07
      1.01968135e-05 1.53627880e-05 1.80267489e-05 1.64722551e-05
      2.48692959e-05 3.14123536e-05 3.06899346e-05 3.22374253e-05
      2.19645281e-05 -8.86787348e-06 -1.20057202e-05 -1.91700201e-05
      -1.33395379e-05 -2.04555799e-05 -1.30620137e-05 -6.24779022e-06
      -1.12517246e-05 -1.41863593e-05 -4.47653883e-06 -4.14085753e-06
      -1.28813826e-06 7.35244021e-06 1.73523676e-05 2.85776732e-05
      9.62038666e-06 1.08722077e-06 1.78182574e-06 5.65276923e-06
      -6.58209217e-07 1.63067216e-05 1.75276127e-05 2.09430018e-05
      1.26236664e-05 9.67423421e-06 1.19621764e-05 2.09084228e-05
      5.37834057e-06 -8.64451522e-06 -4.03847434e-06 -1.05618665e-05
      -1.13694714e-05 -2.27305900e-05 -2.08336933e-05 -3.20845429e-05
      -2.30218357e-05 -2.53713843e-05 -3.15230063e-05 -2.57749143e-05
      -2.59674607e-06 -1.33716148e-05 -1.78419941e-05 -1.04483752e-05
      -1.29664568e-05 9.97052121e-06 1.90213007e-06 -2.32969410e-06
      3.36120866e-06 5.74857222e-06 3.19786068e-06 1.66363043e-05
      1.16712881e-05 9.28298647e-08 -1.55437351e-06 8.12658618e-06
      1.86298694e-05 2.16670851e-05 2.57241754e-05 2.77518920e-05
      2.24632277e-05 1.56064573e-06 -6.99636485e-06 -1.42084000e-05
      -1.83862903e-06 1.36421713e-05 1.09878602e-05 -3.91699268e-06
      4.58581462e-06 -1.82243673e-06 -6.19447337e-06 -1.20473860e-05
      -2.41808493e-06 1.24517410e-05 -2.24313294e-06 -7.66400808e-06
      1.38021378e-05 7.03692604e-06 6.82807331e-06 8.55352391e-06
      6.32978617e-06 5.91447042e-06 -2.59585590e-07 -7.36498987e-06
      2.55066834e-06 5.54695725e-06 1.30198132e-05 1.40484090e-05
      8.65412494e-06 1.82839667e-05 6.15864792e-06 3.87286218e-06
      4.84034763e-06 1.97025620e-05 2.42019014e-05 2.85225033e-05
      3.73853363e-05 3.57670797e-05 2.91194265e-05 4.27089835e-05
      2.22701456e-05 -7.16265686e-06 -4.17207548e-06 -6.71899670e-06
      -6.53828192e-06 -1.30863000e-05 -4.36728124e-06 5.95829715e-06
      6.20682704e-06 -4.47516049e-06 1.01135556e-05 2.97655674e-06
      9.65090840e-06 5.92504375e-06 4.05617766e-06 2.15046221e-05
      1.70495277e-05 2.57747633e-05 1.86296347e-05 -4.03680360e-06
      -1.98314137e-06 1.78139780e-05 1.46481125e-05 6.22737571e-06
      6.92396816e-06 8.72220062e-06 7.17018247e-06 2.04662974e-05
      2.03434356e-05 9.11873758e-06 1.74996296e-06 3.41468285e-06
      -1.35150185e-05 -2.57518750e-05 -3.92665133e-05 -2.63146121e-05
      -1.18629368e-05 -1.53715646e-05 -2.05498127e-05 -1.89774219e-05
      4.25775897e-06 -5.96997870e-06 -7.16461000e-06 6.88325827e-06
      1.07180394e-05 3.00333031e-05 1.50982096e-05 5.75561626e-06
      1.21302173e-05 1.13379328e-05 1.30686740e-05 1.24128464e-05
      7.21466586e-06 7.11346866e-06 2.18287437e-06 -1.85417900e-06
      1.38046853e-05 1.96679048e-05 2.55169743e-05 2.34452382e-05
      2.78037332e-05 1.55762173e-05 -5.56844952e-06 -1.15844587e-05
      -1.43616562e-05 2.75884804e-06 1.29075961e-05 7.07029176e-06
      4.98970303e-06 -6.68648181e-06 -1.00361858e-05 1.41961743e-06
      1.30493327e-05 1.18601492e-05 1.53366873e-05 1.23343325e-05
      1.56422520e-05 1.65933816e-05 9.21371793e-06 1.17767750e-05
      9.24009328e-06 2.70448663e-06 -2.67330620e-06 9.09915059e-07
      -2.67431892e-06 6.86584997e-07 4.49764821e-06 1.19929045e-05
      6.60769683e-06 1.08384465e-05 4.94447522e-06 1.04591818e-05
      5.84649933e-06 1.52388830e-05 1.30903873e-05 2.15583168e-05
      3.79516641e-05 3.22252672e-05 3.67964640e-05 4.54567962e-05
      2.02254578e-05 -8.16120155e-06 -6.15114686e-06 -8.08219920e-06
      6.59024226e-06 1.11151803e-05 -1.20986510e-06 2.61942205e-06
      7.76872326e-08 -2.81929351e-05 -7.96274162e-06 -4.74018407e-06
      -2.02160049e-06 1.53029650e-05 5.59130058e-06 3.07456003e-06
      2.30495061e-06 2.60758202e-06 7.13994325e-07 -9.74381874e-06
      1.06110283e-05 8.91617401e-06 1.06288308e-05 4.27717896e-06
      4.35473794e-06 7.03610749e-06 9.21767969e-06 2.20545244e-05
      3.22426749e-05 1.12057614e-05 3.17423223e-06 5.47465925e-06
      -4.63267634e-06 3.89746947e-06 9.59866884e-06 -3.20543040e-06
      -1.48318004e-05 -1.52169850e-05 -1.27165695e-05 -1.06944935e-05
      -6.08456673e-07 -1.12281066e-06 -1.48097888e-05 -3.06833499e-06
      1.10100245e-05 2.90532316e-05 2.49968216e-05 1.54836671e-05
      1.55861944e-05 1.47797991e-05 7.52300821e-06 1.33453213e-05
      5.80558662e-06 -7.44190538e-06 -8.55903818e-06 -2.16195849e-06
      -9.63267937e-08 5.88765897e-06 9.75759758e-06 1.32260011e-05
      1.81558171e-05 2.58660111e-05 1.41589971e-05 -3.91168214e-07
      -3.22869505e-06 3.90657397e-06 9.27437395e-06 9.43429040e-06
      4.15554950e-06 -3.86142892e-06 -1.15233397e-05 5.68705082e-06
      1.45330978e-05 1.08289914e-05 4.48786022e-06 1.23770142e-05
      7.79860511e-06 -4.85534747e-06 -5.44321210e-07 -5.04508989e-07
      1.17685659e-05 -3.81452173e-06 -3.31230717e-06 -1.21607845e-05
      -7.63620119e-06 -4.90601406e-06 -7.11703660e-06 2.43751560e-06
      9.45566171e-06 -1.67474741e-06 -8.42784266e-06 -8.48968966e-07
      4.71926069e-06 -2.37605332e-06 4.36137634e-06 1.41421679e-05
      3.45079534e-05 2.87996991e-05 3.01110813e-05 3.85650237e-05
      1.44815422e-05 -6.07734046e-06 -1.15138482e-05 -9.17384750e-06
      3.13443275e-06 5.45439843e-06 2.07338030e-06 -2.01974876e-06
      -1.78372466e-05 -3.50167866e-05 -1.69768937e-05 -1.17527852e-05
      -1.77174625e-05 -1.86057769e-05 -1.83895954e-05 -1.65519032e-05
      -1.57350605e-05 -1.73699282e-05 -1.59086521e-05 -1.36633880e-05
      -4.79489336e-06 -3.21137600e-06 1.67891667e-05 7.82901952e-06
      3.11960116e-06 2.11066663e-07 7.12902420e-06 1.72614418e-05
      1.86997313e-05 1.10762057e-05 3.69013378e-06 -8.18971603e-06
      -1.21314042e-05 -5.08240782e-06 5.06184642e-06 1.77123138e-06
      -1.99979149e-05 -1.70923013e-05 -1.74890301e-05 -1.27332241e-05
      -9.96796825e-06 -5.09249321e-06 -9.28711688e-06 -1.37374109e-05
      -1.06182870e-06 -1.17866443e-06 1.28267652e-06 4.53594657e-06
      2.00860018e-06 1.05332410e-05 1.61676126e-05 1.48070822e-05
      1.51586255e-05 9.12984251e-06 1.50409858e-06 2.90131510e-07
      -6.87425245e-06 -2.52163295e-06 2.70082637e-06 5.01151544e-06
      1.87169335e-05 1.53058172e-05 1.81101859e-05 2.30516216e-05
      2.86497525e-05 3.06721522e-05 1.29994269e-05 3.01587215e-06
      2.37544168e-06 -3.88588569e-06 -8.02804061e-06 -2.01015541e-06
      -6.11626729e-06 3.24998746e-06 4.73978071e-06 2.00867476e-06
      4.81765392e-06 -1.05559984e-05 -1.82872318e-05 -8.49754088e-06
      -3.35298353e-07 -6.71184080e-06 -8.62769775e-06 -1.79667259e-05
      -1.09864141e-05 -1.05608633e-05 -8.34148159e-06 -1.51708718e-06
      3.86116290e-06 5.30926809e-06 -6.12531858e-06 -1.25801071e-05
      7.00349005e-07 8.35128321e-06 3.62637820e-06 8.71064003e-06
      2.05373472e-05 3.86114771e-05 3.32167619e-05 4.35162256e-05
      1.61603584e-05 -1.54070131e-05 -2.00043251e-05 -1.71332013e-05
      -1.27918165e-05 -5.43535634e-06 -1.92357084e-06 8.16943793e-06
      -1.50262650e-07 -1.76816629e-05 2.27184455e-06 3.44656485e-07
      -1.09396451e-05 -1.81354699e-05 -2.81561315e-05 -1.77599213e-05
      -2.46647342e-05 -5.51747144e-06 7.16499790e-06 -9.46504497e-06
      -8.88800514e-06 -3.76011303e-06 8.42095346e-07 4.77665299e-06
      -3.66564200e-06 -5.04979789e-06 1.95005964e-06 7.80420851e-06
      8.68613370e-06 6.67855875e-06 -3.15239026e-06 -1.20456843e-05
      -1.46655057e-05 5.16997443e-06 1.03760121e-05 4.76093601e-06
      -1.32381247e-05 -1.14847553e-05 -9.09633218e-06 -1.13691303e-05
      6.73395164e-07 -6.72190481e-07 -1.24996823e-05 -6.37520270e-06
      6.78115626e-08 -1.05988074e-05 -3.61483876e-06 -2.46465925e-06
      1.85765966e-05 2.61929508e-05 7.31034743e-06 1.12783355e-05
      1.94799159e-05 2.13503281e-05 7.07415529e-06 -1.20969651e-06
      -6.02637965e-06 -1.32500372e-05 -9.09600021e-06 -4.90384173e-06
      5.41513373e-06 2.99599515e-06 1.60138043e-05 1.96230212e-05
      2.74466711e-05 2.74491267e-05 2.23110455e-05 1.70422627e-05
      -2.74325771e-06 1.02212489e-05 8.44799331e-07 1.18925618e-06
      -2.02489377e-06 -4.02408295e-06 -4.30238106e-06 -3.48957133e-06
      -1.18855723e-06 -6.86900512e-06 -2.57124120e-05 -8.64638423e-06
      -9.88229840e-06 -1.15076618e-05 -1.39379890e-05 -1.62180659e-05
      -1.84693254e-05 -1.33152562e-05 -9.01812291e-06 -1.40147768e-06
      -2.58981822e-06 -5.49413062e-06 -6.64133768e-06 -1.40451721e-05
      -1.15544153e-05 2.58596356e-06 2.96177836e-06 4.34937920e-06
      1.78852933e-05 2.25498588e-05 1.92821481e-05 3.56842684e-05
      2.08419478e-05 -9.55037922e-06 -1.05846557e-05 -2.64029222e-05
      -1.31372171e-05 -7.82695406e-06 -6.70570444e-06 1.05463062e-06
      -3.62556693e-06 -7.65418281e-06 -5.29658337e-06 -4.68127973e-06
      -5.15234115e-06 -1.16683423e-05 -1.00057005e-05 -7.48197863e-06
      -9.67179130e-06 -1.57654194e-05 -6.99267321e-06 -9.96956624e-06
      -1.92246443e-05 -1.93614615e-05 -1.16793290e-05 -8.82248514e-06
      -9.59644331e-06 -9.54866027e-06 4.94038841e-06 2.39082624e-06
      4.35660195e-06 -7.83919586e-06 -9.14721386e-06 -6.54016003e-06
      9.89401627e-08 1.11893514e-05 2.29287052e-05 7.68444716e-06
      -8.99042061e-06 -1.42357949e-05 -6.84895758e-06 -7.51520110e-06
      -2.13415819e-06 -1.63385921e-05 -4.97109886e-06 -1.46594621e-05
      -1.05214058e-05 -1.40935554e-05 -1.02699460e-05 1.24951001e-07
      2.87301445e-05 2.38560478e-05 1.27755857e-05 1.48267527e-05
      8.83547636e-06 -1.25999065e-07 -2.39549399e-06 5.02069133e-06
      -8.41911572e-07 -4.95763288e-06 -1.14460399e-05 -1.14071509e-05
      -3.85953126e-06 1.71432006e-07 -4.54831525e-06 3.56588359e-08
      7.57639782e-07 1.47059927e-05 2.45179472e-05 3.38786085e-05
      7.45791795e-06 -2.28984572e-06 1.57747849e-07 7.47264357e-06
      -1.65555400e-06 -2.54769816e-06 1.43421630e-07 3.77364790e-06
      5.32357990e-06 4.06847994e-06 -9.12386895e-06 -1.05320614e-05
      -2.79127107e-06 -1.57561171e-05 -1.69447430e-05 -7.86486817e-06
      -2.07209905e-05 -2.39341916e-05 -2.77469208e-05 -8.74867328e-06
      1.96898509e-06 -5.41185773e-06 -9.79497827e-07 -1.36535946e-05
      -1.10013452e-05 -7.00340524e-06 1.18733160e-05 8.39761560e-06
      2.21952105e-05 2.66124971e-05 2.83585250e-05 2.84900252e-05
      1.49711132e-05 -4.52155246e-06 2.80948643e-06 -2.36421165e-05
      -1.14974691e-05 -1.41613618e-05 -7.43302508e-06 -9.10642666e-06
      -1.34394822e-05 -1.65891306e-05 -1.95372413e-05 -1.20296827e-05
      -1.87897967e-05 -1.42636300e-05 -3.71648639e-06 3.60153717e-06
      -8.90925457e-06 7.42135853e-06 8.97253540e-06 -9.46659020e-06
      -1.50505675e-05 -1.70575913e-05 -3.40501197e-06 -1.26061050e-05
      -1.46322836e-05 -1.23141062e-05 -9.58220653e-07 -4.17734555e-06
      -3.68318706e-06 -1.83751084e-07 -8.02398154e-06 -4.72604870e-06
      4.99517273e-06 6.23209985e-07 1.44565711e-05 1.04585033e-05
      -1.37680615e-06 -6.46356102e-06 -1.00698780e-05 -4.77054846e-06
      -1.62493535e-07 -1.04266292e-05 -1.05265253e-05 -2.01256098e-05
      -1.26174509e-05 -1.01198702e-05 -1.47379424e-05 -1.47123137e-05
      9.63065668e-06 2.30263395e-05 7.88300713e-06 -1.40565935e-05
      -4.69287625e-06 -4.18429545e-06 -5.72699173e-06 -4.96187886e-06
      -1.30866192e-05 -9.87367639e-06 -2.55661926e-05 -1.45366384e-05
      -1.61842690e-05 -7.08593643e-06 4.53058010e-06 -2.72310808e-06
      7.30519560e-06 2.45540596e-05 2.63176535e-05 2.96969065e-05
      3.87883956e-05 2.04149205e-06 1.26892137e-05 2.01038583e-05
      9.65677555e-06 6.62536195e-06 2.63006905e-06 5.91681419e-06
      4.94608184e-06 -3.31450315e-06 -8.66433084e-07 -1.40364064e-05
      -5.50510777e-06 -5.89134424e-06 -9.21903484e-06 -4.03182776e-06
      -1.14121767e-05 -1.17951467e-05 -7.51908874e-06 -6.04244451e-06
      -4.35109814e-06 2.66142706e-06 5.24080997e-06 -1.37379056e-05
      -2.33873634e-05 -1.16254369e-05 3.65867413e-06 1.73722656e-05
      1.45728181e-05 1.94529221e-05 2.32250895e-05 2.12607138e-05
      9.48024717e-06 -8.28082466e-06 -5.57042131e-06 -2.35961961e-05
      -2.50190351e-05 -1.59342944e-05 -1.21779533e-06 -1.70589828e-05
      -2.41414568e-06 -5.69270105e-06 -5.35785102e-06 -5.44774957e-06
      -9.36006563e-06 -1.21932972e-05 -9.25045515e-06 -6.62584057e-07
      1.02056456e-05 4.81103871e-06 5.00784927e-06 -9.39382517e-06
      -1.53849960e-05 -1.78837145e-05 -4.70545183e-06 -7.15724718e-06
      -2.31287595e-06 -5.21871243e-06 -4.98452391e-06 -1.51241047e-05
      -8.03142393e-06 -4.86067756e-06 -1.52497605e-05 -6.15569070e-06
      1.19412834e-06 -9.71987629e-06 2.98195914e-06 1.42117665e-06
      -3.86843567e-06 -5.03074307e-06 -3.22492124e-05 -2.69295106e-05
      -3.30636044e-06 -7.59940167e-06 -2.51951424e-05 -4.34668473e-05
      -1.64330213e-05 -1.11544286e-05 -1.62323122e-05 -1.59652354e-05
      -5.90164882e-06 7.50156187e-06 -6.54606356e-06 3.70449072e-07
      -2.85220335e-06 -4.37541894e-06 -1.01615342e-05 -8.14094255e-06
      -4.91866422e-06 -1.01327014e-05 -2.70351047e-05 -2.22909293e-05
      -1.64863704e-05 -9.16061617e-06 -4.78654829e-06 -6.97545985e-08
      1.54304034e-05 1.19608021e-05 1.26015702e-05 1.79081508e-05
      3.01662421e-05 1.22653182e-05 3.78975201e-05 2.29297239e-05
      2.32475977e-05 1.40504026e-05 5.74646629e-06 1.17914333e-05
      1.34087977e-05 3.69626127e-06 5.75615013e-06 -2.36204437e-06
      -4.90804541e-06 6.46770729e-07 3.74462360e-07 6.71972475e-06
      5.47834861e-06 -7.43693226e-06 -5.98895303e-06 -6.92144295e-06
      -3.09051529e-06 3.19661922e-06 1.16772981e-05 3.88700892e-06
      -1.22024994e-05 -8.15824660e-06 4.22020230e-06 2.83340960e-05
      1.76839585e-05 2.75448620e-05 2.38753182e-05 2.77884119e-05
      1.26572868e-05 -4.13805674e-06 -2.18927526e-05 -1.94385339e-05
      -2.43241338e-05 -1.50075557e-05 -1.11287063e-05 -1.30363060e-05
      -1.44008409e-05 -1.57759168e-05 -4.06824893e-06 -6.69868723e-06
      -7.53769837e-06 -1.54692498e-06 -3.54504141e-06 -6.52967674e-06
      9.80796722e-06 5.87285626e-07 2.68905660e-06 -5.99200939e-06
      -2.76055630e-06 -8.60028740e-06 -1.30473463e-05 1.98393650e-06
      9.00095984e-06 6.00967041e-06 -5.26125177e-06 -6.62774528e-06
      -1.21433259e-05 -3.96778842e-06 -1.51383820e-05 -9.92953574e-06
      -9.72092130e-06 -1.66275986e-05 -1.14332697e-05 -8.26800442e-06
      -1.05367390e-05 -1.15362891e-05 -3.82032849e-05 -2.70583278e-05
      -5.44973409e-06 -3.01796376e-06 -1.14871009e-05 -2.73405640e-05
      -2.86300019e-05 -1.96306701e-05 -2.90398384e-06 -3.54860663e-06
      7.08558991e-06 -8.01686019e-06 -5.64256743e-06 3.57785126e-08
      -5.92924061e-06 -1.05482068e-05 -5.06687502e-06 -3.81054269e-06
      3.34669335e-06 7.32883655e-06 2.50242010e-06 1.03903658e-05
      6.62249022e-06 -8.60283706e-07 2.72279931e-06 -1.03307104e-06
      1.06151147e-05 4.99192220e-06 8.76020022e-06 1.05627532e-05
      1.81936048e-05 2.16176632e-05 2.76099199e-05 3.31525516e-05
      2.19551166e-05 1.56120695e-05 4.17821781e-07 1.00520920e-05
      2.18681744e-05 1.43569614e-05 8.20903824e-06 -1.87259417e-07
      1.41539238e-06 1.12712087e-06 -1.14948307e-06 9.52578011e-06
      1.25756731e-06 -1.04586006e-05 -7.86065721e-06 -2.38339044e-06
      -1.96239830e-06 2.58610476e-06 1.13406804e-05 9.50705362e-06
      7.69231792e-06 -7.57436874e-06 -6.44408203e-07 2.71026220e-05
      2.34213185e-05 2.43551949e-05 1.97732097e-05 1.77252114e-05
      2.99450057e-05 3.17258309e-05 -3.68066367e-06 -1.84627206e-05
      -1.14253507e-05 -4.49861864e-06 -1.24829921e-05 -1.75469395e-05
      -1.69367504e-05 -8.31562102e-06 -4.51959158e-06 -2.22122844e-06
      -8.55473354e-06 -1.86424541e-06 -9.30888200e-06 9.62547801e-06
      5.28794772e-06 -1.06615089e-05 -2.29068496e-06 2.27558417e-06
      -1.40776535e-06 -3.15270040e-06 -7.17429612e-06 -1.25294819e-05
      -6.73107479e-06 -4.90385810e-06 -1.21331004e-05 -1.28966094e-05
      -1.72074197e-05 -5.87212708e-06 9.32559772e-07 8.43696762e-06
      5.70854672e-06 4.89832746e-06 4.33999003e-06 -3.80591450e-06
      -1.34227193e-05 -1.19945253e-05 -1.67670587e-05 -1.20256518e-05
      -3.12380598e-06 -7.74955879e-06 -2.17980541e-05 -2.20153979e-05
      -2.65703547e-05 -3.63333675e-05 -1.47126302e-05 -9.64742230e-06
      -3.11496956e-06 -2.22570779e-05 -1.13714623e-05 -5.53128530e-06
      -1.31753714e-05 -1.88615577e-05 -1.64160519e-05 -4.48230276e-06
      1.78048913e-06 3.62984429e-06 -2.76179026e-06 -3.38314112e-06
      8.49900789e-06 1.24117114e-05 1.75460991e-05 1.04844958e-05
      7.60391595e-06 1.16842762e-06 3.33995308e-06 1.35549553e-05
      1.47695682e-05 1.02618412e-06 2.34587169e-05 2.89605832e-05
      1.53863293e-05 7.88953639e-06 3.34907941e-06 1.07761543e-05
      1.73966964e-05 1.47168976e-05 1.02508720e-05 -3.74237766e-06
      -2.67349537e-06 2.00254763e-05 1.26416253e-05 3.75505306e-06
      6.46724175e-06 -1.49300797e-06 -1.02183531e-05 -2.71669251e-07
      5.40990004e-06 1.53279643e-06 3.90155446e-06 -1.64428002e-05
      -1.05857944e-05 -1.19430779e-05 -4.36277787e-06 1.17209893e-05
      8.26712039e-06 2.35392054e-06 1.43451507e-05 6.73166505e-06
      3.25368310e-05 3.40705410e-05 1.32563573e-05 -1.11151812e-05
      -5.87590193e-06 4.92503614e-06 -1.41966402e-05 -2.14743886e-05
      -1.40374241e-05 -5.30219131e-06 -7.87317458e-06 -5.65220660e-07
      -5.42336511e-06 -1.99398642e-06 -1.12248608e-05 1.38172879e-07
      -3.05182448e-06 -2.84212297e-06 -8.68255756e-06 -5.09027359e-07
      -2.63859056e-06 -7.68680911e-06 -1.42634199e-05 -1.83092980e-05
      -1.01425530e-05 -3.48678054e-06 -9.47746594e-06 -9.76693627e-06
      4.90298271e-06 5.05529351e-06 5.61502202e-06 -2.42514352e-06
      5.07703362e-06 -1.78005450e-06 2.62675235e-06 -1.22364527e-05
      -3.23977874e-05 -2.19451849e-05 -2.81050307e-05 -1.76285666e-05
      -1.19566960e-06 -8.37449079e-06 -1.71664433e-05 -4.84500088e-05
      -4.02826299e-05 -2.94741567e-05 -1.84661258e-05 -1.30909293e-05
      -1.73110457e-05 -4.45076557e-06 -1.48006930e-05 -1.16973079e-05
      -2.46687086e-05 -3.46750676e-05 -2.20636684e-05 -1.90378778e-05
      3.59030679e-07 -4.01911939e-06 -1.13526139e-05 -1.39137892e-05
      5.36406787e-06 1.51381719e-05 1.74696906e-05 1.04752462e-05
      7.98045039e-06 -3.08891140e-06 2.07611515e-06 8.55680446e-06
      1.22292959e-05 5.34372418e-07 2.09150057e-05 2.65751132e-05
      1.21167086e-05 1.31138256e-06 -6.84163342e-06 2.17125262e-06
      1.18117714e-05 -1.76578354e-07 3.16413548e-07 -1.11030135e-06
      -6.41382314e-07 1.68361785e-05 1.58176972e-05 5.51087214e-06
      5.86196029e-06 4.96024131e-06 -6.20145238e-06 -5.95139738e-07
      8.92762182e-06 -6.88707846e-09 -2.90184607e-06 -1.91585677e-05
      -1.77918810e-05 -9.04785884e-06 -1.51024215e-05 -3.00250008e-06
      2.74369700e-06 -1.99089100e-05 -7.21891593e-06 -6.99595103e-06
      3.61483653e-05 3.12314442e-05 2.19216236e-05 -1.20999757e-05
      1.89008983e-06 -1.31833679e-06 -1.91392101e-05 -2.20695711e-05
      -1.37549341e-05 -4.82015776e-06 -1.20886789e-05 5.47432137e-06
      -4.67732889e-06 -8.80857260e-06 -4.01407169e-06 4.98972713e-06
      -3.94172685e-06 -2.12148598e-06 -3.35155460e-06 -8.05877244e-06
      -2.87314560e-06 -1.49311627e-05 -2.46090895e-05 -1.02736813e-05
      1.16196861e-05 3.25547330e-06 -2.49965160e-05 -3.11782933e-05
      -2.59229710e-05 -1.64371322e-05 -1.93268588e-05 -1.95929260e-05
      1.82442568e-06 -4.59381454e-06 -1.56024998e-05 2.52335639e-07
      -1.69220166e-05 -2.59471817e-05 -4.26378610e-05 -3.20528197e-05
      -6.51630762e-06 -5.05617299e-06 -9.50257800e-06 -3.28909155e-05
      -3.74411393e-05 -2.79550859e-05 -2.34630552e-05 -7.41611984e-06
      6.45995169e-06 -3.57994099e-06 -2.52566861e-05 -2.10855851e-05
      -2.22605595e-05 -1.88969752e-05 -1.54595837e-05 -1.92232164e-05
      -1.66831487e-05 -2.55570412e-05 -2.25048534e-05 -1.22235906e-05
      -1.02923586e-05 -4.63457354e-06 -4.56754560e-06 5.52286247e-06
      6.88966429e-06 -2.32315028e-06 1.79590859e-06 -8.85510985e-07
      -1.36452525e-06 -6.06701724e-06 -2.14592319e-06 9.57232805e-06
      5.96222708e-06 9.08856464e-07 1.30199578e-06 -5.30527268e-06
      -4.06038635e-06 -6.26977680e-06 -1.21008804e-06 7.09044798e-06
      1.50205024e-05 1.01684418e-05 1.42765257e-05 2.92049799e-06
      2.94092115e-06 -3.10123073e-06 -4.19300932e-07 -1.70540056e-06
      1.01080568e-05 9.57030170e-06 3.07596201e-06 -1.07356436e-06
      -8.42113604e-06 8.04023784e-07 9.76990759e-06 6.86241447e-06
      5.37913093e-06 -2.01388248e-05 -2.28312292e-05 -7.33734350e-06
      3.32381351e-05 7.33322577e-06 4.53230768e-06 -4.17014780e-06
      -1.57036254e-06 -2.15877526e-06 -4.73201180e-06 -1.69850500e-05
      -1.13378610e-05 1.82130248e-06 -4.42171449e-06 -2.79027427e-06
      -1.19574577e-06 -1.04137744e-05 -1.06154084e-06 1.31073157e-05
      7.76698198e-06 -6.41189445e-07 1.85393151e-06 -8.82965378e-06
      -1.34647389e-05 -2.00731083e-05 -2.12788345e-05 9.94607603e-07
      9.77212130e-06 1.43272950e-06 -1.58286894e-05 -1.52402481e-05
      -1.94806980e-05 -1.38909454e-05 -1.25583992e-05 -1.30766439e-05
      -1.12344060e-05 -2.01154089e-05 -6.51019627e-06 -2.57449437e-06
      -1.19154029e-05 -1.43819479e-05 -2.97616316e-05 -3.02434782e-05
      -1.19958077e-05 -1.47540559e-05 -1.93327014e-05 -2.63115817e-05
      -2.99059448e-05 -1.20328359e-05 -1.14136465e-05 -1.29301006e-05
      -1.20097702e-05 1.40250013e-05 1.01872820e-05 -6.79165623e-06
      -2.08912916e-05 -1.00716206e-05 1.78569883e-06 -8.56461338e-06
      -1.47365981e-05 -1.13645146e-05 -1.80034840e-05 -3.20232139e-05
      -2.86844224e-05 -1.94636777e-05 -1.72588534e-05 -4.65006633e-06
      -2.67071005e-06 -9.49897731e-06 -3.19531091e-06 -5.98162842e-06
